1.019580563535296136e-01
4.171075758878570877e-02
4.532934461117146124e-02
6.747859646898963365e-04
-3.340442625803505261e-03
-4.922958478871308774e-03
1.450641632464323705e-02
9.038359949703811402e-03
4.322753444528610461e-03
-6.010082233358700343e-03
9.269610587237298027e-03
1.499177073163085461e-02
-1.160999459234019621e-02
-2.643579690063735388e-03
-5.567255293287387552e-03
7.015450828734053068e-03
4.315133274490984272e-03
3.960595169808706073e-03
-8.776305692294386618e-03
-6.078498540329303756e-03
6.907709987327419199e-03
-2.004084736141267808e-02
-8.070503492060010498e-03
-2.520032188533222195e-03
1.017986081754355954e-02
2.616598591884261582e-03
-1.348615728728602692e-02
2.779275077190757753e-02
-6.615259298892367523e-03
-5.551901776916891643e-03
-7.511046483572939025e-03
-1.752131364692903134e-02
-1.590707760192901915e-02
-7.135682747704007178e-03
-3.356564976323898886e-02
-1.901309814714122887e-03
1.870420709340611318e-02
-2.008356250551823763e-02
2.350859633948260141e-02
-1.203719462766429660e-02
2.898606927478668965e-02
6.351738996872427490e-03
-4.569906874545573428e-03
3.622520126940080576e-02
7.196402825579484297e-03
-1.341363748097011005e-02
-3.727698595293545830e-02
-1.536287886811123042e-02
6.171257887075592974e-02
-2.374234271405102625e-02
-1.675144196920701212e-02
2.331900059762719024e-02
2.125990049000578766e-02
2.130241027287399502e-03
-7.174515173505216503e-03
6.878698247901035567e-03
-1.904421415044371679e-02
4.019292054318829299e-02
4.174121213602388636e-03
3.196395776186652937e-02
1.553200592902815869e-01
-7.226516728442997084e-02
-7.170211975127284421e-02
1.848116180002080944e-01
3.742085537614561752e-02
1.193376327090140548e-02
-1.670704458892780658e-02
3.516307374639724564e-02
-4.689840941294673438e-02
-1.601322766809422371e-02
-5.553109884899229409e-02
6.129082625282882696e-02
1.982886661736113498e-03
-1.638207261780840751e-01
4.857331040336333033e-02
2.430167692362539267e-02
4.870367275440600635e-02
-5.897401686718850566e-02
1.258934254922568566e-02
6.943488371921283098e-02
-3.819688679008539228e-02
-2.550876123189159059e-03
-1.070293462280024060e-01
4.163679029836686585e-02
-6.496133407455394193e-02
6.067958866535013047e-03
9.005213545721468815e-02
-7.525837818642858168e-02
7.502438200067229612e-02
7.474633089950179221e-02
6.210731134255807750e-02
9.691007890703735861e-02
-1.415972587346435718e-01
-8.425695752673462158e-03
2.281380253513287937e-01
4.229425178913138322e-02
8.865847512730076763e-02
-1.417078488298015304e-03
-2.870776759320253779e-02
1.252365557289071216e-02
2.387904885871011684e-03
5.332633045511291775e-02
1.431664037979293591e-01
-4.841545495819903067e-02
2.828750112444815973e-02
-8.190442922059115727e-02
-1.201475366639315756e-01
9.225299509284320965e-02
-1.501665990567432329e-01
6.235936862579251339e-02
-2.038744808618458970e-03
5.181926288579462303e-03
-8.947341283323428929e-02
4.132182030624223512e-03
9.818258429009273092e-02
4.135955161484889536e-02
-1.019009026748268210e-01
-1.347087145579463907e-01
7.464757946079497719e-02
2.144277476847998923e-02
9.911417512307586775e-02
1.246624307312076685e-01
-3.953494815686867114e-02
-1.712335989313431006e-01
-2.987047144720298419e-01
1.828829698306857487e-01
-8.215717171540362629e-02
4.501935769131656939e-02
-9.776435182586043493e-02
-2.443264932385197374e-01
-5.669729360748151925e-02
2.741103135978316674e-01
6.925229312596339892e-02
8.199404109474395241e-02
3.087913109190595917e-02
-1.941521399262766401e-01
-4.219284487342513101e-02
1.723101855480719535e-01
-3.217100782268901837e-01
-2.695872869492950755e-02
-6.127690771717621970e-03
7.130021076212447739e-02
2.709686105858862271e-01
-1.175594170205278288e-01
-1.074522531867680014e-01
2.154967072449253535e-02
-7.701415598455679801e-02
6.317593793064571472e-02
6.942215607539593825e-02
1.991127246165212000e-02
-2.305382387206690309e-01
-4.835977337179288987e-02
1.082324972813003966e-01
-4.181276025905721408e-03
-1.465902497042066988e-01
-6.429079631518244686e-03
1.737550093848226340e-01
8.970896672557593376e-02
2.047980314509090238e-03
-4.067261985444191041e-01
4.269077383172207446e-02
-2.810410150280620578e-02
-2.355821441710520547e-01
6.047607872070770441e-01
2.591959599539905498e-02
-2.643291921372092346e-01
3.595723928613421272e-01
-2.018320060062718801e-01
-1.302547380412219791e-01
-2.550185588303498507e-01
-2.539949215045972930e-01
-4.738204464799098403e-01
-4.104838752833119692e-02
-4.108657689878671415e-01
2.520563612648639706e-01
1.872070704366726457e-01
1.147768255807955426e-02
1.795092396692327466e-02
1.501425695489956233e-03
-2.866152817164737687e-01
1.593398886392359826e-01
5.403050612402298114e-01
-2.440191144168416260e-01
1.073074179322688546e-02
2.203953271089633126e-01
-8.717307974423821326e-01
1.398241472278738406e-01
-9.331411724474610037e-04
1.271181566937762686e-01
-2.568928777032311594e-01
-3.495323739039229438e-01
2.810041781623006663e-01
2.956904629779675830e-01
2.879810416527988637e-01
2.320847225455313911e-01
-2.814017081864492731e-01
-2.114729805296607645e-01
-1.502501583431706811e-01
1.966845016735429552e-01
2.766093048660924203e-01
5.596111612076874742e-02
1.703183406364684044e-02
-1.051073498997384253e-01
1.779132205711567993e-01
-6.509448768527252849e-01
-8.670630754745721480e-02
6.822344472334748167e-01
-3.644646044988590350e-01
7.060640991265584865e-02
-4.230211994158770139e-01
-1.188072806004880633e-02
1.642158471704001643e-01
5.278670483247555056e-01
5.166383869526686851e-02
3.427138411393528816e-01
-5.230624982230496212e-01
-3.739459928101389330e-02
-2.339265054588399728e-01
4.051081612076481986e-02
2.973460128485399534e-01
4.022310244478035091e-01
9.900473108052911808e-01
7.462156660164491750e-01
-4.436436899399212042e-01
8.640201894112373715e-01
-8.778522278755748753e-02
2.323947928587777045e-01
3.703162248103526732e-02
-2.255701388573345123e-01
-7.924990854431122056e-01
-1.587767045415101053e-01
1.355906996427160838e-01
-4.994438099090033334e-01
-4.533228545504808249e-01
1.481782317207209487e-01
4.178891845920684189e-01
-1.564386659270971813e-01
1.895493599380345395e-01
-1.297865375069836430e-02
1.144818629959190176e-01
-4.740645651783347847e-01
-5.352545060104413333e-02
3.469193039171172832e-02
-1.117674126499523107e-01
3.336026974606849382e-01
-1.763953773403431347e-01
-1.968104182231439347e-01
-2.708798308085377249e-01
2.268158976186939596e-02
-1.060322911012502034e-01
-4.750049131612654740e-01
-2.065936185559802962e-01
-1.005378281647643646e-01
2.845848990051950689e-01
1.876547082217157325e-02
-4.438106906280247371e-02
3.735809336772238365e-01
8.245691397180267279e-02
-1.128424708147040656e+00
-2.905041181814313478e-02
1.431256101966501826e-01
7.263321370122745313e-02
-2.081907637022296920e-02
8.672519600165071174e-02
-3.699340853444165189e-01
-7.771770224320809772e-01
-3.462782696013124162e-01
-2.908384805943084461e-01
1.837479558984744799e-01
-3.265129898846769185e-01
7.498908938541412605e-02
4.599252000069782853e-01
3.142933361704607353e-01
3.196210623443131449e-01
-9.202500006324795256e-01
1.595023930774456533e-01
-9.728473329173442652e-01
-7.576570855124228343e-01
3.941122289969656856e-01
-3.738187655283329858e-01
5.863902964713024746e-02
-3.434543458032827679e-01
-1.643748868879424119e-01
3.135872323502046366e-01
-1.258686899251195701e-01
3.504154754729336685e-01
2.193019315295303417e-01
-6.492095370819040978e-01
8.476460465301067781e-01
-2.726196355607132249e-01
-1.997235870730807994e-01
-4.185517191330932751e-02
9.695619063185606512e-02
-1.422849641996292158e-01
5.285476318285888819e-01
-5.263859796380019329e-01
-5.333154005467279773e-02
-6.079615994615588104e-01
6.602612574298688530e-02
-3.079445605243791295e-01
-5.330559470461144339e-02
6.796535756150179353e-01
5.924322878477104037e-01
5.191226691501230617e-01
2.240159752542127125e-01
2.287331761179463019e-01
8.594257669286012868e-01
-3.410789928789865200e-01
2.472473853381104703e-01
-3.042269614297047342e-01
8.427071471369643185e-02
-4.090508139501655704e-01
1.454134224913185280e-01
5.932599927765946912e-01
6.046020807924255003e-01
6.896861108777709859e-01
1.034568505532404314e+00
6.249280859800758758e-01
3.744330983301553673e-01
8.534383447236817966e-02
-4.145203267650884871e-02
9.299264899273450291e-02
4.317985811865104884e-01
6.033820493191812684e-01
-5.509607187033288556e-01
-1.807483008102213073e-01
-4.019296812866910429e-01
2.621373809719170223e-01
-1.665818114745547807e-01
-5.655577754271533530e-01
-1.510461395332049817e+00
-6.404165211841177374e-01
6.508402351647928075e-02
9.413481785558324155e-01
1.819679480612715894e-01
1.508940209896439122e-01
1.409258885650406468e+00
6.754757794131956150e-02
-5.250650702879386400e-02
-1.545381585563475046e-01
1.657761012798540934e-01
6.353890178431291780e-01
-2.473819638940397969e-01
1.962101833446368238e+00
1.816527590321749264e+00
8.066070937531643059e-01
3.082176161808299342e-01
-5.965286402320750803e-01
4.025723644695473613e-01
-4.982591485152846333e-01
-7.725020858044899796e-01
-1.426824878992691614e+00
-6.531920479449895289e-01
-4.737974391744671498e-01
-3.457990619260785659e-01
2.334722119993079201e-02
-3.797551627549287101e-01
5.982056607204569443e-02
-3.694329424105677884e-01
-6.863803803992571950e-01
-7.805888518769968365e-02
4.927059300212892345e-02
-2.703419477883003408e-01
7.271367482335604204e-02
-6.866782880371912201e-01
-9.137609843717310609e-02
-8.237192700747816287e-01
-5.003657957802275513e-01
-7.402493879821121503e-01
-2.896117899901313186e-01
-1.028136814228380658e+00
-3.189015402364386853e-01
2.597631885357812309e-01
-2.530527250420791519e-01
-1.944765372673651349e-01
1.879214166999879365e-01
-1.237433872425092451e-01
2.820426476932413190e-02
-8.087932061722823140e-02
-9.019006693114126616e-01
1.349187087426396481e+00
-1.343342919264721991e-01
-3.147971266763416320e-01
3.120107462834266210e-01
-2.228260627153579032e-01
-4.500475665573675510e-01
-3.439920229187654610e-01
8.764926709704096847e-03
1.618662578468166996e-02
-1.213617408850889562e-01
-1.145224692952505618e-01
-2.099292653715955637e-01
-2.220549998534064318e-01
-1.545529775998959465e-01
-1.583395812955906423e-01
-3.436402926925814089e-02
-2.051644096660548422e-01
-2.345462893044226171e-01
2.883796908736308701e-02
1.921198154136194713e-01
-7.335260451536930182e-01
6.543437419586774217e-02
-4.358123767697686946e-01
-2.917753156715842677e-01
-1.604783335577526504e-01
-2.010754917870358760e-01
-8.976668205402130174e-02
-7.336861797858145184e-01
1.116103482317853252e-01
1.042741965332733278e-01
4.702011945727431474e-02
6.163897552903861016e-02
4.333806085432660993e-01
2.796592490105035966e-01
-5.207753586501362442e-01
2.637491919516401495e-01
1.047277122991852188e-01
4.733077790768406429e-02
7.775143358696466611e-03
-5.464198150749061123e-02
-1.005673956417143383e-01
-3.089058760371117263e-01
-5.851549647196500059e-01
-4.307508112109956211e-01
-3.672253030173610600e-01
5.660194176202409944e-01
-3.866505737636568019e-01
3.672347843055879801e-01
-4.951448282509579579e-01
-8.425496031685510145e-02
5.212722799652703687e-01
-5.143799307038322555e-01
-1.473598064497146642e-01
3.928224634948102728e-02
-5.632236341166961813e-01
-6.344368337572122707e-01
2.286441544593103559e-01
-3.879301274070819927e-01
2.071715552891059686e-02
-8.050198408897071833e-02
2.137728576186301854e-01
3.112077799996373906e-02
-2.219406277119845283e-01
-3.153144065738543445e-01
2.839128122379283581e-01
-2.578133940564735216e-01
2.873817518326548526e-01
4.862660699662899044e-01
2.935430766121048252e-01
-2.609361379187762342e-01
4.599386434471618990e-01
2.133635533297396636e-01
3.513445024905847425e-01
2.297892473989785189e-01
-2.336345712311946876e-01
6.965495085042552326e-01
1.960445231833845767e-02
6.411546229130984931e-02
3.664621479214428268e-01
4.309731518720656962e-01
-1.309426970793453951e-02
2.379065650908608609e-02
-3.294591886663816860e-02
-1.783711285807088320e-01
2.821516351358600017e-01
5.962336511400150030e-02
1.096237383251917330e-01
-2.035560945186774551e-01
4.718790497667212924e-01
-2.544072338787980447e-01
-5.598819203070022621e-02
-4.039897973696564004e-01
-1.511621179247114310e-01
1.322514838376705193e-02
-1.691122472239247609e-01
-2.158120847893505723e-01
2.104080397554161097e-01
-2.561217116854891396e-02
2.384412852390394022e-01
1.091864178565167126e-01
8.786442541716071863e-02
-6.212866700983036283e-01
-5.743801676276389934e-01
2.185261238371221659e-01
-1.979592390310807026e-01
-1.599074974584214215e-01
4.480990288106844743e-01
1.004475173972007862e-01
1.829897850433018225e-01
6.158032801792977518e-01
-1.729570241376264805e-01
-4.313976027499649146e-01
5.081667701994510566e-02
1.433750012859673906e-01
-5.364767868488826696e-01
3.740252437489418047e-01
-8.088895093524388624e-01
-2.134042299057359315e-01
1.076803410573281827e-01
-3.675887429242519211e-01
2.589896589113470093e-01
7.237627037975806754e-01
3.276385509037111898e-01
3.563791847567879256e-01
5.181670630199320948e-01
-3.688150019794679269e-01
3.191086619628992760e-01
4.972571975068161287e-01
-1.425044323574447824e-01
-1.888668599551275307e-01
8.059252070895268905e-02
-2.171427250452102886e-01
-1.445214333426484643e+00
-2.171427250452599989e-01
8.059252070889337538e-02
-1.888668599551264204e-01
-1.425044323572225158e-01
4.972571975067406336e-01
3.191086619628066279e-01
-3.688150019795318757e-01
5.181670630200221339e-01
3.563791847565384030e-01
3.276385509039360655e-01
7.237627037977421018e-01
2.589896589113606651e-01
-3.675887429242775672e-01
1.076803410573643205e-01
-2.134042299056163883e-01
-8.088895093524134383e-01
3.740252437489843262e-01
-5.364767868487400060e-01
1.433750012860392220e-01
5.081667702001739506e-02
-4.313976027498319099e-01
-1.729570241376377771e-01
6.158032801793338340e-01
1.829897850433030437e-01
1.004475173971855623e-01
4.480990288106956876e-01
-1.599074974583806485e-01
-1.979592390311303018e-01
2.185261238371092041e-01
-5.743801676276806267e-01
-6.212866700983065149e-01
8.786442541722151722e-02
1.091864178565466331e-01
2.384412852390729864e-01
-2.561217116849176176e-02
2.104080397554495829e-01
-2.158120847893044147e-01
-1.691122472239035557e-01
1.322514838378484499e-02
-1.511621179246914193e-01
-4.039897973696067179e-01
-5.598819203067941647e-02
-2.544072338787758403e-01
4.718790497666933703e-01
-2.035560945186534743e-01
1.096237383252037234e-01
5.962336511398420857e-02
2.821516351358319130e-01
-1.783711285807531577e-01
-3.294591886658918695e-02
2.379065650915863223e-02
-1.309426970790891764e-02
4.309731518720393839e-01
3.664621479213833743e-01
6.411546229142195408e-02
1.960445231831628096e-02
6.965495085042683332e-01
-2.336345712311345968e-01
2.297892473990212903e-01
3.513445024905273439e-01
2.133635533297743303e-01
4.599386434471321450e-01
-2.609361379187291607e-01
2.935430766120764590e-01
4.862660699662975650e-01
2.873817518326219345e-01
-2.578133940564393267e-01
2.839128122379746544e-01
-3.153144065738508472e-01
-2.219406277119214399e-01
3.112077800002069697e-02
2.137728576186754548e-01
-8.050198408897206448e-02
2.071715552901361168e-02
-3.879301274070814376e-01
2.286441544593180442e-01
-6.344368337572167116e-01
-5.632236341166749760e-01
3.928224634953970257e-02
-1.473598064497224636e-01
-5.143799307038063873e-01
5.212722799652924621e-01
-8.425496031681459219e-02
-4.951448282509497978e-01
3.672347843055926986e-01
-3.866505737636616868e-01
5.660194176203224847e-01
-3.672253030173902033e-01
-4.307508112109657006e-01
-5.851549647196101489e-01
-3.089058760371079515e-01
-1.005673956417014320e-01
-5.464198150753625527e-02
7.775143358696681717e-03
4.733077790765593401e-02
1.047277122991988885e-01
2.637491919516475880e-01
-5.207753586501239207e-01
2.796592490105087592e-01
4.333806085432619914e-01
6.163897552902380950e-02
4.702011945726931180e-02
1.042741965333133514e-01
1.116103482318000217e-01
-7.336861797858335033e-01
-8.976668205397531075e-02
-2.010754917870089531e-01
-1.604783335577983916e-01
-2.917753156715928164e-01
-4.358123767697548168e-01
6.543437419587132264e-02
-7.335260451536842474e-01
1.921198154135499714e-01
2.883796908732346592e-02
-2.345462893044752140e-01
-2.051644096660507066e-01
-3.436402926928810997e-02
-1.583395812956390758e-01
-1.545529775998594479e-01
-2.220549998534772917e-01
-2.099292653715909007e-01
-1.145224692953258627e-01
-1.213617408850329593e-01
1.618662578462354978e-02
8.764926709704209604e-03
-3.439920229187722334e-01
-4.500475665573656636e-01
-2.228260627153704487e-01
3.120107462834257328e-01
-3.147971266763489595e-01
-1.343342919264662871e-01
1.349187087426515053e+00
-9.019006693114475226e-01
-8.087932061718146326e-02
2.820426476931050738e-02
-1.237433872424898579e-01
1.879214166999876590e-01
-1.944765372672939974e-01
-2.530527250420309682e-01
2.597631885357389869e-01
-3.189015402364873131e-01
-1.028136814228345353e+00
-2.896117899900959580e-01
-7.402493879821316902e-01
-5.003657957802384315e-01
-8.237192700747381080e-01
-9.137609843717950375e-02
-6.866782880371377074e-01
7.271367482333218613e-02
-2.703419477883646227e-01
4.927059300215008014e-02
-7.805888518768808182e-02
-6.863803803993018260e-01
-3.694329424105373127e-01
5.982056607206449189e-02
-3.797551627549583531e-01
2.334722119989431771e-02
-3.457990619260672971e-01
-4.737974391744626534e-01
-6.531920479449925265e-01
-1.426824878992751788e+00
-7.725020858044910899e-01
-4.982591485152869648e-01
4.025723644695596848e-01
-5.965286402320656434e-01
3.082176161808549697e-01
8.066070937531837348e-01
1.816527590321723729e+00
1.962101833446354249e+00
-2.473819638940753796e-01
6.353890178431617075e-01
1.657761012797995259e-01
-1.545381585563644355e-01
-5.250650702879271908e-02
6.754757794136377613e-02
1.409258885650408910e+00
1.508940209896574014e-01
1.819679480613016764e-01
9.413481785558264203e-01
6.508402351651459972e-02
-6.404165211841326144e-01
-1.510461395332071355e+00
-5.655577754270892932e-01
-1.665818114746040191e-01
2.621373809720032866e-01
-4.019296812866546831e-01
-1.807483008101392896e-01
-5.509607187033567222e-01
6.033820493191952572e-01
4.317985811865479029e-01
9.299264899279524599e-02
-4.145203267648871204e-02
8.534383447240145859e-02
3.744330983301678017e-01
6.249280859800607768e-01
1.034568505532553750e+00
6.896861108777531113e-01
6.046020807924467055e-01
5.932599927766272208e-01
1.454134224913186113e-01
-4.090508139501932150e-01
8.427071471372349354e-02
-3.042269614296213009e-01
2.472473853380859898e-01
-3.410789928790914916e-01
8.594257669286260448e-01
2.287331761179581813e-01
2.240159752542193461e-01
5.191226691501508173e-01
5.924322878477169541e-01
6.796535756150099417e-01
-5.330559470459183408e-02
-3.079445605243890660e-01
6.602612574296931602e-02
-6.079615994615445995e-01
-5.333154005469663284e-02
-5.263859796379878331e-01
5.285476318286201902e-01
-1.422849641996806747e-01
9.695619063179210240e-02
-4.185517191339289955e-02
-1.997235870730812990e-01
-2.726196355606917976e-01
8.476460465300873492e-01
-6.492095370818850020e-01
2.193019315296165783e-01
3.504154754729619792e-01
-1.258686899251406088e-01
3.135872323501482928e-01
-1.643748868879295055e-01
-3.434543458033332830e-01
5.863902964715383970e-02
-3.738187655283828348e-01
3.941122289969704595e-01
-7.576570855124735715e-01
-9.728473329174531781e-01
1.595023930773044329e-01
-9.202500006324924042e-01
3.196210623442394261e-01
3.142933361704453588e-01
4.599252000067779456e-01
7.498908938533611901e-02
-3.265129898845924861e-01
1.837479558985634642e-01
-2.908384805943538542e-01
-3.462782696015136441e-01
-7.771770224320364573e-01
-3.699340853446975719e-01
8.672519600166066212e-02
-2.081907637030085134e-02
7.263321370133012100e-02
1.431256101965925898e-01
-2.905041181806463854e-02
-1.128424708147027777e+00
8.245691397175841653e-02
3.735809336772238365e-01
-4.438106906288409592e-02
1.876547082212096096e-02
2.845848990050490745e-01
-1.005378281644312422e-01
-2.065936185557537275e-01
-4.750049131614041409e-01
-1.060322911010656011e-01
2.268158976213480171e-02
-2.708798308087966289e-01
-1.968104182229470644e-01
-1.763953773400819824e-01
3.336026974607411710e-01
-1.117674126499064446e-01
3.469193039192579320e-02
-5.352545060092250839e-02
-4.740645651783514380e-01
1.144818629959536427e-01
-1.297865375064730792e-02
1.895493599382090666e-01
-1.564386659270572966e-01
4.178891845921093862e-01
1.481782317207378519e-01
-4.533228545503426576e-01
-4.994438099090462990e-01
1.355906996427134192e-01
-1.587767045415375833e-01
-7.924990854429682097e-01
-2.255701388573179977e-01
3.703162248102684351e-02
2.323947928587991596e-01
-8.778522278747859231e-02
8.640201894112810033e-01
-4.436436899398838452e-01
7.462156660165100153e-01
9.900473108053354787e-01
4.022310244479001540e-01
2.973460128486374310e-01
4.051081612077249428e-02
-2.339265054588756110e-01
-3.739459928102960296e-02
-5.230624982231542042e-01
3.427138411393495510e-01
5.166383869535566553e-02
5.278670483246770129e-01
1.642158471703456524e-01
-1.188072805999485643e-02
-4.230211994158514233e-01
7.060640991271187328e-02
-3.644646044988588129e-01
6.822344472335020171e-01
-8.670630754746237734e-02
-6.509448768527182905e-01
1.779132205711496106e-01
-1.051073498997561473e-01
1.703183406370492245e-02
5.596111612076904579e-02
2.766093048660842046e-01
1.966845016735307150e-01
-1.502501583431078425e-01
-2.114729805297290710e-01
-2.814017081864320091e-01
2.320847225455249796e-01
2.879810416528671979e-01
2.956904629780018334e-01
2.810041781623181523e-01
-3.495323739039079003e-01
-2.568928777032764565e-01
1.271181566937635288e-01
-9.331411723995583496e-04
1.398241472278529962e-01
-8.717307974423386119e-01
2.203953271089696964e-01
1.073074179319562574e-02
-2.440191144167269122e-01
5.403050612401858466e-01
1.593398886392367042e-01
-2.866152817165356081e-01
1.501425695502029908e-03
1.795092396693744735e-02
1.147768255804125850e-02
1.872070704366357308e-01
2.520563612649068808e-01
-4.108657689877956432e-01
-4.104838752825521603e-02
-4.738204464798970728e-01
-2.539949215045212427e-01
-2.550185588302933959e-01
-1.302547380411613609e-01
-2.018320060063043542e-01
3.595723928613762110e-01
-2.643291921372464826e-01
2.591959599542982551e-02
6.047607872070279722e-01
-2.355821441710134190e-01
-2.810410150287334999e-02
4.269077383173986578e-02
-4.067261985445143613e-01
2.047980314459789397e-03
8.970896672561734508e-02
1.737550093849015986e-01
-6.429079631534273531e-03
-1.465902497041008945e-01
-4.181276025960608059e-03
1.082324972813040742e-01
-4.835977337181451147e-02
-2.305382387206289518e-01
1.991127246162999881e-02
6.942215607542838451e-02
6.317593793062578622e-02
-7.701415598461411327e-02
2.154967072441603751e-02
-1.074522531866696773e-01
-1.175594170206323563e-01
2.709686105858573613e-01
7.130021076200906971e-02
-6.127690771695407101e-03
-2.695872869498637178e-02
-3.217100782269644577e-01
1.723101855481777855e-01
-4.219284487342769147e-02
-1.941521399261381120e-01
3.087913109197919226e-02
8.199404109475730285e-02
6.925229312587932728e-02
2.741103135978225080e-01
-5.669729360739650392e-02
-2.443264932385172117e-01
-9.776435182586695749e-02
4.501935769131132359e-02
-8.215717171544281716e-02
1.828829698306958518e-01
-2.987047144721133862e-01
-1.712335989312933626e-01
-3.953494815659565342e-02
1.246624307312452634e-01
9.911417512295132848e-02
2.144277476836773527e-02
7.464757946089303764e-02
-1.347087145578800826e-01
-1.019009026748289443e-01
4.135955161480341785e-02
9.818258429020232381e-02
4.132182030710238041e-03
-8.947341283315060623e-02
5.181926288708296746e-03
-2.038744808693093713e-03
6.235936862578052298e-02
-1.501665990567720155e-01
9.225299509293591327e-02
-1.201475366639549458e-01
-8.190442922069163245e-02
2.828750112440181139e-02
-4.841545495823801337e-02
1.431664037979263893e-01
5.332633045511745579e-02
2.387904885961498330e-03
1.252365557284058559e-02
-2.870776759326998384e-02
-1.417078488280914400e-03
8.865847512729979618e-02
4.229425178911971200e-02
2.281380253513039524e-01
-8.425695752622176793e-03
-1.415972587347273381e-01
9.691007890701108796e-02
6.210731134261670422e-02
7.474633089937282593e-02
7.502438200061667395e-02
-7.525837818627351128e-02
9.005213545724206903e-02
6.067958866511113762e-03
-6.496133407471245402e-02
4.163679029818916077e-02
-1.070293462282856101e-01
-2.550876123336492593e-03
-3.819688678984373142e-02
6.943488371912513724e-02
1.258934254922066537e-02
-5.897401686728708653e-02
4.870367275428836434e-02
2.430167692366144022e-02
4.857331040328392163e-02
-1.638207261778295010e-01
1.982886661673913253e-03
6.129082625326454786e-02
-5.553109884916410111e-02
-1.601322766813079168e-02
-4.689840941309961903e-02
3.516307374609074082e-02
-1.670704458895398703e-02
1.193376327061936026e-02
3.742085537622076574e-02
1.848116180001285747e-01
-7.170211975124361758e-02
-7.226516728411647161e-02
1.553200592903145605e-01
3.196395776186566895e-02
4.174121213557369092e-03
4.019292054330869668e-02
-1.904421415012932939e-02
6.878698247812564670e-03
-7.174515173809209445e-03
2.130241027210447169e-03
2.125990048987603728e-02
2.331900059741978670e-02
-1.675144196957447512e-02
-2.374234271442426936e-02
6.171257887087945593e-02
-1.536287886791204080e-02
-3.727698595230623940e-02
-1.341363748086485397e-02
7.196402825655846824e-03
3.622520126906514371e-02
-4.569906874020941007e-03
6.351738997236802686e-03
2.898606927491598206e-02
-1.203719462774753557e-02
2.350859633952433192e-02
-2.008356250510116847e-02
1.870420709352464336e-02
-1.901309814436966117e-03
-3.356564976336955108e-02
-7.135682747520119551e-03
-1.590707760200244653e-02
-1.752131364712306710e-02
-7.511046483203484558e-03
-5.551901777186030520e-03
-6.615259299010523009e-03
2.779275077169483105e-02
-1.348615728834449967e-02
2.616598592226293540e-03
1.017986081770548557e-02
-2.520032188824530839e-03
-8.070503492719538485e-03
-2.004084736130715139e-02
6.907709986754759224e-03
-6.078498540843475795e-03
-8.776305692739683195e-03
3.960595169745742550e-03
4.315133274036264677e-03
7.015450828045825815e-03
-5.567255293208561717e-03
-2.643579689132966037e-03
-1.160999459278785895e-02
1.499177073334495569e-02
9.269610586468107760e-03
-6.010082234471483820e-03
4.322753444192889427e-03
9.038359947406982009e-03
1.450641632408371240e-02
-4.922958480190371688e-03
-3.340442626645033497e-03
6.747859649273747762e-04
4.532934461117205799e-02
4.171075758976031805e-02
