-1.100977615926522488e-15
4.193894426708087014e-02
3.247070344895818667e-02
2.675862459391930084e-03
-6.607895054593301582e-04
-4.460001083735157593e-03
5.557497758235408272e-03
1.861672083480404426e-03
5.459858257419086640e-03
-6.029182255307377787e-03
6.738689991831333173e-03
4.012874950132790629e-03
-4.368046175711022550e-03
1.114249623198032340e-03
-2.824130028639864568e-03
-1.543189014860992794e-03
9.912726438625176287e-04
9.920536696636887697e-04
-2.817714615333405132e-04
-8.560369115051999142e-03
-2.421542600805573313e-03
-3.988860378171251581e-03
1.641618628368494244e-03
-1.164666673937751057e-03
2.854927674150262683e-03
3.316594133380501488e-03
-1.083217618668096387e-03
8.124360378650807499e-03
-2.116288956056845585e-04
4.093347759176355245e-03
-1.969701555903737890e-03
-4.221848976701257465e-03
-1.034731622097005178e-02
-1.261163138701209413e-02
-1.749097083786011267e-02
-2.076496964528229145e-03
6.191501980463738272e-03
-9.917525341890630342e-03
1.457121030227352503e-02
-3.665634931277194763e-03
2.695891384582456418e-02
-1.205890572032800728e-02
-2.175517424912748292e-03
1.331547363813369300e-02
6.368098472257075447e-03
4.937238352744452614e-03
-2.828027872612256036e-02
-4.035313349928996811e-03
4.725186823956447485e-03
-3.194621703924929550e-03
2.920741770763259342e-03
-1.337521218562244367e-02
2.994366187996174572e-02
-8.850935721890359001e-03
-2.066872219029340218e-03
-1.058879575311975907e-02
1.299029057981086668e-03
2.198663699720808037e-02
9.300896282302451067e-04
1.312023410495964486e-02
7.037881348517095736e-02
-9.060472105216516026e-03
-7.200970395257479638e-03
3.314150769115788153e-02
3.913622235795926468e-02
1.421980643353091059e-02
3.166314644353928221e-03
2.216362285221561840e-02
-2.031330385401647690e-03
-2.019409295883104610e-02
2.390934695538693856e-03
7.861014089188132076e-03
1.174261080901363441e-02
-3.361110891319710192e-02
4.305859010249451883e-03
1.370286637494592258e-02
1.312622547467205171e-02
-3.190698656059140492e-02
-1.388480456155258280e-02
1.941639115860553308e-02
1.272715317330429512e-03
3.018272081593772224e-04
-5.321793286178968380e-02
1.811632925795351318e-02
9.064717902410096486e-05
1.010510831346754165e-02
1.212628902684692589e-02
-2.822997980900841114e-02
1.706159216404859458e-02
5.265138460276677645e-02
4.951193316333722672e-02
2.034414962902705501e-02
-4.951465674207840978e-02
2.008737196157222779e-02
5.381343641377142606e-02
6.297929664516090098e-02
5.676543514316852862e-02
-1.034740054912651475e-02
-2.181635814226109277e-02
-2.017506110100102459e-02
1.961281427438397659e-02
5.364608238191431733e-02
1.614971305606970747e-02
-3.110020502735664702e-02
6.746464472534093211e-03
-3.468318482465192198e-02
-2.497109951519231943e-02
1.666645803261622774e-02
-3.030157149638547029e-02
3.757673197160508322e-02
-1.289688430540397723e-02
2.143701918297059861e-02
-1.541207902627526015e-02
3.398096547220203628e-02
3.024197675137121205e-02
-3.339526286160734991e-02
-5.247461307439420936e-02
-7.344541600912578294e-02
3.066440292076819465e-02
-2.443497566868554211e-02
-1.393468616174627951e-02
1.606624580708472050e-03
-3.618883113243240301e-02
-4.703841220758751829e-02
-6.463057773248491455e-02
-8.742382741045891248e-03
-5.715146505339906147e-03
1.108669116797726499e-02
-7.093205972721761121e-02
-3.819426855127770054e-02
-2.311363286457862078e-03
4.054182320860548472e-02
1.068356566858712359e-01
9.199417779959308261e-02
-7.828915941574038362e-02
-7.585363553435023852e-03
3.850238390494516855e-02
4.343266389694015912e-03
-8.808708054811356658e-02
-4.985531027069994153e-02
1.396278165994101206e-02
7.496296373089200542e-03
9.439555047052687609e-02
-5.166443616789695437e-02
-5.215290507731485531e-02
-3.712026480993821376e-02
-3.783290027789745075e-02
-4.565203930101175561e-02
3.969459786859724088e-02
-2.688618838363386263e-02
-4.410530765181291252e-02
-7.052569717265573523e-02
2.178881795109904873e-02
4.873845044813335248e-02
-2.256276146448874323e-02
4.803807731382328527e-02
6.591227490992385141e-02
2.305354392065486410e-02
-7.002751750258998098e-02
-1.322709987418574373e-01
-1.028266750815667596e-01
-3.138210058535030600e-02
-4.080385333723648977e-02
4.502853012551031459e-02
3.559598735783449375e-02
-8.572628631322050385e-02
1.895872428040847324e-01
-7.359215571145716339e-02
3.323955273617684725e-02
-1.970078994616672186e-01
-1.448660904790399218e-01
-1.162879459471999055e-01
-3.978584949609285590e-03
-1.971585428432508780e-01
-4.902255782501670212e-02
2.154150717186554750e-02
-4.699973378661714135e-02
9.311081283665886832e-02
-1.170712864418579219e-01
-4.186988293636444147e-02
1.335565703862400255e-01
-1.808334477380128813e-02
-3.794668235160828049e-03
6.642905335676235756e-02
1.211083774430198323e-01
-1.869481546119999837e-01
-8.153594820135549870e-02
-4.217398591706812000e-02
-9.276367076151177671e-02
4.262624655711805960e-02
1.106621511843395439e-01
1.168542644502962302e-01
-8.793093173733780576e-02
1.215247290874079955e-01
1.092058629349800525e-01
5.750172456206348315e-02
-1.379205816829216780e-01
3.810562222721883274e-02
-7.157617783093275787e-02
1.911184570373825886e-01
-5.874279391773514283e-03
-1.467477093595662418e-01
1.203608123673631861e-02
-1.377253508563527351e-01
2.115187623488484214e-01
-2.721085908803299105e-02
5.475608210062010706e-02
7.349710354190361339e-02
1.775763625110094585e-02
-3.441382625291217190e-02
-7.147865500529905491e-02
1.005131068455404897e-01
1.620481479904870847e-01
8.647394262011409705e-02
6.984636389322838868e-02
-8.035006582924471633e-03
7.160355126139394955e-02
-1.328908195169259121e-01
3.425807335810596155e-02
2.514109910204542775e-01
-9.073569438582965163e-03
1.216761907177371926e-01
3.545228257451840115e-01
-4.471224364501177190e-02
2.145518867801438634e-01
2.866106736205069616e-01
-6.542696043611011258e-02
-2.210103174280955984e-01
4.110680184336439058e-02
-2.365535163534608909e-01
5.231025290542732492e-02
5.644723477778050558e-02
-3.835487598816175736e-02
-3.066429122561770693e-01
2.483985791422322620e-01
4.900712692019202898e-01
-3.477708608255315748e-02
-1.585229559392324072e-01
1.290797610046909294e-01
5.480069035424833812e-02
-2.733758851858119135e-02
9.672767890614318576e-02
-1.996971112942771132e-01
5.355817812990301685e-02
2.176542901350037862e-01
-1.800103654780677576e-01
-8.582217655471827134e-02
-1.553121115093827054e-01
1.766316104732819914e-01
1.874719156051613267e-01
-1.307482234595170878e-01
2.290797408882602542e-04
3.025039528771123268e-02
-1.252832769533508417e-01
5.829423208670778817e-02
-1.013329013912732668e-01
-1.181035776927732289e-02
2.004085679204302139e-01
-2.594251224231751696e-01
2.166566240749330172e-02
1.508715101108463671e-02
-2.254302309951918687e-02
-4.127376818533730340e-02
8.815198374060216613e-02
-2.398722075590480896e-01
-7.660838729485754117e-02
-1.584633472133861187e-01
-1.073273425556449112e-01
1.565188651130027531e-01
-2.219250882254445723e-01
-2.607287888699016259e-02
9.905171582431164523e-02
2.642090599197582934e-01
1.669048880733370599e-01
-3.652512994563395510e-01
-2.815245911429810621e-01
-3.450392813018078875e-01
-4.836413513412852749e-01
-1.054368273705709597e-01
1.072048966806478792e-01
-2.174078611851482101e-01
-5.862567911588333069e-02
2.021620079770983236e-01
-1.773105033755395799e-01
1.166156064490237593e-01
2.208386243353746559e-01
-3.021591226497853666e-02
-5.670259615593858937e-02
2.693214332930148336e-01
1.072283352311752397e-01
-5.094592592229131578e-02
9.286276158729910024e-02
-2.388524390850887968e-01
-1.755372875154022627e-01
1.355529774354820582e-01
-1.316203827883712651e-01
-2.062695650262654223e-01
8.644021639687875236e-02
1.136513794771904784e-01
-2.917203789072481124e-01
-1.320507442513799978e-01
1.721001072629854689e-01
4.159396842952090001e-01
2.355557662396761398e-01
-4.994996931196356293e-02
1.738830715067580246e-01
2.130009373342569845e-01
-1.608912741721300332e-01
2.101005115247554234e-01
1.371299391618139296e-01
4.768027959900079937e-02
-3.212894945373027666e-01
1.291633747766927909e-02
5.297505399489259581e-01
1.070208355076283091e-01
3.244356151233973584e-01
6.210217372166594307e-01
3.918961731742841570e-01
3.933591897453835307e-01
-1.138232294627452845e-01
1.761854088419594899e-01
-4.169279012095365722e-02
5.644241600257526859e-02
3.571000545298210205e-01
-2.270244735249117018e-01
-4.910503665518749228e-02
-1.402746975065793933e-01
1.232979618443318104e-01
-2.488349157468721373e-01
-7.751573631997520086e-02
-5.096040393304139826e-01
-3.117528111629179755e-01
-4.191480076851369918e-02
6.669362235024556274e-01
-1.544528368826551985e-02
3.527268414123195528e-02
5.976025931914554779e-01
-3.705981383817807950e-01
1.212804616939948676e-01
-1.580930467376873982e-01
-3.278623602810838700e-02
1.880839621867771635e-02
1.686272186029701137e-01
7.805515212967495398e-01
9.801337071112024013e-01
5.841108760223890917e-01
-1.983449589512488731e-01
-7.105704054282181714e-02
1.684826150146274681e-01
1.389249954119179120e-01
-4.773391994151012230e-01
-5.552467803392124868e-01
-5.186778502088049692e-01
-4.231224319078182722e-02
-3.101801479884800372e-01
-1.646432656716002030e-01
-2.052248821110218557e-01
-1.688545598989071306e-01
-2.826211034357226648e-01
-1.993826511284210456e-01
-7.779705391087986255e-02
3.243279697171166931e-02
-1.340282235145294210e-01
5.218766486156276030e-02
-7.823385346493655357e-02
-4.623781507449484796e-01
-3.704559658270462630e-01
-1.236195826097013090e-01
-1.081658685567388617e-01
8.689371654750770169e-02
-9.442640386881361036e-02
-1.692042871207015409e-01
-6.552981727225513919e-02
-4.225130765109384040e-02
1.342190844468212907e-01
-1.075445187504775746e-01
7.949284636618814126e-03
-1.207984128327763557e-01
-2.099154688857049200e-01
-2.699684285668017547e-01
-4.262518354597047421e-02
2.328004310567368951e-01
-8.267671638914050880e-02
-1.283976211663149514e-01
-2.338146007232756451e-01
-1.925855698208760458e-01
-4.309481887095599206e-01
-3.147643783777359094e-01
4.133304323566115712e-02
-2.336738071216225288e-01
-1.243615305456845233e-01
-2.594116414605789345e-01
-4.073386479149684880e-01
-8.049600420152543123e-02
-1.425132308136891068e-01
-1.760604547371821538e-01
1.392450387072785567e-01
2.273289332864129597e-01
-1.140235506617040540e-01
6.107488209571901826e-03
-1.712213827341451944e-01
4.659254732802780435e-02
6.126921280084619142e-02
-3.558783145262692238e-01
-1.822784551842325240e-01
-4.259235914203887141e-01
-1.409313000571368324e-01
-8.940697314153697728e-02
2.275461320495250073e-01
-1.294608395663600364e-01
1.300915768883267876e-01
-8.515835401143322103e-02
-3.017473362099756251e-01
1.771805508497721060e-01
-3.604189260821377139e-01
2.276526114149322599e-01
1.301228084423442233e-01
3.870836850499650289e-02
1.739340782366104177e-01
8.205831114932968240e-02
-5.570723398954181144e-02
-2.000567814083591134e-02
-6.867259726112673150e-03
3.617332014269749457e-02
-4.166335895055841565e-01
4.553063639168906246e-02
1.421434531873953244e-01
-2.319199333229240989e-01
-1.852382794289151868e-01
-8.106545792072758494e-02
-1.298471647666810634e-02
-2.768772559226050367e-01
1.943554484218653899e-01
-6.071646287882795368e-02
-3.334180748001717709e-01
3.227780159607562815e-02
-5.469008298815807717e-02
9.584759635012173040e-02
-1.665571075818163549e-01
2.130902652640187522e-01
5.089200891159826462e-02
-1.558520064078107170e-01
-3.086399603088896618e-02
-1.625646916245785945e-01
-6.503011637074242179e-02
1.146818133103878201e-01
1.426399027536851549e-01
4.457434620869352854e-02
-2.597707481629220050e-01
4.559243719551316770e-02
2.900816387474372537e-01
-5.713302546996614634e-02
2.156464431015207850e-01
-3.981141563853005799e-02
2.207381228762070671e-02
1.378375197380724282e-01
-4.555853122389282028e-02
6.979686417895454575e-02
3.323492524363607092e-01
-6.502228376899402140e-02
-3.565933329679260577e-02
-7.683728683180567065e-02
3.043144269872176122e-01
1.994118271407812337e-01
8.781442078869854118e-02
-9.051339675675432184e-02
-6.700122509973774343e-02
7.108627506781625693e-02
1.758616717217748038e-01
-1.190664219247903610e-01
-1.204210082210637432e-02
-6.102013297721132351e-02
-8.532453875625940765e-02
-5.555307472573692978e-02
3.421448756237238653e-01
4.207752707807146247e-02
-9.005924889808164524e-02
-2.781243805583472062e-01
1.994490690878592820e-01
-2.236845049174979953e-03
-3.157752276644524847e-01
-1.677433096594363737e-01
-1.682356955049068292e-01
9.038771249762232729e-03
-9.440723273279127969e-02
-3.323144594029854570e-02
1.387422397554582965e-01
3.312241041937478980e-02
-2.744648229624060617e-02
-4.871226210517467375e-02
-1.889919619899726455e-01
1.093676302810435846e-01
2.173859932488583224e-01
-3.287253483772231005e-02
-1.363449960379460035e-01
-1.723596558123400846e-01
-2.836743689677208025e-01
-5.977329263539476328e-02
2.640415800442397765e-01
6.949504937184666775e-02
-1.350330627141125006e-01
1.736935056399097066e-01
-4.307803158859670883e-02
-1.948444590849324753e-01
6.868109314331633485e-03
4.989681442752543633e-02
7.310509882960304628e-02
4.757746788619233724e-01
-1.347677324507734475e-01
2.245500136683909465e-01
4.422001697177806862e-02
-4.323712913189685370e-02
-9.183500552734854550e-01
-4.323712913192343660e-02
4.422001697177264934e-02
2.245500136683415138e-01
-1.347677324507702556e-01
4.757746788619122147e-01
7.310509882960097849e-02
4.989681442751965623e-02
6.868109314378568163e-03
-1.948444590849579272e-01
-4.307803158854288383e-02
1.736935056399416533e-01
-1.350330627140829687e-01
6.949504937188197284e-02
2.640415800442555971e-01
-5.977329263536038106e-02
-2.836743689677163616e-01
-1.723596558123057232e-01
-1.363449960379230774e-01
-3.287253483770216644e-02
2.173859932488949320e-01
1.093676302810641793e-01
-1.889919619899654013e-01
-4.871226210517625582e-02
-2.744648229623114499e-02
3.312241041937397101e-02
1.387422397554607945e-01
-3.323144594029785875e-02
-9.440723273277534799e-02
9.038771249769981739e-03
-1.682356955048944225e-01
-1.677433096594241335e-01
-3.157752276644468781e-01
-2.236845049180778700e-03
1.994490690878758521e-01
-2.781243805583337725e-01
-9.005924889806227185e-02
4.207752707808262022e-02
3.421448756237309152e-01
-5.555307472572532101e-02
-8.532453875625979622e-02
-6.102013297721211454e-02
-1.204210082210577584e-02
-1.190664219247835054e-01
1.758616717217868775e-01
7.108627506782035088e-02
-6.700122509972729345e-02
-9.051339675675307284e-02
8.781442078869275414e-02
1.994118271407767928e-01
3.043144269872085084e-01
-7.683728683180145180e-02
-3.565933329678944858e-02
-6.502228376899825413e-02
3.323492524363438338e-01
6.979686417895429595e-02
-4.555853122389821180e-02
1.378375197380749817e-01
2.207381228762440167e-02
-3.981141563851239851e-02
2.156464431015306937e-01
-5.713302546994365044e-02
2.900816387474449698e-01
4.559243719552336094e-02
-2.597707481629236703e-01
4.457434620868605535e-02
1.426399027536844610e-01
1.146818133103766624e-01
-6.503011637074153362e-02
-1.625646916245697959e-01
-3.086399603087269100e-02
-1.558520064078040557e-01
5.089200891161128892e-02
2.130902652640259132e-01
-1.665571075818081948e-01
9.584759635013731516e-02
-5.469008298814664187e-02
3.227780159607701593e-02
-3.334180748001694394e-01
-6.071646287881993231e-02
1.943554484218710521e-01
-2.768772559226030383e-01
-1.298471647666529089e-02
-8.106545792071676027e-02
-1.852382794289092749e-01
-2.319199333229173821e-01
1.421434531874046503e-01
4.553063639170248922e-02
-4.166335895055766070e-01
3.617332014270496082e-02
-6.867259726105244197e-03
-2.000567814083236209e-02
-5.570723398954074979e-02
8.205831114932560233e-02
1.739340782366112503e-01
3.870836850500163073e-02
1.301228084423462494e-01
2.276526114149261815e-01
-3.604189260821402674e-01
1.771805508497631965e-01
-3.017473362099817313e-01
-8.515835401143194427e-02
1.300915768883253998e-01
-1.294608395663586209e-01
2.275461320495232309e-01
-8.940697314153388253e-02
-1.409313000571338903e-01
-4.259235914203938766e-01
-1.822784551842424050e-01
-3.558783145262638392e-01
6.126921280084302729e-02
4.659254732801788867e-02
-1.712213827341477479e-01
6.107488209558981605e-03
-1.140235506617123529e-01
2.273289332863959178e-01
1.392450387072707851e-01
-1.760604547371772965e-01
-1.425132308137078974e-01
-8.049600420153094071e-02
-4.073386479149909700e-01
-2.594116414605824872e-01
-1.243615305456944042e-01
-2.336738071216175605e-01
4.133304323565743787e-02
-3.147643783777068216e-01
-4.309481887095686359e-01
-1.925855698208665256e-01
-2.338146007232768109e-01
-1.283976211663184486e-01
-8.267671638913776100e-02
2.328004310567279023e-01
-4.262518354596661618e-02
-2.699684285668122463e-01
-2.099154688857061413e-01
-1.207984128327793533e-01
7.949284636628460923e-03
-1.075445187504688732e-01
1.342190844468395261e-01
-4.225130765108055936e-02
-6.552981727224044262e-02
-1.692042871206893007e-01
-9.442640386879751213e-02
8.689371654751761043e-02
-1.081658685567336853e-01
-1.236195826096918582e-01
-3.704559658270382139e-01
-4.623781507449458705e-01
-7.823385346493484660e-02
5.218766486156938694e-02
-1.340282235145313638e-01
3.243279697172122417e-02
-7.779705391087507471e-02
-1.993826511284209624e-01
-2.826211034357301033e-01
-1.688545598989078245e-01
-2.052248821110122523e-01
-1.646432656715889065e-01
-3.101801479884824797e-01
-4.231224319076902496e-02
-5.186778502088035259e-01
-5.552467803392252543e-01
-4.773391994151039985e-01
1.389249954119221309e-01
1.684826150146318258e-01
-7.105704054282624416e-02
-1.983449589512417399e-01
5.841108760224124063e-01
9.801337071112022903e-01
7.805515212967505390e-01
1.686272186029727782e-01
1.880839621869371051e-02
-3.278623602811641530e-02
-1.580930467376833459e-01
1.212804616939910651e-01
-3.705981383817821828e-01
5.976025931914517031e-01
3.527268414122974177e-02
-1.544528368826948196e-02
6.669362235024455243e-01
-4.191480076851434450e-02
-3.117528111629341847e-01
-5.096040393304408500e-01
-7.751573631999179870e-02
-2.488349157468849326e-01
1.232979618443326986e-01
-1.402746975065816692e-01
-4.910503665518026889e-02
-2.270244735249022372e-01
3.571000545298279594e-01
5.644241600257718372e-02
-4.169279012094805753e-02
1.761854088419521347e-01
-1.138232294627487678e-01
3.933591897453830311e-01
3.918961731742452437e-01
6.210217372166609850e-01
3.244356151233953600e-01
1.070208355076204959e-01
5.297505399489398359e-01
1.291633747768852931e-02
-3.212894945372799516e-01
4.768027959901056240e-02
1.371299391617986085e-01
2.101005115247610855e-01
-1.608912741721126860e-01
2.130009373342622858e-01
1.738830715067631039e-01
-4.994996931194975454e-02
2.355557662396907392e-01
4.159396842952020057e-01
1.721001072629948503e-01
-1.320507442513738083e-01
-2.917203789072426723e-01
1.136513794771831232e-01
8.644021639689389302e-02
-2.062695650262622582e-01
-1.316203827883716537e-01
1.355529774354660710e-01
-1.755372875154085632e-01
-2.388524390851188006e-01
9.286276158729742103e-02
-5.094592592228805450e-02
1.072283352311808602e-01
2.693214332929976806e-01
-5.670259615595182878e-02
-3.021591226497795032e-02
2.208386243353756273e-01
1.166156064490115052e-01
-1.773105033755323079e-01
2.021620079770929668e-01
-5.862567911589897096e-02
-2.174078611851507359e-01
1.072048966806263826e-01
-1.054368273705925535e-01
-4.836413513412769483e-01
-3.450392813018241522e-01
-2.815245911430024894e-01
-3.652512994563540949e-01
1.669048880733354501e-01
2.642090599197457479e-01
9.905171582427631238e-02
-2.607287888703597664e-02
-2.219250882254716617e-01
1.565188651129635899e-01
-1.073273425556667132e-01
-1.584633472134548415e-01
-7.660838729487509657e-02
-2.398722075590946357e-01
8.815198374060563558e-02
-4.127376818538837366e-02
-2.254302309947765065e-02
1.508715101109768357e-02
2.166566240757518413e-02
-2.594251224231831632e-01
2.004085679204742065e-01
-1.181035776927732289e-02
-1.013329013913051024e-01
5.829423208668996215e-02
-1.252832769534147073e-01
3.025039528769682060e-02
2.290797408644899076e-04
-1.307482234595268578e-01
1.874719156051748437e-01
1.766316104733375580e-01
-1.553121115094086846e-01
-8.582217655467667961e-02
-1.800103654780247642e-01
2.176542901350599912e-01
5.355817812992280658e-02
-1.996971112942113324e-01
9.672767890618240438e-02
-2.733758851856209898e-02
5.480069035428906943e-02
1.290797610047118849e-01
-1.585229559392022647e-01
-3.477708608253082812e-02
4.900712692019634775e-01
2.483985791422604616e-01
-3.066429122561499798e-01
-3.835487598816024468e-02
5.644723477780559662e-02
5.231025290542532652e-02
-2.365535163534557006e-01
4.110680184338623422e-02
-2.210103174280906579e-01
-6.542696043609984302e-02
2.866106736205190075e-01
2.145518867801578244e-01
-4.471224364499536141e-02
3.545228257451966680e-01
1.216761907177514174e-01
-9.073569438556847166e-03
2.514109910204722076e-01
3.425807335811032611e-02
-1.328908195169287987e-01
7.160355126140019455e-02
-8.035006582925519406e-03
6.984636389324230810e-02
8.647394262011089128e-02
1.620481479905028499e-01
1.005131068455411836e-01
-7.147865500530671545e-02
-3.441382625291119352e-02
1.775763625111543773e-02
7.349710354192558193e-02
5.475608210061427839e-02
-2.721085908803924300e-02
2.115187623488653246e-01
-1.377253508563499595e-01
1.203608123670977213e-02
-1.467477093595627724e-01
-5.874279391778322937e-03
1.911184570373809788e-01
-7.157617783091869967e-02
3.810562222723151010e-02
-1.379205816829280062e-01
5.750172456207931770e-02
1.092058629349887122e-01
1.215247290874237746e-01
-8.793093173733192158e-02
1.168542644502924555e-01
1.106621511843432909e-01
4.262624655711502036e-02
-9.276367076150368596e-02
-4.217398591706364441e-02
-8.153594820135386112e-02
-1.869481546119940996e-01
1.211083774430405102e-01
6.642905335675991507e-02
-3.794668235147223914e-03
-1.808334477379168123e-02
1.335565703862525988e-01
-4.186988293634263947e-02
-1.170712864418478327e-01
9.311081283666801378e-02
-4.699973378661587153e-02
2.154150717186281358e-02
-4.902255782500606479e-02
-1.971585428432467701e-01
-3.978584949606942846e-03
-1.162879459472117988e-01
-1.448660904790181059e-01
-1.970078994616559775e-01
3.323955273618314082e-02
-7.359215571146070223e-02
1.895872428040893398e-01
-8.572628631321882464e-02
3.559598735783745665e-02
4.502853012550792761e-02
-4.080385333722347241e-02
-3.138210058534989660e-02
-1.028266750815736014e-01
-1.322709987418674016e-01
-7.002751750257947549e-02
2.305354392064681845e-02
6.591227490993029070e-02
4.803807731383081397e-02
-2.256276146448167597e-02
4.873845044813428229e-02
2.178881795110751071e-02
-7.052569717265180782e-02
-4.410530765181683299e-02
-2.688618838361410066e-02
3.969459786859340367e-02
-4.565203930100563551e-02
-3.783290027789776300e-02
-3.712026480994740085e-02
-5.215290507731937947e-02
-5.166443616790245691e-02
9.439555047053960202e-02
7.496296373075634137e-03
1.396278165993711066e-02
-4.985531027070689430e-02
-8.808708054813023380e-02
4.343266389687628660e-03
3.850238390493893048e-02
-7.585363553429477941e-03
-7.828915941577001270e-02
9.199417779961605035e-02
1.068356566858697787e-01
4.054182320862100009e-02
-2.311363286474551419e-03
-3.819426855127444620e-02
-7.093205972721557118e-02
1.108669116797451198e-02
-5.715146505340158549e-03
-8.742382741072127206e-03
-6.463057773250208138e-02
-4.703841220758511049e-02
-3.618883113239990124e-02
1.606624580738648866e-03
-1.393468616173605332e-02
-2.443497566867419701e-02
3.066440292077807911e-02
-7.344541600910627077e-02
-5.247461307437634170e-02
-3.339526286160746787e-02
3.024197675140492120e-02
3.398096547222441421e-02
-1.541207902626207278e-02
2.143701918300335713e-02
-1.289688430540168566e-02
3.757673197162991058e-02
-3.030157149637911079e-02
1.666645803264280717e-02
-2.497109951519108084e-02
-3.468318482463782909e-02
6.746464472530936882e-03
-3.110020502733344336e-02
1.614971305608418548e-02
5.364608238190483880e-02
1.961281427438961444e-02
-2.017506110099036992e-02
-2.181635814225343223e-02
-1.034740054911765378e-02
5.676543514316711309e-02
6.297929664515383719e-02
5.381343641378319442e-02
2.008737196156842875e-02
-4.951465674207593259e-02
2.034414962905293014e-02
4.951193316334497746e-02
5.265138460279975702e-02
1.706159216408019777e-02
-2.822997980901601964e-02
1.212628902685743484e-02
1.010510831345261089e-02
9.064717901027916254e-05
1.811632925796935120e-02
-5.321793286178212040e-02
3.018272081402045164e-04
1.272715317332449164e-03
1.941639115861263157e-02
-1.388480456155040052e-02
-3.190698656064404337e-02
1.312622547465207810e-02
1.370286637492362965e-02
4.305859010247440471e-03
-3.361110891321535815e-02
1.174261080897579836e-02
7.861014089176830352e-03
2.390934695575477800e-03
-2.019409295882180697e-02
-2.031330385433591321e-03
2.216362285219899281e-02
3.166314644320976281e-03
1.421980643351767985e-02
3.913622235796234555e-02
3.314150769114548867e-02
-7.200970395240204394e-03
-9.060472105229595841e-03
7.037881348517441293e-02
1.312023410492995680e-02
9.300896282388125807e-04
2.198663699711410346e-02
1.299029057998767403e-03
-1.058879575311210026e-02
-2.066872218998234891e-03
-8.850935721888721422e-03
2.994366187995550072e-02
-1.337521218558337770e-02
2.920741770764451531e-03
-3.194621703917820219e-03
4.725186823989389884e-03
-4.035313349957672657e-03
-2.828027872614796712e-02
4.937238352735247304e-03
6.368098472225170413e-03
1.331547363814237356e-02
-2.175517424896006476e-03
-1.205890572034765303e-02
2.695891384584543291e-02
-3.665634931304715717e-03
1.457121030229491243e-02
-9.917525341849722093e-03
6.191501980460875978e-03
-2.076496964574277380e-03
-1.749097083788658108e-02
-1.261163138698108595e-02
-1.034731622095878302e-02
-4.221848976706733120e-03
-1.969701555914706980e-03
4.093347759161947499e-03
-2.116288956544250840e-04
8.124360378666201435e-03
-1.083217618710426459e-03
3.316594133346061155e-03
2.854927674124190223e-03
-1.164666673892544380e-03
1.641618628435878059e-03
-3.988860378129030146e-03
-2.421542600885581795e-03
-8.560369115181430330e-03
-2.817714615319592397e-04
9.920536696588311103e-04
9.912726438704448813e-04
-1.543189014821623028e-03
-2.824130028575287318e-03
1.114249623279480426e-03
-4.368046175711252400e-03
4.012874950122796019e-03
6.738689991852948695e-03
-6.029182255302746075e-03
5.459858257468528861e-03
1.861672083450992624e-03
5.557497758193698581e-03
-4.460001083706463532e-03
-6.607895054711096896e-04
2.675862459503839698e-03
3.247070344910540224e-02
4.193894426718141472e-02
