5.759278828954578211e-01 5.363018097182216393e-02 -1.714794490900106716e-02 -2.995706839653222708e-03 1.628191716331195416e-02 -1.926606262310737172e-02 -1.356237302426621660e-02 5.505285181612751266e-03 -1.549084495307029297e-02 1.014498794836143913e-01 6.800336908481424691e-02 -2.113661231351114389e-01 -3.573017544875597973e-02 -4.013525932169681454e-02 -6.182388537385372085e-02 -2.669250689632629570e-02 4.750615056065179420e-01 2.049439532665622565e-01 2.005972567976715415e-01 4.216924035048372765e-01 3.459766580938363201e-01 2.416031526593352408e-01 -2.370214327228127305e-01 3.752809942742058591e-01 -8.691692881553028660e-02 3.228708752572838625e-01 1.665891590478474904e-01 1.903344603668711277e-01 -4.179941659245517416e-02 -3.807874467285097264e-01 -1.135366234635895588e-02 -8.621100075170663735e-02 1.006099397517399852e-01 1.413119445815564368e-01 2.460969611805969015e-01 2.144210761497509013e-02 1.904461140603153080e-01 -2.719354328831132261e-01 -9.551704132870778019e-02 5.867673455298572094e-02 3.756155253817453077e-02 -6.563984806665737470e-02 1.167331364237612357e-01 -5.627788039371655060e-01 1.172592049323695207e-02 3.417224215223105266e-01 2.058568924418371360e-01 -1.305610258167119175e-01 2.403825173518495117e-01 -3.666099822190644342e-01 -6.928233586033810676e-02 1.548118207713415281e-02 -3.343090327741513046e-02 -1.284621466870171369e-01 -2.909261756858611547e-01 9.513597277646300421e-03 3.134238278704050418e-02 -1.615781142782862223e-01 -4.881762891959751105e-02 -1.706004924859323979e-01 1.001118879951480856e-01 -6.057212826520792792e-02 -3.403763811869794931e-02 2.251550997550562927e-01 8.135926845017513176e-02 -1.586286545783287261e-01 -1.253172649577305453e-01 1.506572708939214744e-01 -8.510812787393356657e-03 -7.853462044544060050e-02 2.605135590700581316e-01 -6.232478319684620766e-02 3.197200478049493089e-02 -1.118271100704846394e-01 1.517135672427488702e-01 2.700508265359172766e-01 1.344257955473053823e-01 -8.915335800882805140e-02 1.579539952259278734e-01 5.659954125754713961e-03 -1.119374533006429889e-01 -9.072108055617977840e-02 -3.886825245898568870e-02 2.429942260198406645e-01 4.978824036654207891e-02 -4.974140842175583943e-02 -1.504904179373796891e-01 -7.040832822920245482e-02 3.348732030407585575e-02 5.645453655471276144e-03 -3.496161609154948419e-02 -1.582827259712715484e-01 -5.183287102113767753e-02 -8.117887215575457505e-02 -6.641245067762574505e-02 7.770773358412528739e-03 -1.434722324412068262e-01 -1.832575634795901021e-01 -7.833451334438056024e-02 -1.519717508975316211e-01 4.630433044089126218e-03 5.338390169666248908e-02 -1.231071074475950655e-02 1.457916969414126684e-01 -6.228035607577562735e-03 1.825491460131385135e-01 3.283685546905401598e-02 4.807018233066762819e-02 -8.453258172854473396e-02 2.818723628320619207e-02 -2.490255256783463766e-01 -7.182043924142481051e-02 3.015601881607621326e-02 -2.636029530485821393e-02 9.356051226181162639e-02 2.124542528089099283e-02 -3.878696258810673120e-02 -4.278336729994088039e-02 7.561048272226965350e-02 -5.085867890198204899e-02 1.019997724115127846e-01 -3.033299030655103173e-02 4.091510372163797635e-03 -2.904042934721964148e-02 4.399667689958434991e-02 6.309464394223213146e-02 -3.587912120789318177e-02 -7.684420000465563838e-02 -1.288873794120885541e-01 -4.258334941345583852e-02 -3.948443367366542833e-02 8.578378499909092639e-03 -1.588632241486064578e-01 -4.250032178267235984e-03 -2.528932406092196383e-02 -1.608488361796683169e-02 2.105216457910000227e-02 -2.827485516060594239e-03 2.638960394550415867e-02 -6.057785150330384852e-03 -4.030175028050635155e-02 -3.483863581782332183e-03 -2.318647813469737126e-02 -7.172768758367070729e-02 -5.429451541468779258e-02 -2.533155613356970551e-02 -3.106058548896097407e-02 -1.038076863581318954e-01 -4.610691347802084450e-02 -7.369970588144776624e-02 -2.845262451244485319e-02 -4.712035374028851996e-03 -4.010247549096584291e-02 -4.519430205190017730e-02 -1.769065340327822533e-01 1.309340777560859606e-02 -4.323663873076274283e-02 -6.218320756571835833e-02 -8.036137915951301405e-03 -1.089784818112909809e-01 -6.800646728951122155e-02 -1.923365881071845834e-02 -6.684866470485345546e-02 -5.677978487384832337e-03 -8.420568081750813560e-02 -2.121668230525645266e-02 -7.122459377703310723e-03 -3.912553772853717693e-02 -2.971361310806224648e-02 -2.840867711292528047e-02 -6.151493254905665564e-02 -4.421140376005065070e-02 3.715900326310776075e-02 -3.627397694816181239e-02 -3.544021396031388910e-02 -2.442582762530248579e-03 -9.150163537622801879e-02 -1.973482435273595306e-02 -4.174813003199244477e-02 -7.393570398310327085e-02 3.703255128850730521e-02 -7.812616892754986608e-02 -2.846389397381689224e-02 -2.093629191942657924e-02 -3.160533764709838513e-03 3.367477350443280615e-02 4.000418473704344530e-02 -1.311149605922263400e-02 5.436051433782596032e-02 6.701781353430712185e-02 1.839363617580101751e-02 2.943948966550636454e-02 -2.183414888451322769e-02 6.461319462929247109e-03 -2.540340163700877119e-02 -1.598521150753232437e-02 8.898750742769861652e-03 7.194970136169203702e-03 -8.130847355996383488e-03 2.468082108993157296e-03 -2.128782251061065930e-02 -5.749982911997325585e-02 9.404765646081532371e-02 -2.788033460884900908e-02 -4.754552004919495797e-03 -1.509176267618488401e-02 6.416131535825599433e-03 -3.875273809424089472e-02 -5.586201767814296532e-02 -2.132206231164244722e-02 -3.745792639722011347e-02 4.083820419010860542e-02 1.629265025376277218e-03 -9.727741475478354771e-02 1.766224248233427482e-02 -7.232817228656285291e-02 -7.705258943675785677e-02 -2.763499984723874481e-02 -1.010874472919223582e-01 -5.205316729086291450e-02 -3.018355779804271846e-02 -3.350524868619548374e-02 -2.657672005197959583e-02 -7.288123876703031870e-03 1.369412726928005523e-02 -2.718260983604472991e-02 -9.856071158830847015e-03 -1.455400075167889197e-02 -6.617902241922611617e-02 2.692609297049631742e-02 -1.582901865384631415e-02 1.326540311923395110e-02 -3.341053259560409269e-04 2.670617406829084092e-02 1.511050021443288184e-02 -1.332565531698854831e-03 -3.328106672048633530e-02 3.947220262381175709e-02 -7.676851795055269177e-04 -2.898029355491252984e-02 -6.879824476899893369e-03 2.964603089353490262e-02 3.760575084260671386e-02 5.138909849120553569e-02 4.233232115918741587e-03 7.799276023319128698e-03 4.669819808756534713e-02 3.991214024594923193e-02 3.584651224353289228e-02 1.827549272501568720e-02 2.735489407537439535e-02 3.103997864515754129e-02 6.635482336510790946e-02 -1.365610387604855591e-02 1.771754701339923327e-02 3.985783259275462592e-02 -1.006488187397468377e-02 5.144848007152846153e-02 5.050208597279925299e-02 7.126685176855353243e-02 5.350379091781601315e-02 3.333156591507983185e-02 8.142189691895099571e-03 -1.246978348315051256e-02 2.297842079401830884e-02 2.469176135271223052e-02 2.612400243083694285e-02 1.327455503888034724e-02 -2.903480346940283743e-02 4.972789840044122833e-02 3.158576042015064783e-02 4.751179802092574123e-02 1.675291901950122855e-02 9.366934789833627692e-03 2.365310740566852615e-02 1.774368999344453149e-02 -2.574259397275164771e-02 5.069810340869093483e-03 3.546768201807481806e-03 2.898815151815755178e-02 2.248160128517017603e-02 1.924511583594707993e-03 1.909463837581070259e-02 -2.260076157676817882e-02 1.487526966301256845e-02 -4.814935987861822947e-03 3.731922105161306069e-02 6.237893247002521818e-02 3.103866992938367556e-02 3.825781220584841685e-02 2.031296184449605038e-02 3.982226291467062460e-03 5.091763951688340478e-02 1.027774438544145838e-02 2.931197999763273179e-02 -1.925212390721822708e-02 2.316843641025576397e-02 5.018491741468519840e-02 6.158384820626016179e-03 7.088615865189075264e-03 1.100542038894258834e-02 4.255417111984229755e-02 3.224908125389732566e-02 3.311760248747637470e-02 3.521227301630681927e-02 4.366542126194304652e-02 4.992832462162561519e-02 6.422236208967890825e-02 3.190979429680158245e-03 3.460389534870831479e-02 4.321725183611704879e-02 7.934966914857625314e-03 2.906556959500685919e-02 6.862567351184609143e-03 -5.146681146858750160e-03 3.610864263560056853e-02 2.193618768991480866e-02 1.467476218296569733e-02 1.611859963567214074e-02 2.091342117785461099e-02 4.567295196190620382e-02 3.195108063619951210e-03 -5.829923150783782038e-03 -1.245958888236239556e-02 5.479005348509063955e-03 2.347400562232490606e-02 2.912863305612034895e-02 -2.822704553496922786e-02 2.623554196854565104e-02 1.876934511788979493e-02 -2.502822087903218418e-02 7.704327522826324298e-03 1.803060220222874738e-02 2.667152246452464404e-02 1.826791497593125563e-02 3.399551742858825804e-02 3.468892804811411074e-02 9.838204238993401157e-03 1.107979639528158117e-02 9.521685205372952153e-04 2.087755382977985602e-02 3.620796077288530521e-03 -1.609256456340489930e-02 1.120120688401211005e-02 2.680238661939060227e-02 3.711226858494437453e-02 4.874175257578652193e-02 -8.845213570003684217e-03 1.237662123205866653e-02 2.386073188343840797e-03 -7.121514864850941526e-03 2.258262210903061104e-02 -8.743185657480832687e-04 2.929756394668401112e-02 2.753344743857540078e-02 1.644250593247399000e-02 -9.639909239142447489e-03 -1.423094080613961955e-02 2.090789688349823511e-02 1.392027771307624735e-02 1.247583033002578126e-02 -1.038938134394711606e-03 6.743303945563211901e-03 1.916680731505402552e-02 3.957643464667067248e-03 -2.416169591320313156e-02 -3.741132359355293924e-02 -4.749176912685196955e-02 -2.430579880143513005e-02 -7.046363549919222070e-03 -2.947153125632054338e-02 3.203055306834336896e-02 -2.646738206888009370e-02 -5.909280422240672376e-04 -1.446455158564979859e-02 -1.369909541041854605e-02 -1.057722440071597395e-02 -7.653081875473699558e-03 -8.801048451203162190e-03 -4.240897670576070783e-02 -5.519873810905896044e-02 9.836527338440914040e-04 2.188432109825586697e-02 -1.783130624396044028e-02 -3.022688078801725325e-02 -2.513202060220163722e-02 -2.359141416199137670e-02 -1.688732267419989011e-02 -2.903991753924597616e-02 4.754971727022737349e-03 -4.876086611381845459e-02 1.965881232236933295e-03 2.098075111241803556e-02 -1.094181576018948658e-02 -5.353890216036361364e-04 1.195278492719197699e-02 -1.034047619175428728e-02 1.107183978792502209e-02 -2.879099848468432213e-02 -7.468382665593735481e-02 -1.068572778074534067e-02 -3.512440369165039517e-02 -9.350925939776450618e-03 -9.856098156498361781e-03 -8.418581024286490855e-02 -3.171850314844997659e-02 -5.692167407928320350e-02 -4.354826291474150207e-02 4.795180354177111699e-03 1.338663030426767188e-02 -2.029437492995014858e-02 -2.674439847025421660e-02 -3.026064853417863992e-02 1.224375087416216569e-02 -4.648365112149900613e-02 -4.224895813683002960e-02 -1.587577082561238834e-02 -1.533138887143927452e-02 2.189025570045202360e-02 -2.621164533722723441e-02 -1.413634583080731685e-02 -2.157291912325959640e-02 -4.760300288751780073e-02 -3.388433167287848574e-02 -6.287401668737535587e-02 -1.635282580251683215e-02 -3.481548537064128174e-02 -4.195098339483973454e-02 -8.853447838284034602e-03 -3.194579046952363693e-02 -1.029296858841500031e-02 5.852813396201660785e-04 1.211359664225124082e-02 -1.424281987903286244e-02 -2.613048125288093895e-02 3.665340133204672557e-03 1.867401256068069396e-03 -2.426708167839416314e-02 -3.786995868115297648e-02 -3.686934976416909177e-02 -2.793742633085368257e-02 -6.069929895116615154e-02 -1.019581802404831150e-01 -6.947756609029978603e-02 -2.756718896542389649e-02 -7.682541057506767079e-02 -3.940505641655297348e-02 -4.620625546373830633e-02 -2.151876280123342366e-02 -5.768513829920066116e-02 -1.703702595361847663e-02 -4.075666605875324922e-02 -1.390948248812923574e-02 4.821351784593437724e-03 -7.736004718319992868e-02 -2.422163355554505376e-02 -5.389326574821402815e-02 -4.622417746465401489e-02 -5.426680577066851641e-02 -4.467387540803467033e-02 -1.227315456202171008e-02 -4.611813010177882866e-02 1.172890928833190700e-03 -4.589873721090247799e-02 -1.868901571729977493e-02 -5.654865091655204845e-02 -9.435998149576953209e-02 -7.165844051325605257e-02 5.052097048056983491e-04 -3.140021259944977133e-02 -3.974065179835045702e-02 -1.279394524797194781e-02 -2.408672584195570635e-02 -4.821580243910294356e-02 -4.588916533061516978e-02 -9.013374911783099755e-03 -5.084146019563331315e-02 -3.715237589325760814e-02 -1.849073651075483146e-02 -1.984600482184897471e-02 -5.963637665166675317e-02 -6.454445073512377062e-02 -2.183305874784386910e-02 -2.011877608488829919e-02 -2.118681338963956939e-02 -3.545357519228704152e-02 -2.135792407238548338e-02 -1.536477954545034316e-02 -2.577237841361602194e-02 -3.429743750529046925e-02 -2.441143579079610437e-02 -8.124728988768974147e-02 -5.459417816257393363e-02 -4.172769027350330118e-02 -3.066989483523004448e-02 -5.493384941935208765e-02 -9.593427387628481254e-03 -5.542362376270005414e-02 -1.755567397218094072e-02 -5.211138290444589788e-02 -3.468155055042280999e-02 3.597807403050532361e-04 -3.488318213353289871e-02 -4.372253559747779628e-02 -2.801710978405286268e-02 -3.288028674959848213e-02 -5.483855726375829603e-02 -2.919624280062701679e-02 -4.555760559413065541e-02 -1.205597851664730324e-02 2.122346446075046300e-02 -3.129609936394084357e-02 2.782773920470170241e-03 -3.129609936394017744e-02 2.122346446075572962e-02 -1.205597851665502623e-02 -4.555760559413176564e-02 -2.919624280062723190e-02 -5.483855726375830297e-02 -3.288028674959266040e-02 -2.801710978405157204e-02 -4.372253559747726198e-02 -3.488318213353242686e-02 3.597807403043622740e-04 -3.468155055042460716e-02 -5.211138290444704974e-02 -1.755567397217983397e-02 -5.542362376269846513e-02 -9.593427387627431746e-03 -5.493384941935224031e-02 -3.066989483522993346e-02 -4.172769027350439752e-02 -5.459417816257424588e-02 -8.124728988768940841e-02 -2.441143579079605927e-02 -3.429743750528996965e-02 -2.577237841361549806e-02 -1.536477954545007428e-02 -2.135792407238520929e-02 -3.545357519228654192e-02 -2.118681338963924327e-02 -2.011877608488771285e-02 -2.183305874784365747e-02 -6.454445073512332653e-02 -5.963637665166628132e-02 -1.984600482184890186e-02 -1.849073651075380104e-02 -3.715237589325791345e-02 -5.084146019563344499e-02 -9.013374911782431886e-03 -4.588916533061510039e-02 -4.821580243910238150e-02 -2.408672584195588329e-02 -1.279394524797292793e-02 -3.974065179835000600e-02 -3.140021259945077053e-02 5.052097048065621330e-04 -7.165844051325553909e-02 -9.435998149576971250e-02 -5.654865091655209008e-02 -1.868901571730037861e-02 -4.589873721090219350e-02 1.172890928832932660e-03 -4.611813010177871763e-02 -1.227315456202165804e-02 -4.467387540803359480e-02 -5.426680577066916172e-02 -4.622417746465382754e-02 -5.389326574821431959e-02 -2.422163355554696543e-02 -7.736004718319898499e-02 4.821351784593750842e-03 -1.390948248812900155e-02 -4.075666605875111204e-02 -1.703702595361893113e-02 -5.768513829920082076e-02 -2.151876280123342713e-02 -4.620625546373775122e-02 -3.940505641655114855e-02 -7.682541057506774018e-02 -2.756718896542474304e-02 -6.947756609029862029e-02 -1.019581802404841558e-01 -6.069929895116540908e-02 -2.793742633085266602e-02 -3.686934976416838400e-02 -3.786995868115261565e-02 -2.426708167839392374e-02 1.867401256068336544e-03 3.665340133204912816e-03 -2.613048125288110202e-02 -1.424281987903264386e-02 1.211359664225153746e-02 5.852813396202031582e-04 -1.029296858841511828e-02 -3.194579046952448348e-02 -8.853447838283699800e-03 -4.195098339483926270e-02 -3.481548537064077520e-02 -1.635282580251644011e-02 -6.287401668737527261e-02 -3.388433167287832615e-02 -4.760300288751725256e-02 -2.157291912326004396e-02 -1.413634583080714165e-02 -2.621164533722683543e-02 2.189025570045206870e-02 -1.533138887143948963e-02 -1.587577082561252365e-02 -4.224895813682971041e-02 -4.648365112149924205e-02 1.224375087416124108e-02 -3.026064853417850808e-02 -2.674439847025436925e-02 -2.029437492995018327e-02 1.338663030426794076e-02 4.795180354177277365e-03 -4.354826291474170330e-02 -5.692167407928303696e-02 -3.171850314845021945e-02 -8.418581024286399261e-02 -9.856098156497804935e-03 -9.350925939776193879e-03 -3.512440369165070742e-02 -1.068572778074550721e-02 -7.468382665593786829e-02 -2.879099848468467948e-02 1.107183978792447045e-02 -1.034047619175414851e-02 1.195278492719194230e-02 -5.353890216040147398e-04 -1.094181576018957505e-02 2.098075111241753249e-02 1.965881232235988738e-03 -4.876086611381901664e-02 4.754971727022283719e-03 -2.903991753924720087e-02 -1.688732267419762456e-02 -2.359141416199161262e-02 -2.513202060220188355e-02 -3.022688078801737468e-02 -1.783130624396007252e-02 2.188432109825684535e-02 9.836527338425650642e-04 -5.519873810905934208e-02 -4.240897670576066619e-02 -8.801048451203241987e-03 -7.653081875472129633e-03 -1.057722440071482382e-02 -1.369909541041798573e-02 -1.446455158564941869e-02 -5.909280422248272633e-04 -2.646738206888058637e-02 3.203055306834313304e-02 -2.947153125632011317e-02 -7.046363549918991352e-03 -2.430579880143490801e-02 -4.749176912685220547e-02 -3.741132359355254372e-02 -2.416169591320389484e-02 3.957643464667066381e-03 1.916680731505468124e-02 6.743303945563505070e-03 -1.038938134394048508e-03 1.247583033002595300e-02 1.392027771307582928e-02 2.090789688349802000e-02 -1.423094080613940098e-02 -9.639909239142442285e-03 1.644250593247459369e-02 2.753344743857595936e-02 2.929756394668403541e-02 -8.743185657479665002e-04 2.258262210903076370e-02 -7.121514864851736897e-03 2.386073188343458291e-03 1.237662123205863704e-02 -8.845213570003802178e-03 4.874175257578650805e-02 3.711226858494410391e-02 2.680238661939054329e-02 1.120120688401172147e-02 -1.609256456340501379e-02 3.620796077288813714e-03 2.087755382977923152e-02 9.521685205375186693e-04 1.107979639528201311e-02 9.838204238994140149e-03 3.468892804811372910e-02 3.399551742858811926e-02 1.826791497593158869e-02 2.667152246452413056e-02 1.803060220222736654e-02 7.704327522826509046e-03 -2.502822087903219805e-02 1.876934511789012106e-02 2.623554196854475939e-02 -2.822704553497104238e-02 2.912863305612070630e-02 2.347400562232513505e-02 5.479005348508824563e-03 -1.245958888236029828e-02 -5.829923150784049185e-03 3.195108063620323742e-03 4.567295196190621076e-02 2.091342117785441324e-02 1.611859963567492324e-02 1.467476218296354801e-02 2.193618768991277557e-02 3.610864263560118609e-02 -5.146681146861107649e-03 6.862567351186710761e-03 2.906556959500757042e-02 7.934966914858686965e-03 4.321725183611725696e-02 3.460389534870786377e-02 3.190979429680010360e-03 6.422236208967874171e-02 4.992832462162557355e-02 4.366542126194336570e-02 3.521227301630674988e-02 3.311760248747677021e-02 3.224908125389805424e-02 4.255417111984037548e-02 1.100542038894160649e-02 7.088615865189356290e-03 6.158384820626517514e-03 5.018491741468578821e-02 2.316843641025623929e-02 -1.925212390721778993e-02 2.931197999763289139e-02 1.027774438544109929e-02 5.091763951688380030e-02 3.982226291467691297e-03 2.031296184449591161e-02 3.825781220584859726e-02 3.103866992938381086e-02 6.237893247002570390e-02 3.731922105161349784e-02 -4.814935987861791722e-03 1.487526966301215212e-02 -2.260076157676945557e-02 1.909463837581001217e-02 1.924511583594959094e-03 2.248160128516995399e-02 2.898815151815707994e-02 3.546768201807887298e-03 5.069810340868975522e-03 -2.574259397275293834e-02 1.774368999344529824e-02 2.365310740566838738e-02 9.366934789833421260e-03 1.675291901950153040e-02 4.751179802092576898e-02 3.158576042014837881e-02 4.972789840044155446e-02 -2.903480346940270906e-02 1.327455503888264401e-02 2.612400243083568344e-02 2.469176135271136316e-02 2.297842079401773985e-02 -1.246978348315551377e-02 8.142189691901880605e-03 3.333156591507658445e-02 5.350379091781481966e-02 7.126685176855963866e-02 5.050208597280117506e-02 5.144848007152829500e-02 -1.006488187397468377e-02 3.985783259275422347e-02 1.771754701340030186e-02 -1.365610387605203924e-02 6.635482336510706292e-02 3.103997864516242280e-02 2.735489407536807402e-02 1.827549272502351774e-02 3.584651224353684051e-02 3.991214024594971765e-02 4.669819808756574264e-02 7.799276023319799168e-03 4.233232115917500392e-03 5.138909849120585488e-02 3.760575084260772000e-02 2.964603089353673449e-02 -6.879824476898679063e-03 -2.898029355491182554e-02 -7.676851795041079139e-04 3.947220262381027911e-02 -3.328106672048639081e-02 -1.332565531696748660e-03 1.511050021443297378e-02 2.670617406829229462e-02 -3.341053259554101380e-04 1.326540311923353477e-02 -1.582901865384524903e-02 2.692609297049660538e-02 -6.617902241922542228e-02 -1.455400075167781818e-02 -9.856071158830777626e-03 -2.718260983604557993e-02 1.369412726928023391e-02 -7.288123876702889622e-03 -2.657672005197980053e-02 -3.350524868619601804e-02 -3.018355779804133762e-02 -5.205316729086278266e-02 -1.010874472919228717e-01 -2.763499984723845684e-02 -7.705258943675799554e-02 -7.232817228656240882e-02 1.766224248233378216e-02 -9.727741475478300648e-02 1.629265025376618091e-03 4.083820419010998626e-02 -3.745792639722016898e-02 -2.132206231164206559e-02 -5.586201767814271552e-02 -3.875273809424130411e-02 6.416131535825148405e-03 -1.509176267618535239e-02 -4.754552004918701294e-03 -2.788033460884799947e-02 9.404765646081514330e-02 -5.749982911997319340e-02 -2.128782251061088482e-02 2.468082108991079531e-03 -8.130847355994943668e-03 7.194970136168536701e-03 8.898750742771847910e-03 -1.598521150753070413e-02 -2.540340163700919099e-02 6.461319462929766659e-03 -2.183414888451321034e-02 2.943948966550668025e-02 1.839363617580132282e-02 6.701781353430705246e-02 5.436051433782746606e-02 -1.311149605922085765e-02 4.000418473704218936e-02 3.367477350443476292e-02 -3.160533764709745706e-03 -2.093629191942590617e-02 -2.846389397381660774e-02 -7.812616892754987996e-02 3.703255128850749256e-02 -7.393570398310247982e-02 -4.174813003199315253e-02 -1.973482435273584898e-02 -9.150163537622775511e-02 -2.442582762530482766e-03 -3.544021396031304255e-02 -3.627397694816245077e-02 3.715900326310785790e-02 -4.421140376004994293e-02 -6.151493254905715524e-02 -2.840867711292508271e-02 -2.971361310806124728e-02 -3.912553772853714917e-02 -7.122459377702838879e-03 -2.121668230525670246e-02 -8.420568081750806622e-02 -5.677978487383916403e-03 -6.684866470485383017e-02 -1.923365881071857977e-02 -6.800646728951102726e-02 -1.089784818112907866e-01 -8.036137915951181709e-03 -6.218320756571915631e-02 -4.323663873076228487e-02 1.309340777560787095e-02 -1.769065340327836133e-01 -4.519430205190099609e-02 -4.010247549096621761e-02 -4.712035374029508589e-03 -2.845262451244376031e-02 -7.369970588144894585e-02 -4.610691347802132328e-02 -1.038076863581314374e-01 -3.106058548896099142e-02 -2.533155613356959796e-02 -5.429451541468825054e-02 -7.172768758367140118e-02 -2.318647813469798188e-02 -3.483863581782934132e-03 -4.030175028050604624e-02 -6.057785150328721252e-03 2.638960394550286109e-02 -2.827485516061350145e-03 2.105216457910057473e-02 -1.608488361796837907e-02 -2.528932406092119708e-02 -4.250032178267752064e-03 -1.588632241486067909e-01 8.578378499909057944e-03 -3.948443367366572671e-02 -4.258334941345545688e-02 -1.288873794120886929e-01 -7.684420000465601308e-02 -3.587912120789384096e-02 6.309464394223164574e-02 4.399667689958486338e-02 -2.904042934722015495e-02 4.091510372163703092e-03 -3.033299030654984865e-02 1.019997724115127152e-01 -5.085867890198257635e-02 7.561048272226973677e-02 -4.278336729994139387e-02 -3.878696258810653691e-02 2.124542528089280735e-02 9.356051226181012759e-02 -2.636029530485754779e-02 3.015601881607712920e-02 -7.182043924142492153e-02 -2.490255256783448223e-01 2.818723628320512695e-02 -8.453258172854510866e-02 4.807018233066884944e-02 3.283685546905400904e-02 1.825491460131382637e-01 -6.228035607576821141e-03 1.457916969414138619e-01 -1.231071074475705018e-02 5.338390169666192009e-02 4.630433044088836519e-03 -1.519717508975311493e-01 -7.833451334438021330e-02 -1.832575634795899078e-01 -1.434722324412070482e-01 7.770773358413317171e-03 -6.641245067762521770e-02 -8.117887215575537996e-02 -5.183287102113721956e-02 -1.582827259712716039e-01 -3.496161609154933153e-02 5.645453655471779214e-03 3.348732030407403082e-02 -7.040832822920393974e-02 -1.504904179373783291e-01 -4.974140842175699129e-02 4.978824036654093399e-02 2.429942260198427739e-01 -3.886825245898393316e-02 -9.072108055617904288e-02 -1.119374533006428363e-01 5.659954125753038218e-03 1.579539952259263469e-01 -8.915335800882813466e-02 1.344257955473034671e-01 2.700508265359201632e-01 1.517135672427474269e-01 -1.118271100704843340e-01 3.197200478049079531e-02 -6.232478319684744972e-02 2.605135590700626835e-01 -7.853462044543929599e-02 -8.510812787394300347e-03 1.506572708939295513e-01 -1.253172649577364017e-01 -1.586286545783275048e-01 8.135926845017540932e-02 2.251550997550572919e-01 -3.403763811869055245e-02 -6.057212826521402027e-02 1.001118879951481133e-01 -1.706004924859281791e-01 -4.881762891959866291e-02 -1.615781142782819202e-01 3.134238278703885272e-02 9.513597277647879019e-03 -2.909261756858585457e-01 -1.284621466870180806e-01 -3.343090327741409656e-02 1.548118207713459517e-02 -6.928233586033576141e-02 -3.666099822190637680e-01 2.403825173518517322e-01 -1.305610258167118898e-01 2.058568924418364421e-01 3.417224215223073625e-01 1.172592049323993926e-02 -5.627788039371635076e-01 1.167331364237601254e-01 -6.563984806666046945e-02 3.756155253817972106e-02 5.867673455298409724e-02 -9.551704132870200703e-02 -2.719354328831147249e-01 1.904461140603127545e-01 2.144210761497926734e-02 2.460969611805988722e-01 1.413119445815571862e-01 1.006099397517402350e-01 -8.621100075170437527e-02 -1.135366234635783178e-02 -3.807874467285098374e-01 -4.179941659245405700e-02 1.903344603668761514e-01 1.665891590478493500e-01 3.228708752572841956e-01 -8.691692881553104988e-02 3.752809942742024729e-01 -2.370214327228200302e-01 2.416031526593343526e-01 3.459766580938384295e-01 4.216924035048372765e-01 2.005972567976633536e-01 2.049439532665610630e-01 4.750615056065199404e-01 -2.669250689632665652e-02 -6.182388537385410943e-02 -4.013525932169559329e-02 -3.573017544874776408e-02 -2.113661231351185443e-01 6.800336908481607878e-02 1.014498794836171947e-01 -1.549084495306451981e-02 5.505285181615526824e-03 -1.356237302426399616e-02 -1.926606262310270878e-02 1.628191716331173211e-02 -2.995706839643341723e-03 -1.714794490898108315e-02 5.363018097181802141e-02
