-1.555987256774281067e-15
4.545131838969657112e-02
3.249973975047212166e-02
1.733535304350793723e-03
1.570073186337409216e-03
-3.148875532153859371e-03
-1.785308694387575208e-04
6.989089582933104977e-03
3.824691761928562632e-03
-5.975091893577060519e-03
5.985654696562870726e-03
5.223517011124191416e-03
-1.931697890057990216e-03
3.366701752901192501e-03
-2.775582149226849495e-05
1.830536741446089433e-03
-4.024656771855521166e-04
3.985385452736965248e-03
-4.244437171615227447e-03
-3.694919460802450085e-03
-3.050627459013414717e-03
-5.150446899748697786e-03
-2.448311005160591462e-03
-6.346052033457875823e-03
5.003464678419270416e-03
5.858663525258884196e-03
-3.568450902033492824e-05
1.131404244152237927e-02
-9.156806708653303980e-04
1.411025929448543517e-03
-8.302939943788291075e-03
-2.277310065273872516e-03
-8.539555437279791258e-03
-7.556545868553006876e-03
-1.731698402166863271e-02
-1.993816288052577268e-03
1.011332740527780966e-02
-1.300564350425689915e-02
2.387027374683165989e-02
-5.529695094470933950e-03
2.520403753008056483e-02
-1.608088404182746872e-02
3.503064000921676975e-03
1.370861132082795697e-02
6.236819459549843708e-03
-4.183706708938257309e-04
-2.391371740601353976e-02
-1.631142280732432448e-03
1.072530584869454007e-03
-2.055128130740290805e-03
-1.840691658782264402e-03
-1.361390606024770120e-02
3.105536207873870608e-02
-1.156407129383876624e-02
-3.223932929069099531e-03
-1.187466123352880903e-02
1.306076450100101269e-03
2.217730390763598611e-02
3.110257830475445743e-03
1.301144271216749838e-02
7.377184216242384240e-02
-1.028457768958765915e-02
-5.240915812387648108e-03
3.018657388493191027e-02
3.821666306112336819e-02
1.476245009788511829e-02
5.494424829631615499e-03
2.272109392247316159e-02
-2.732983541654669495e-03
-1.716225503739183741e-02
6.450846135942373341e-03
1.076613554455895481e-02
9.800797602201731171e-03
-3.650156231200882284e-02
7.422018685236677141e-03
1.055765711730363536e-02
1.436187058135030871e-02
-3.555702127452759626e-02
-1.873170914061679862e-02
2.195760892808704817e-02
2.027411138983711055e-03
4.288755209997778713e-03
-5.860368317105399405e-02
2.414709729811649955e-02
1.199490382928147412e-03
8.644990037493745921e-03
1.679446441381573715e-02
-3.137298490893648123e-02
1.692616186964179467e-02
5.711747927580058254e-02
5.369163389348183268e-02
2.225212908512404567e-02
-4.963953688894695571e-02
1.951089026232180612e-02
5.900207649704290042e-02
7.060198771297052089e-02
5.829920225645277704e-02
-1.119986197558881132e-02
-2.146433040362631314e-02
-2.031352424437748647e-02
2.635693371940714055e-02
5.917947418967858808e-02
2.203563845119968848e-02
-3.632432571304158864e-02
8.114368029423136078e-03
-3.211735670576425228e-02
-2.750277808650661640e-02
1.257635371968167728e-02
-3.442688121722318334e-02
4.185638872346106321e-02
-1.246617947373089910e-02
2.039640153050630358e-02
-1.437926493557448171e-02
3.828228732119800387e-02
2.740864666221689075e-02
-3.870219449952557594e-02
-5.360902871877839398e-02
-8.309000972758134873e-02
3.834968563326382474e-02
-3.720130866284636351e-02
-1.019315546602343921e-02
-2.328162093368365496e-03
-3.314659964976730822e-02
-4.767249507285119259e-02
-6.917580052095152754e-02
-1.430758441921566688e-03
-2.480461648905414856e-03
7.497271954489562705e-03
-6.940368888570594419e-02
-3.942059961008011204e-02
5.691476311944947196e-05
4.060178651938405742e-02
1.191513430540653562e-01
9.392257297821840489e-02
-9.072124680228604854e-02
-1.753710949024908650e-02
3.970205875198977441e-02
1.140509114793829444e-02
-9.815377191678950619e-02
-5.514928488062694617e-02
1.954651347825969721e-02
-8.337771265200498178e-04
9.585003474761233377e-02
-5.118799201305819502e-02
-6.094261664501288839e-02
-4.264813745685609031e-02
-2.705253179532300309e-02
-4.650734832891610659e-02
4.566450996002866664e-02
-3.601201448762925833e-02
-4.354491970587694161e-02
-6.872988273556789041e-02
2.190811369279163992e-02
5.333665882315305473e-02
-2.245091914881849893e-02
5.878468445671315712e-02
7.250398486211809268e-02
2.609772586294597033e-02
-7.084394102480089106e-02
-1.463312006133196119e-01
-1.140388014258881255e-01
-3.423076389248561058e-02
-4.597297822843823822e-02
4.110883435447409973e-02
4.763296887479881447e-02
-9.650397796516634041e-02
1.925391461543220495e-01
-6.129843199605351095e-02
4.259308181995449111e-02
-2.204972274499890084e-01
-1.605663872622366817e-01
-1.064745085805299252e-01
4.214517747624678401e-03
-2.268557098389763771e-01
-5.957735048346975149e-02
1.783610376797521713e-02
-5.149686970978274714e-02
8.252744891308352870e-02
-1.213025058473098938e-01
-5.378201434807171333e-02
1.479047359554636065e-01
-8.432045493261233066e-03
3.102402453856889768e-03
6.595414873791075050e-02
1.453060399034812322e-01
-2.094371279832484001e-01
-9.850951977677559201e-02
-4.769130774766490444e-02
-1.008423983131515322e-01
4.188542208624334434e-02
1.252042148174809522e-01
1.222611979918246383e-01
-1.084296248126650070e-01
1.526273945095571738e-01
1.184854160027496023e-01
6.352574234192429059e-02
-1.597549378047313229e-01
3.945327611462268874e-02
-6.477686512195521273e-02
2.032242500694476928e-01
-1.862102101745792548e-02
-1.623221394387430738e-01
2.197825123296480096e-02
-1.639650047849328940e-01
2.340428494771530088e-01
-3.819025246878506724e-02
6.826461366786240603e-02
5.870039121899715134e-02
4.881547020524981684e-02
-3.705242016119397741e-02
-9.221751394399400892e-02
1.019533502758089849e-01
1.947973017295319131e-01
1.061542281832152240e-01
8.533007264629297040e-02
5.060955933269340075e-03
7.607615615864139758e-02
-1.482452100513345361e-01
1.362732088583278739e-02
2.809470798382170953e-01
-2.364766677968218808e-02
1.606847871477285472e-01
3.830336994528342198e-01
-7.116833626291824144e-02
2.325597812114721386e-01
3.236383010209268329e-01
-7.540718154901000780e-02
-2.514478076644904303e-01
5.973520588525797759e-02
-2.576561397652209484e-01
5.350990809440385465e-02
7.727178407930737625e-02
-5.010449528102967759e-02
-3.373113852725702633e-01
2.630405920159599176e-01
5.541294775107578063e-01
-5.233976216875639575e-02
-1.806514637445869043e-01
1.477242476332417953e-01
6.327467134007602745e-02
-2.575467210573530175e-02
1.094217494447571881e-01
-2.172261532361973724e-01
5.522513222137869632e-02
2.322952153797779029e-01
-2.001718589516089941e-01
-1.127655415164631608e-01
-1.753502021510882081e-01
2.216599484472524528e-01
1.965465935624521876e-01
-1.483963407869681173e-01
-4.115402237544168139e-03
4.236192161302541198e-02
-1.114229277614258440e-01
6.608704655636184200e-02
-7.456048002745688241e-02
-3.233372451715852205e-03
2.226020262377934877e-01
-2.834184188036915630e-01
1.339179925171148783e-02
1.270307866553147848e-02
-3.358385701645322241e-02
-4.197155352595360878e-02
1.107994015208231819e-01
-2.688643011961927565e-01
-9.499103732043386039e-02
-1.679989381266917547e-01
-1.195681159658814052e-01
1.557115377770846576e-01
-2.393812634868747735e-01
-3.720862255972757354e-02
1.185223005881541752e-01
2.967971031839198859e-01
2.024444686510949720e-01
-4.106178138222716933e-01
-3.171818878495056282e-01
-3.958566820827718047e-01
-5.417284595177381812e-01
-1.050719543744071949e-01
1.091741263417245200e-01
-2.179986097679380008e-01
-6.817715936957759182e-02
2.488835030318587438e-01
-1.956313268759114210e-01
1.258156513943904375e-01
2.514871791932147826e-01
-4.446386963997083636e-02
-6.267255274408198296e-02
2.910347740214396794e-01
1.078792057094491441e-01
-7.288540873596376091e-02
9.609982749600062824e-02
-2.568723619163545968e-01
-1.972524840330276419e-01
1.631734665602644629e-01
-1.482159131945647024e-01
-2.304879981110354026e-01
8.958564817668181191e-02
1.233128107419231706e-01
-3.300484384990278186e-01
-1.592068294223609182e-01
1.704969834198248879e-01
4.601929521580996885e-01
2.503577395567303521e-01
-5.238621180426065310e-02
1.990101256922263973e-01
2.374309873466934895e-01
-1.721845853613453159e-01
2.339068544233385283e-01
1.169743383431968292e-01
5.747428760639440581e-02
-4.010894866595857144e-01
2.323875614082834828e-02
6.239697187520408805e-01
1.136099472396753518e-01
3.652162994349802960e-01
6.534685712406229641e-01
4.325255860125096774e-01
4.125417704615514936e-01
-1.404714785817989531e-01
2.217127827527086981e-01
-4.841397472399003310e-02
7.506808294304954943e-02
3.784729722104019922e-01
-2.511528435647392143e-01
-6.913283171560538620e-02
-1.803117417708420822e-01
1.536891710551158696e-01
-2.570577398866302210e-01
-8.779528793649345186e-02
-5.573137785181510040e-01
-3.726385211577780132e-01
-3.321315213061677707e-02
7.805767873196969298e-01
-2.636541882197588824e-02
2.929543584544243989e-02
6.632418549905354510e-01
-4.387158388842329892e-01
1.570365734509523159e-01
-1.607871994972193408e-01
-3.465592506294252334e-02
-2.124713842933739771e-02
1.859941830660100104e-01
8.695635274318749275e-01
1.079121361887800834e+00
6.589728321884642526e-01
-2.128771060550513350e-01
-1.087473700875156296e-01
1.619526092035741272e-01
1.896192786548033249e-01
-5.404503166098492128e-01
-6.402129814189502222e-01
-6.018041090819703509e-01
-2.172218115725557328e-02
-3.566862847557486504e-01
-1.427896497586441937e-01
-2.149054507109907086e-01
-1.991576690699612406e-01
-3.124194456414634558e-01
-2.159682619861282848e-01
-8.774071477621997461e-02
-3.409423937784004932e-03
-1.628988229111321961e-01
8.239955595047042392e-02
-7.862764078624163988e-02
-5.149529858902975876e-01
-3.951850390447085304e-01
-1.729806658644942319e-01
-9.938251626204576417e-02
1.094184553140672284e-01
-1.128939412186683727e-01
-1.597975402635889719e-01
-7.891893949163458766e-02
-2.203261574970736755e-02
1.670243561935670085e-01
-9.397043601415992764e-02
7.227353760499869405e-03
-1.190790696377726221e-01
-2.569529759815714076e-01
-3.170756781460669638e-01
-2.414967460443138633e-02
2.882474836744796653e-01
-8.605619213766824149e-02
-1.336445696479417744e-01
-2.516953015168990615e-01
-2.267253345868833481e-01
-4.786407497946281731e-01
-3.856115998858658522e-01
5.427438894330698788e-02
-2.880314224337220952e-01
-1.351916512183830854e-01
-2.988992719210845084e-01
-4.693567869826925087e-01
-4.207845033217515879e-02
-1.595342718731419529e-01
-2.048174623824373652e-01
1.374992419293645518e-01
2.893393158836919943e-01
-1.424005294572717739e-01
5.869285958591635884e-03
-1.732905237841549095e-01
8.897506144035800812e-02
5.949582006009484364e-02
-4.247019113821842717e-01
-2.218021463710574959e-01
-4.918705988197940582e-01
-1.298907573992213738e-01
-8.226214261327725874e-02
2.929373826690120919e-01
-1.440345296272882991e-01
1.574607196264572184e-01
-8.783948014260545278e-02
-3.680203319212573820e-01
2.456270466481574599e-01
-4.345209835544961985e-01
2.470826558709054155e-01
1.496930480059395219e-01
3.174151658897072376e-02
1.609611366569633495e-01
1.218282717681906657e-01
-4.971982862851867524e-02
-4.204222530742413727e-02
1.602063164091378777e-02
5.625210841510551452e-02
-4.569507484849972268e-01
5.992640115228350939e-02
1.624510417781533378e-01
-2.933392118442566532e-01
-2.236249249738606615e-01
-8.770055926594842732e-02
2.691588607403387970e-02
-3.170105551588047188e-01
2.752945770698093653e-01
-9.075753663761353118e-02
-3.942604409132513532e-01
4.904418524199840451e-02
-6.485356899848758461e-02
1.319186432242989704e-01
-2.133136869981437922e-01
2.676842870473274960e-01
6.804369879583350988e-02
-1.748598935588404069e-01
-4.117725501761983209e-02
-2.111899405475052283e-01
-6.351876183784947727e-02
1.432404749270819178e-01
1.576705492657497487e-01
6.818829838122954234e-02
-3.391367162405908298e-01
3.765686346620288755e-02
3.350489071360670534e-01
-9.363151839535435728e-02
2.873475194318325099e-01
-3.480159542009462342e-02
2.779669084299803833e-02
1.682393236698039862e-01
-4.850004192634297523e-02
8.082409769140261324e-02
4.323691722676803462e-01
-7.271567434679576669e-02
-3.937028285830288660e-02
-1.239614288042285017e-01
3.305542985868251682e-01
1.994912912779971959e-01
7.753800064367036282e-02
-1.181955802349499429e-01
-9.546159659673501829e-02
8.375317686523826854e-02
2.060905280281545848e-01
-1.340555885485308907e-01
7.033810284599332531e-03
-4.531119013827616948e-02
-8.485711654957417416e-02
-4.510401234950407734e-02
4.129496879118902397e-01
2.307726987735134183e-02
-9.406949842982785526e-02
-3.474759422064769843e-01
2.322488230366435702e-01
-1.475345377116809610e-02
-3.823619797134468201e-01
-1.910130489256157971e-01
-2.161543697761318661e-01
-6.953753974713432380e-03
-1.093863884207036535e-01
3.871933616666301068e-03
1.396271505857596129e-01
7.313180070295902113e-02
-3.079349048952906287e-02
-1.994871731682367616e-02
-2.664628178474926501e-01
1.618343238906670423e-01
2.398965232038011153e-01
-6.665691804162547814e-03
-1.281131083068954013e-01
-1.886667323170914956e-01
-3.419511949609257973e-01
-6.996109855813220646e-02
3.314867708106054578e-01
5.416897409410412201e-02
-1.144886967870994005e-01
2.306893487085759364e-01
-8.685461398306662528e-02
-2.904657016812932646e-01
-9.807429195104700945e-03
7.676307644914201478e-02
1.016267171080425247e-01
5.811322489571870697e-01
-1.942276036756263313e-01
2.661416286567169776e-01
5.638101824251987720e-02
-3.399360102587768717e-02
-1.112510234943377974e+00
-3.399360102591499760e-02
5.638101824251509631e-02
2.661416286566608003e-01
-1.942276036756144797e-01
5.811322489571625338e-01
1.016267171080412202e-01
7.676307644913288319e-02
-9.807429195046058618e-03
-2.904657016813328441e-01
-8.685461398299713920e-02
2.306893487086182359e-01
-1.144886967870594879e-01
5.416897409413723441e-02
3.314867708106307709e-01
-6.996109855809119760e-02
-3.419511949609188584e-01
-1.886667323170463650e-01
-1.281131083068571819e-01
-6.665691804141900267e-03
2.398965232038453854e-01
1.618343238906842507e-01
-2.664628178474696685e-01
-1.994871731681700441e-02
-3.079349048951356138e-02
7.313180070295151325e-02
1.396271505857646089e-01
3.871933616664955356e-03
-1.093863884206809634e-01
-6.953753974709655020e-03
-2.161543697761079408e-01
-1.910130489255997543e-01
-3.823619797134406029e-01
-1.475345377117573756e-02
2.322488230366643869e-01
-3.474759422064533365e-01
-9.406949842980769083e-02
2.307726987736221508e-02
4.129496879118926822e-01
-4.510401234949168447e-02
-8.485711654957003858e-02
-4.531119013827546171e-02
7.033810284600437550e-03
-1.340555885485237297e-01
2.060905280281639385e-01
8.375317686524284821e-02
-9.546159659672427689e-02
-1.181955802349432122e-01
7.753800064366274392e-02
1.994912912779962522e-01
3.305542985868163974e-01
-1.239614288042250601e-01
-3.937028285830164454e-02
-7.271567434679596098e-02
4.323691722676523685e-01
8.082409769140103117e-02
-4.850004192635483380e-02
1.682393236698082051e-01
2.779669084300058837e-02
-3.480159542007781742e-02
2.873475194318355075e-01
-9.363151839532404819e-02
3.350489071360746030e-01
3.765686346621518327e-02
-3.391367162405937163e-01
6.818829838121993892e-02
1.576705492657473340e-01
1.432404749270714817e-01
-6.351876183784584129e-02
-2.111899405474903790e-01
-4.117725501760435836e-02
-1.748598935588267789e-01
6.804369879584762359e-02
2.676842870473302161e-01
-2.133136869981280825e-01
1.319186432243130147e-01
-6.485356899847904977e-02
4.904418524200002821e-02
-3.942604409132491328e-01
-9.075753663760084688e-02
2.752945770698175809e-01
-3.170105551588062176e-01
2.691588607404232433e-02
-8.770055926593955942e-02
-2.236249249738503642e-01
-2.933392118442413876e-01
1.624510417781624971e-01
5.992640115229962150e-02
-4.569507484850007795e-01
5.625210841511294607e-02
1.602063164092175709e-02
-4.204222530741837105e-02
-4.971982862851740542e-02
1.218282717681896665e-01
1.609611366569685398e-01
3.174151658897084172e-02
1.496930480059433799e-01
2.470826558708976439e-01
-4.345209835545001398e-01
2.456270466481551840e-01
-3.680203319212569379e-01
-8.783948014260409276e-02
1.574607196264526388e-01
-1.440345296272870224e-01
2.929373826690139793e-01
-8.226214261327476074e-02
-1.298907573992130748e-01
-4.918705988197990542e-01
-2.218021463710770635e-01
-4.247019113821811631e-01
5.949582006008945906e-02
8.897506144034797448e-02
-1.732905237841566581e-01
5.869285958573952112e-03
-1.424005294572830704e-01
2.893393158836711221e-01
1.374992419293572243e-01
-2.048174623824286500e-01
-1.595342718731593556e-01
-4.207845033217833680e-02
-4.693567869827232619e-01
-2.988992719210867843e-01
-1.351916512183988783e-01
-2.880314224337152118e-01
5.427438894330067348e-02
-3.856115998858324345e-01
-4.786407497946303935e-01
-2.267253345868752712e-01
-2.516953015169007268e-01
-1.336445696479436895e-01
-8.605619213765546005e-02
2.882474836744656765e-01
-2.414967460442811811e-02
-3.170756781460726259e-01
-2.569529759815658010e-01
-1.190790696377740793e-01
7.227353760510206622e-03
-9.397043601415712433e-02
1.670243561935838283e-01
-2.203261574969503367e-02
-7.891893949161107868e-02
-1.597975402635757602e-01
-1.128939412186559244e-01
1.094184553140798155e-01
-9.938251626203611910e-02
-1.729806658644776896e-01
-3.951850390447005923e-01
-5.149529858903092450e-01
-7.862764078623141195e-02
8.239955595047436521e-02
-1.628988229111321961e-01
-3.409423937771197035e-03
-8.774071477621492310e-02
-2.159682619861187369e-01
-3.124194456414829957e-01
-1.991576690699588259e-01
-2.149054507109790790e-01
-1.427896497586272628e-01
-3.566862847557495941e-01
-2.172218115724451615e-02
-6.018041090819692407e-01
-6.402129814189544410e-01
-5.404503166098655331e-01
1.896192786548145104e-01
1.619526092035733500e-01
-1.087473700875176280e-01
-2.128771060550359862e-01
6.589728321884791296e-01
1.079121361887788844e+00
8.695635274318848085e-01
1.859941830660084838e-01
-2.124713842932395014e-02
-3.465592506295284148e-02
-1.607871994972175922e-01
1.570365734509523437e-01
-4.387158388842322676e-01
6.632418549905382266e-01
2.929543584544204785e-02
-2.636541882197931952e-02
7.805767873196977069e-01
-3.321315213061638849e-02
-3.726385211577839529e-01
-5.573137785181689896e-01
-8.779528793650394347e-02
-2.570577398866433216e-01
1.536891710551223922e-01
-1.803117417708514358e-01
-6.913283171560301310e-02
-2.511528435647262802e-01
3.784729722104011040e-01
7.506808294305260254e-02
-4.841397472398248358e-02
2.217127827527061723e-01
-1.404714785818025613e-01
4.125417704615372272e-01
4.325255860124676555e-01
6.534685712406305136e-01
3.652162994349827385e-01
1.136099472396691207e-01
6.239697187520636401e-01
2.323875614085111480e-02
-4.010894866595531849e-01
5.747428760640865136e-02
1.169743383431814249e-01
2.339068544233563474e-01
-1.721845853613339083e-01
2.374309873467081167e-01
1.990101256922319484e-01
-5.238621180425186846e-02
2.503577395567414543e-01
4.601929521580939153e-01
1.704969834198334644e-01
-1.592068294223462910e-01
-3.300484384990149400e-01
1.233128107419122765e-01
8.958564817669788238e-02
-2.304879981110347642e-01
-1.482159131945620378e-01
1.631734665602529999e-01
-1.972524840330324991e-01
-2.568723619163881811e-01
9.609982749600039231e-02
-7.288540873595075742e-02
1.078792057094656726e-01
2.910347740214250800e-01
-6.267255274409312682e-02
-4.446386963996890040e-02
2.514871791932076772e-01
1.258156513943841925e-01
-1.956313268759019008e-01
2.488835030318543862e-01
-6.817715936959763134e-02
-2.179986097679570134e-01
1.091741263416943913e-01
-1.050719543744335210e-01
-5.417284595177396245e-01
-3.958566820828167132e-01
-3.171818878495413219e-01
-4.106178138223014473e-01
2.024444686510873115e-01
2.967971031839022888e-01
1.185223005881148456e-01
-3.720862255979080074e-02
-2.393812634869201261e-01
1.557115377770397768e-01
-1.195681159659088277e-01
-1.679989381267829873e-01
-9.499103732045768855e-02
-2.688643011962699725e-01
1.107994015208255828e-01
-4.197155352600975137e-02
-3.358385701640643345e-02
1.270307866555940232e-02
1.339179925181411580e-02
-2.834184188037116026e-01
2.226020262378476666e-01
-3.233372451715852205e-03
-7.456048002750156889e-02
6.608704655634939362e-02
-1.114229277615087638e-01
4.236192161299962011e-02
-4.115402237575947406e-03
-1.483963407869732798e-01
1.965465935624818583e-01
2.216599484473221471e-01
-1.753502021511158804e-01
-1.127655415164011549e-01
-2.001718589515564251e-01
2.322952153798406305e-01
5.522513222140300326e-02
-2.172261532361258740e-01
1.094217494448040534e-01
-2.575467210569970522e-02
6.327467134012086658e-02
1.477242476332687182e-01
-1.806514637445375826e-01
-5.233976216872596177e-02
5.541294775108317472e-01
2.630405920159918920e-01
-3.373113852725292405e-01
-5.010449528103195355e-02
7.727178407933875393e-02
5.350990809440403506e-02
-2.576561397652123997e-01
5.973520588528852260e-02
-2.514478076644636184e-01
-7.540718154900344361e-02
3.236383010209516464e-01
2.325597812114870711e-01
-7.116833626289979786e-02
3.830336994528518724e-01
1.606847871477447287e-01
-2.364766677965122327e-02
2.809470798382427414e-01
1.362732088583150543e-02
-1.482452100513464710e-01
7.607615615865298553e-02
5.060955933275893860e-03
8.533007264630174116e-02
1.061542281832130868e-01
1.947973017295466513e-01
1.019533502758138283e-01
-9.221751394400527768e-02
-3.705242016119148635e-02
4.881547020526259828e-02
5.870039121902033419e-02
6.826461366786024110e-02
-3.819025246878948038e-02
2.340428494771764067e-01
-1.639650047849272319e-01
2.197825123293446412e-02
-1.623221394387518168e-01
-1.862102101746230046e-02
2.032242500694413645e-01
-6.477686512193739365e-02
3.945327611463544243e-02
-1.597549378047339041e-01
6.352574234194387215e-02
1.184854160027688230e-01
1.526273945095744655e-01
-1.084296248126562501e-01
1.222611979918205583e-01
1.252042148174809799e-01
4.188542208624319862e-02
-1.008423983131432333e-01
-4.769130774766023456e-02
-9.850951977675785620e-02
-2.094371279832335231e-01
1.453060399034964700e-01
6.595414873790807209e-02
3.102402453874932194e-03
-8.432045493250852480e-03
1.479047359554785945e-01
-5.378201434805091746e-02
-1.213025058472991108e-01
8.252744891309750364e-02
-5.149686970978065853e-02
1.783610376797301750e-02
-5.957735048345631085e-02
-2.268557098389790139e-01
4.214517747627843404e-03
-1.064745085805379327e-01
-1.605663872622102029e-01
-2.204972274499839291e-01
4.259308181996065978e-02
-6.129843199606221232e-02
1.925391461543285720e-01
-9.650397796516314852e-02
4.763296887480150676e-02
4.110883435446794493e-02
-4.597297822842206366e-02
-3.423076389248715795e-02
-1.140388014258918170e-01
-1.463312006133292986e-01
-7.084394102478892841e-02
2.609772586293443095e-02
7.250398486213037452e-02
5.878468445672244830e-02
-2.245091914881481784e-02
5.333665882314587298e-02
2.190811369279706614e-02
-6.872988273555866168e-02
-4.354491970588032779e-02
-3.601201448761657403e-02
4.566450996002575230e-02
-4.650734832890656562e-02
-2.705253179532217389e-02
-4.264813745686502067e-02
-6.094261664501795378e-02
-5.118799201307131647e-02
9.585003474762300579e-02
-8.337771265386339104e-04
1.954651347825425364e-02
-5.514928488063289974e-02
-9.815377191680701996e-02
1.140509114793282833e-02
3.970205875197620887e-02
-1.753710949025150123e-02
-9.072124680231360982e-02
9.392257297823800033e-02
1.191513430540725865e-01
4.060178651941087624e-02
5.691476309811574101e-05
-3.942059961007685076e-02
-6.940368888570223882e-02
7.497271954487887829e-03
-2.480461648903920392e-03
-1.430758441950888069e-03
-6.917580052098022680e-02
-4.767249507285434285e-02
-3.314659964973195455e-02
-2.328162093332136230e-03
-1.019315546601307423e-02
-3.720130866283128529e-02
3.834968563328455815e-02
-8.309000972756522274e-02
-5.360902871875548176e-02
-3.870219449951922686e-02
2.740864666225313259e-02
3.828228732122693212e-02
-1.437926493555877379e-02
2.039640153054475546e-02
-1.246617947372572963e-02
4.185638872348801387e-02
-3.442688121721090844e-02
1.257635371971328915e-02
-2.750277808650883338e-02
-3.211735670574671769e-02
8.114368029424187320e-03
-3.632432571300834440e-02
2.203563845122080700e-02
5.917947418966303108e-02
2.635693371941487048e-02
-2.031352424436465645e-02
-2.146433040361814606e-02
-1.119986197557555629e-02
5.829920225645677384e-02
7.060198771296344322e-02
5.900207649706140645e-02
1.951089026231412130e-02
-4.963953688894786470e-02
2.225212908515915647e-02
5.369163389349421167e-02
5.711747927584027301e-02
1.692616186968009043e-02
-3.137298490893949271e-02
1.679446441382826186e-02
8.644990037475449793e-03
1.199490382907944172e-03
2.414709729813719480e-02
-5.860368317104844987e-02
4.288755209984926146e-03
2.027411138987165757e-03
2.195760892809849388e-02
-1.873170914061145567e-02
-3.555702127458698625e-02
1.436187058132721260e-02
1.055765711727830840e-02
7.422018685235584265e-03
-3.650156231203349755e-02
9.800797602160097807e-03
1.076613554454134217e-02
6.450846135986411899e-03
-1.716225503738360095e-02
-2.732983541689744302e-03
2.272109392246387735e-02
5.494424829595546261e-03
1.476245009787451913e-02
3.821666306112767031e-02
3.018657388491397670e-02
-5.240915812361252556e-03
-1.028457768959636226e-02
7.377184216243565240e-02
1.301144271213689266e-02
3.110257830491969851e-03
2.217730390752542871e-02
1.306076450125455771e-03
-1.187466123351741537e-02
-3.223932929033063687e-03
-1.156407129383288900e-02
3.105536207873942078e-02
-1.361390606019947241e-02
-1.840691658776508373e-03
-2.055128130729355108e-03
1.072530584908277769e-03
-1.631142280760177182e-03
-2.391371740603658730e-02
-4.183706709011237126e-04
6.236819459514241111e-03
1.370861132084350877e-02
3.503064000944646882e-03
-1.608088404184791417e-02
2.520403753010826142e-02
-5.529695094494641548e-03
2.387027374685757666e-02
-1.300564350420183729e-02
1.011332740528114900e-02
-1.993816288106189764e-03
-1.731698402170367759e-02
-7.556545868522124461e-03
-8.539555437265653262e-03
-2.277310065277203619e-03
-8.302939943802271211e-03
1.411025929429365715e-03
-9.156806709214103217e-04
1.131404244154481618e-02
-3.568450907628106816e-05
5.858663525227276667e-03
5.003464678391627597e-03
-6.346052033394039733e-03
-2.448311005076459542e-03
-5.150446899685440227e-03
-3.050627459101899492e-03
-3.694919460954071855e-03
-4.244437171622343283e-03
3.985385452740218722e-03
-4.024656771765397945e-04
1.830536741501002755e-03
-2.775582141362521952e-05
3.366701752997994408e-03
-1.931697890056069443e-03
5.223517011115017331e-03
5.985654696595934555e-03
-5.975091893564827249e-03
3.824691761994922744e-03
6.989089582909721772e-03
-1.785308695021895820e-04
-3.148875532126143694e-03
1.570073186326120937e-03
1.733535304487227339e-03
3.249973975065712645e-02
4.545131838980689953e-02
