9.466500260811372414e-02
3.259984287982042872e-02
4.929989531621448151e-02
-3.717372051468714744e-03
1.681140984278073347e-03
-7.885527765573385750e-03
9.418128382057133763e-03
6.868065838972370329e-03
1.032859917715356346e-02
-9.486698877857246970e-03
1.911711109561808897e-02
1.130574680337215199e-02
-9.209056743269883327e-03
-2.945523960998563950e-03
4.252048019477427943e-04
1.325256701109722712e-03
-8.116040066044050150e-03
2.020867006370608010e-03
-1.421891309583145357e-06
-1.160386692218295934e-02
-3.643040643019013203e-03
-2.106694204750203525e-02
-1.718878948554269925e-03
-1.619910755226516841e-02
3.076901438288803803e-02
-4.083899989170358680e-03
1.105968159790027272e-02
3.273502951025797358e-03
5.702263339983915102e-03
4.389318764409289031e-03
-1.198437030835730610e-02
9.969612117787463035e-03
-1.454310583179418970e-02
-2.511840295573897208e-02
-2.600490152204937289e-02
6.944958566183601079e-03
1.310969818990903590e-02
-9.655894046304958067e-03
2.195985401846556329e-02
-3.694239508018615226e-03
3.667236798036666023e-02
-2.285531714000588188e-02
-3.530194763098482014e-02
5.702415020282874947e-02
4.916136231378764876e-04
-2.158369136847593239e-02
-3.294068585617915268e-02
-2.368391997713414909e-02
6.017216719736118158e-02
7.622760299241804205e-05
1.333223927904758632e-02
5.719919200705469997e-03
2.071161497925144701e-02
1.960092964057968956e-02
1.427745622342579956e-02
-3.858455738387833733e-02
-2.618820155267820304e-02
5.522160342685866752e-02
-6.159239832013785332e-02
7.725580950434229877e-02
8.564712862323831111e-02
-3.106083336315723642e-02
-6.255514890380431403e-02
1.589611992896824422e-01
3.497075606246435875e-02
4.491187173674870969e-02
3.475180294306601247e-02
5.493341752996871996e-03
-4.789983792741825397e-02
-1.723039695739669863e-02
-5.385471727681812038e-02
3.232301306894791448e-02
1.438350991532111323e-03
-6.127774403452268537e-02
-1.107453868830460264e-02
6.963662572686796226e-02
-1.123448244553215680e-02
-8.076539611607985725e-02
8.485766504999436854e-02
-1.669614207285063934e-02
-1.720094852444109534e-02
-3.733482388207864933e-02
-8.523679702605080344e-02
1.024164618765843748e-02
4.935173246705870653e-02
-3.044547618547666090e-03
1.545889590779364609e-02
-4.875019767154692429e-02
4.050186096132335489e-02
-8.802247055053746827e-02
2.757530094088351813e-01
-1.570301355983794167e-02
-1.041549765100709957e-01
9.845497000096070650e-03
2.819978017844649854e-01
9.818507237152296341e-02
2.638918884514740437e-02
2.470313052796981046e-02
-8.918034304759092645e-02
-4.330486660896626372e-02
9.586555108691430238e-02
1.524244698466806769e-01
-3.808638573160605389e-05
-5.939842067610602572e-02
1.101225681260342149e-01
-1.985003287950675155e-01
2.797406133411028950e-02
5.109413155214648228e-02
-2.510430036907707052e-02
9.495133812930989237e-02
5.306705261316879696e-03
-1.296191723151299824e-01
1.344679117046793104e-02
1.523233827414002539e-01
-1.100094480235241368e-01
9.505030826680924139e-02
-7.396226844402487011e-02
-2.445888261809693320e-01
2.223906518827373779e-01
-3.835173284384163495e-02
-4.773473796616822806e-02
-8.371628775512895970e-03
-1.317736069314796032e-01
-1.817953607587297071e-02
-1.869766487067062166e-01
3.113933569725391148e-02
-2.024174970283953989e-03
1.702106268264987898e-01
4.554826829632707685e-02
-3.755014424668898787e-01
-2.239201230490880934e-01
2.210522527237376300e-01
-2.630376262982442315e-02
4.052894331542684636e-01
-7.765654533925733793e-02
-2.593515128656290192e-02
6.965029312287529528e-02
5.214219400019093342e-02
-2.226255299872567373e-01
-6.506886692495106317e-02
-3.038339671683243370e-02
-5.776881118894372502e-02
3.386081058761224449e-01
-1.382032218657159861e-01
-6.958812187007629158e-02
2.035442553675853028e-01
-1.427334289404231793e-01
-5.321613555610693602e-02
8.775750823171349357e-02
1.594622449187288460e-01
-2.862847864330719805e-01
-1.608494469635256829e-01
1.081308031440232353e-01
-8.682201802726258189e-02
5.627364975562590410e-02
-6.854435633370103975e-02
9.242392119387171645e-02
1.911893128689797217e-01
-3.302138910151311557e-01
-1.471093417106363876e-01
-3.378194485902788480e-01
-2.304226643955492593e-02
4.136441946449678775e-02
3.385642780361418636e-01
-1.793690128826761210e-01
-2.507825044618600119e-01
4.913260990068860634e-01
4.744274173370818248e-01
-4.542404854100284273e-01
-4.986250498935814734e-01
-3.877446875355267109e-01
-3.468936668878972451e-01
4.992094676654926233e-02
-3.127389161070697754e-01
2.144559310434928923e-01
1.362407252071975716e-01
-2.368749368297020097e-01
2.600729157791200619e-01
1.937594703619163750e-02
-1.424971713930479056e-01
2.528996578142128637e-01
1.624718849117105235e-01
-1.284210484449564982e-01
-4.387586007037452829e-02
4.390146599716872600e-01
-8.415322523422069656e-01
-1.186114681294434814e-01
4.126699008360557031e-02
2.003321178725393226e-01
-4.979349223892309828e-01
-1.904224026001098691e-01
2.148293518337329178e-01
-9.277585123014475688e-02
1.366970352981566883e-01
3.441058895635957793e-01
-7.409617961306996792e-02
-2.677728350994394990e-01
-4.138798532075835257e-01
1.509692776586760155e-02
1.619974536270260002e-01
-1.090162995665293622e-01
1.390013344153825658e-01
-4.442512418910162797e-01
2.882000229753823861e-01
-1.337619932330714745e-01
-4.427619644426218637e-02
4.953262680993583134e-01
-6.408717002621767966e-02
3.576386984835326910e-01
-8.442487113871355309e-02
-3.394108845208836378e-01
9.446471730546759926e-02
6.977744682983659796e-01
2.055866679323681279e-02
2.272182635972270770e-01
-4.398586311265884063e-01
-1.964395214855194638e-01
-1.019335251841964607e-01
-2.483776964920590691e-01
7.716577233250747625e-01
1.300343096306169344e-01
3.546452364186163941e-01
9.212047997543653111e-01
-1.860724183892493444e-01
3.380467122368073785e-01
-1.145410920836906765e-01
3.059263497704680090e-01
-1.920251323346498784e-01
-3.624054746699902907e-01
-3.290172707511492822e-01
-7.019880249623164370e-02
-1.616387141323216148e-01
-4.950472273592416705e-01
-5.234961008230158974e-01
8.436713707273240104e-01
1.541788231404837561e-01
4.213282074564578261e-02
-3.183733715298826539e-01
8.060088247964483088e-01
1.236996949163123305e-01
-5.919883833203034573e-01
2.556734953305239699e-02
-1.783561787688064393e-01
-1.452604886806140305e-01
5.181634469421608769e-01
-2.795013490936218981e-01
-3.787660615282529286e-01
-1.245278565562324691e-01
-1.307118658191032678e-01
1.410153160813593098e-01
-6.095237919256581982e-01
-2.451122194822102918e-01
-4.606525371442511674e-02
7.897087300258274212e-01
-1.387622378001500956e-01
-1.969231850489468194e-01
-2.777629431988952458e-02
2.222657823351825712e-01
-3.481970402809197451e-01
2.678651092983069804e-01
-9.146297982573214913e-03
2.344091547998287672e-01
-6.090709462434236166e-01
5.838325642110464564e-02
-6.516291170375079211e-01
-5.564035618189843158e-01
-3.594400472004742886e-01
-3.152330018736251294e-01
2.917649864767339618e-02
-3.116196587649459060e-01
1.736690031421695701e-01
6.551163755527942278e-01
3.513699454408052425e-01
7.398459730478842422e-01
-2.642002512294703287e-01
-5.924510281985100324e-01
-7.561614027610957800e-01
-5.955294262355654844e-01
-3.372170747928651124e-01
-3.870175102828432578e-01
-4.985948290784983361e-02
2.076960123921291201e-01
-1.703502035243744661e-01
3.351591086980754142e-02
-3.664479210364316453e-01
4.934585322168418831e-01
1.965937068172330937e-01
-1.246965564467884258e-01
1.155760767190092020e+00
-2.479488660160329705e-01
-1.172180362463016851e-01
4.802306122232856411e-02
-2.303619716511647875e-01
-1.469808401668499798e+00
2.988994889503730490e-01
-8.928533738611661441e-01
1.083962148634504130e-01
2.551519764187036854e-01
1.686384271122242373e-01
-6.663165980291162471e-01
-2.054523644640595670e-01
9.708862183630098119e-01
1.176322234845551762e+00
1.612031616054594163e-01
4.792396969352466507e-02
4.358008999516281567e-02
5.999874361112290666e-01
-2.156224237438953972e-01
2.175458197265380811e-01
9.184460970078779651e-02
3.729426827620849760e-01
-5.806958323904962693e-01
1.387785780031444705e-01
7.592468523256191704e-01
8.526091801540590653e-01
5.030277393193279822e-01
8.235804434144666786e-01
8.031445809437436356e-01
4.198203912372718838e-01
4.300452997078705319e-01
8.128719341817310928e-01
-2.746322639884869465e-01
-4.019193185400541379e-01
9.930391685911630351e-01
-1.282992549022304307e-01
-1.985834301973602167e-01
-8.414777779197505359e-01
7.114048442958836871e-01
-2.558274571387437746e-01
-7.215416969756707211e-01
-1.154895023192724857e+00
-4.870733799555783117e-01
5.391953760375772786e-01
8.189055879649722591e-01
3.645831161600271431e-01
-2.954304645007588270e-02
1.704406896719231623e+00
-2.741397340609060262e-01
-2.083166400132747120e-01
-2.742213906619679342e-01
-1.527536391057503218e-02
-1.255006852095075232e-01
9.815360481581417718e-01
1.330171585892878205e+00
1.635307803218307710e+00
1.006317850955046334e+00
-4.306749971201578875e-01
-6.364382629105874711e-02
-6.137915351618775106e-02
-6.948497477949225898e-01
-8.145974885252968978e-01
-6.901698070603918822e-01
-1.070072065339744194e+00
-2.338011979393575801e-01
-2.974472825697049849e-01
5.107730448853479988e-02
-6.451780306827855638e-01
-8.188300067161634610e-01
-3.980767983878129579e-01
-1.082297497058680058e+00
-1.727692042973622000e-01
3.106857847581228627e-01
-4.104574927948159702e-01
-8.537355176641890642e-02
-6.336239185365999393e-01
-9.879857697816434303e-01
-7.207819478829221582e-01
-3.187904603067402975e-01
2.281761187308947725e-01
-5.079991926881337605e-01
-3.172076595682555844e-01
-3.398001068242404443e-01
-7.266111936273243754e-02
2.822329623677437005e-01
5.182282816150283189e-01
4.007611104428739912e-01
-5.291652912378725926e-01
1.167925911469034628e-01
-5.321740633984626268e-01
-5.653893610225592115e-01
3.679229814344496252e-01
5.362972708915892950e-01
-1.283354783890687245e-01
-7.760057892873148400e-02
1.247246657177256274e-01
-2.179084194434194321e-01
1.213594332341807747e-01
-3.461685676902973574e-01
1.805547720269372325e-01
-1.037292776822215767e+00
3.362634370358184577e-01
2.952889610674203635e-01
-2.535408138877976447e-01
1.768463548406470909e-02
-2.157802918845717899e-01
-4.585118321135054908e-01
5.828511599390933107e-01
-8.027843577846999201e-02
-3.285956659053230755e-01
6.140862349227363404e-02
-4.113214688851998257e-01
-3.492089301964708126e-01
4.004832681556796947e-01
-5.237730342838786690e-01
-3.084860952161772030e-01
-3.872448942465598898e-01
-7.872583669802288298e-02
-3.517635817633982254e-01
-3.115783409906326407e-01
1.450193660619076563e-01
1.143678753762349259e-01
-2.061270411293396609e-01
-3.457830431626973677e-01
7.897595642803788285e-02
-3.443406222568072550e-02
2.598532555698718216e-01
-1.496958551752474165e-01
-2.273990559700942438e-01
3.026532772712862696e-01
-6.667756870060188856e-02
3.642991630351838372e-01
-1.668394706021318341e-01
-5.082593477991587116e-01
-5.444365316984589587e-01
-2.463005153449281948e-01
2.412972483388954315e-01
-3.140631808067504971e-01
-6.055644164714539812e-01
-5.619661043379114984e-01
7.484918368399783029e-02
4.022919291608117454e-01
-3.385401922876009606e-01
1.330567665626091467e-01
4.378504244538385937e-01
-1.989894712503972873e-01
-2.045206292543967908e-01
-5.389449070100156280e-01
-3.086905879224045579e-01
3.335793753680491025e-02
1.732320097431016281e-01
2.640536673944636203e-01
-3.685241687647521081e-02
-3.153553079203606502e-01
-7.447394128672565894e-02
5.023056477235078310e-01
1.075548336518569598e-01
-1.549923988637600669e-01
5.950464854818370009e-02
6.509917915542365319e-02
5.201147626366514620e-01
4.492770405702800618e-01
-4.867764677121475536e-01
2.417791180866475376e-01
-1.862562546184147738e-01
-9.604602019600508300e-02
-7.694417425461554105e-02
-4.612927708497154278e-01
-2.251783202205786816e-01
2.866324289123279856e-01
2.649694423777307350e-02
1.159269453748070222e-01
2.062820050939414007e-01
-1.893873538551913427e-01
6.547918326918937548e-02
3.333923840106223779e-01
-1.702959067220185529e-01
-1.577911878399370638e-01
1.003500848406660539e+00
3.083463484287011225e-01
-9.460216169556352750e-02
-2.752540446512512506e-01
-7.847473467914811707e-01
-2.818564259327707711e-01
-3.566188519231595078e-01
9.231662279567800500e-01
-3.583661132510530811e-02
7.437525943985529020e-02
-6.171427027698077605e-01
6.331072796861848817e-02
4.193058883130168502e-01
-6.917883607334255336e-01
2.362649927676516715e-01
-3.217119049335092629e-01
7.056087275651650170e-01
-9.613287760005018168e-02
5.231892152430084320e-03
3.418389849151704518e-01
2.772511384431940451e-01
1.510377191036397782e-01
-3.146059105711278003e-01
1.483569072280798706e-01
-4.461176818121005971e-01
3.233755116366977822e-02
2.484799647409753620e-02
-3.698183301378188403e-01
-2.611391961645042059e-01
-5.874466094807228034e-01
-9.067049411066753495e-02
4.511705376017194902e-01
1.263435728210924869e-01
-4.395281009333264488e-01
5.624380568643283507e-01
5.097381564218095296e-02
-3.222376146894199989e-02
4.317552755737102954e-01
3.703674064149592993e-01
4.915180851353617708e-01
3.505433444240592111e-01
-2.855828673656269912e-01
3.186125889721685978e-01
1.296790485939900706e-01
3.191002908496590185e-02
-1.613977188359989157e+00
3.191002908494314227e-02
1.296790485939501858e-01
3.186125889719177984e-01
-2.855828673654073890e-01
3.505433444239102192e-01
4.915180851354418734e-01
3.703674064148749778e-01
4.317552755738724435e-01
-3.222376146905499283e-02
5.097381564241514063e-02
5.624380568645374057e-01
-4.395281009333572020e-01
1.263435728211595166e-01
4.511705376017997593e-01
-9.067049411053126895e-02
-5.874466094805937955e-01
-2.611391961643898529e-01
-3.698183301377240273e-01
2.484799647416036095e-02
3.233755116375776339e-02
-4.461176818119440002e-01
1.483569072280635504e-01
-3.146059105711547788e-01
1.510377191036250677e-01
2.772511384432488346e-01
3.418389849152200788e-01
5.231892152434206023e-03
-9.613287760002595106e-02
7.056087275651903301e-01
-3.217119049335111503e-01
2.362649927677132333e-01
-6.917883607333876750e-01
4.193058883130592607e-01
6.331072796862359520e-02
-6.171427027697045098e-01
7.437525943994656441e-02
-3.583661132506997526e-02
9.231662279568076945e-01
-3.566188519231113796e-01
-2.818564259327384081e-01
-7.847473467914224399e-01
-2.752540446512347083e-01
-9.460216169555589472e-02
3.083463484286709244e-01
1.003500848406759127e+00
-1.577911878399310130e-01
-1.702959067220115863e-01
3.333923840106189918e-01
6.547918326912775810e-02
-1.893873538551908708e-01
2.062820050939660199e-01
1.159269453748501127e-01
2.649694423776803587e-02
2.866324289122906821e-01
-2.251783202204830081e-01
-4.612927708497053247e-01
-7.694417425454293247e-02
-9.604602019596732154e-02
-1.862562546183290646e-01
2.417791180865672129e-01
-4.867764677120982597e-01
4.492770405702735115e-01
5.201147626366722232e-01
6.509917915543941835e-02
5.950464854817393012e-02
-1.549923988637479100e-01
1.075548336518046405e-01
5.023056477234782990e-01
-7.447394128667829405e-02
-3.153553079203633702e-01
-3.685241687649656872e-02
2.640536673944940960e-01
1.732320097430812000e-01
3.335793753685981078e-02
-3.086905879223670324e-01
-5.389449070100137407e-01
-2.045206292543565452e-01
-1.989894712503535446e-01
4.378504244538770074e-01
1.330567665626277707e-01
-3.385401922875845848e-01
4.022919291608195724e-01
7.484918368401652367e-02
-5.619661043378942900e-01
-6.055644164714197863e-01
-3.140631808067363417e-01
2.412972483389163592e-01
-2.463005153449610574e-01
-5.444365316983934555e-01
-5.082593477991574904e-01
-1.668394706021201768e-01
3.642991630352399035e-01
-6.667756870061943009e-02
3.026532772713045327e-01
-2.273990559701264957e-01
-1.496958551752557431e-01
2.598532555698918056e-01
-3.443406222568569375e-02
7.897595642802179849e-02
-3.457830431626828238e-01
-2.061270411293437133e-01
1.143678753762479711e-01
1.450193660618904201e-01
-3.115783409906031642e-01
-3.517635817633792406e-01
-7.872583669797875161e-02
-3.872448942465270272e-01
-3.084860952161761483e-01
-5.237730342838470277e-01
4.004832681557005669e-01
-3.492089301964889092e-01
-4.113214688852086520e-01
6.140862349225456596e-02
-3.285956659053245188e-01
-8.027843577851520585e-02
5.828511599390946429e-01
-4.585118321135007724e-01
-2.157802918846257190e-01
1.768463548404375363e-02
-2.535408138878696982e-01
2.952889610674595544e-01
3.362634370357774904e-01
-1.037292776822202889e+00
1.805547720267997591e-01
-3.461685676902683251e-01
1.213594332342037146e-01
-2.179084194433859034e-01
1.247246657177356888e-01
-7.760057892869867691e-02
-1.283354783890621187e-01
5.362972708915834108e-01
3.679229814344878724e-01
-5.653893610226163879e-01
-5.321740633984082258e-01
1.167925911468795652e-01
-5.291652912378581597e-01
4.007611104428968618e-01
5.182282816150465266e-01
2.822329623677676813e-01
-7.266111936272051652e-02
-3.398001068242239575e-01
-3.172076595681791455e-01
-5.079991926881288755e-01
2.281761187309000183e-01
-3.187904603067271969e-01
-7.207819478828402238e-01
-9.879857697816131212e-01
-6.336239185365549753e-01
-8.537355176638106169e-02
-4.104574927948608232e-01
3.106857847581721010e-01
-1.727692042973647812e-01
-1.082297497058640756e+00
-3.980767983878316096e-01
-8.188300067161637941e-01
-6.451780306828092115e-01
5.107730448858212313e-02
-2.974472825697258016e-01
-2.338011979393977147e-01
-1.070072065339738865e+00
-6.901698070604377344e-01
-8.145974885252873499e-01
-6.948497477949124868e-01
-6.137915351617639903e-02
-6.364382629105566624e-02
-4.306749971201492277e-01
1.006317850955017246e+00
1.635307803218297051e+00
1.330171585892883090e+00
9.815360481581512087e-01
-1.255006852093974445e-01
-1.527536391060707599e-02
-2.742213906619784813e-01
-2.083166400133021900e-01
-2.741397340608947575e-01
1.704406896719188769e+00
-2.954304645007832519e-02
3.645831161600308068e-01
8.189055879649485004e-01
5.391953760375836069e-01
-4.870733799555779786e-01
-1.154895023192704651e+00
-7.215416969756704990e-01
-2.558274571388348129e-01
7.114048442959902685e-01
-8.414777779198191476e-01
-1.985834301972960736e-01
-1.282992549023360407e-01
9.930391685912041133e-01
-4.019193185400428692e-01
-2.746322639884724026e-01
8.128719341817236543e-01
4.300452997078100248e-01
4.198203912372747704e-01
8.031445809436665861e-01
8.235804434144656794e-01
5.030277393193682833e-01
8.526091801539832371e-01
7.592468523255885282e-01
1.387785780031861316e-01
-5.806958323905282437e-01
3.729426827621195040e-01
9.184460970073173025e-02
2.175458197264828197e-01
-2.156224237439030578e-01
5.999874361112560450e-01
4.358008999515250448e-02
4.792396969353854286e-02
1.612031616054869221e-01
1.176322234845591952e+00
9.708862183630112552e-01
-2.054523644639986713e-01
-6.663165980291376744e-01
1.686384271122077783e-01
2.551519764186646611e-01
1.083962148634275702e-01
-8.928533738611171833e-01
2.988994889503997499e-01
-1.469808401668521114e+00
-2.303619716511745574e-01
4.802306122230577679e-02
-1.172180362463121350e-01
-2.479488660160021896e-01
1.155760767190024740e+00
-1.246965564467711340e-01
1.965937068172171065e-01
4.934585322168644206e-01
-3.664479210363794648e-01
3.351591086982239065e-02
-1.703502035242985824e-01
2.076960123919733003e-01
-4.985948290785624515e-02
-3.870175102828621316e-01
-3.372170747929283952e-01
-5.955294262355967927e-01
-7.561614027611254230e-01
-5.924510281985259086e-01
-2.642002512294812089e-01
7.398459730478326168e-01
3.513699454407653855e-01
6.551163755526243637e-01
1.736690031420378422e-01
-3.116196587649880390e-01
2.917649864777395463e-02
-3.152330018735420847e-01
-3.594400472005303548e-01
-5.564035618188918342e-01
-6.516291170377671582e-01
5.838325642125002934e-02
-6.090709462434219512e-01
2.344091548000042935e-01
-9.146297982827844564e-03
2.678651092983567183e-01
-3.481970402808923226e-01
2.222657823351533724e-01
-2.777629431988952458e-02
-1.969231850489323310e-01
-1.387622378000782919e-01
7.897087300255842823e-01
-4.606525371440130245e-02
-2.451122194820200273e-01
-6.095237919258454928e-01
1.410153160811536133e-01
-1.307118658187549631e-01
-1.245278565566496631e-01
-3.787660615280783460e-01
-2.795013490936337219e-01
5.181634469423110900e-01
-1.452604886805275441e-01
-1.783561787685612465e-01
2.556734953313941072e-02
-5.919883833201577961e-01
1.236996949164120008e-01
8.060088247965779829e-01
-3.183733715297510924e-01
4.213282074567523128e-02
1.541788231405413490e-01
8.436713707273872931e-01
-5.234961008229326307e-01
-4.950472273591707273e-01
-1.616387141322124521e-01
-7.019880249620810697e-02
-3.290172707510502503e-01
-3.624054746699156837e-01
-1.920251323346895411e-01
3.059263497705525525e-01
-1.145410920836172075e-01
3.380467122368371879e-01
-1.860724183892235317e-01
9.212047997544251521e-01
3.546452364187140938e-01
1.300343096306572910e-01
7.716577233251297185e-01
-2.483776964920443586e-01
-1.019335251841296253e-01
-1.964395214854461891e-01
-4.398586311265309523e-01
2.272182635972676557e-01
2.055866679328127722e-02
6.977744682984026170e-01
9.446471730547928436e-02
-3.394108845208773095e-01
-8.442487113872340632e-02
3.576386984835707161e-01
-6.408717002624171599e-02
4.953262680993076872e-01
-4.427619644422332856e-02
-1.337619932329522365e-01
2.882000229753677312e-01
-4.442512418910500305e-01
1.390013344154716612e-01
-1.090162995665283907e-01
1.619974536270822330e-01
1.509692776594576125e-02
-4.138798532075197989e-01
-2.677728350994708073e-01
-7.409617961304498790e-02
3.441058895636351367e-01
1.366970352981892733e-01
-9.277585123009790546e-02
2.148293518337460739e-01
-1.904224026000615189e-01
-4.979349223894282139e-01
2.003321178725669394e-01
4.126699008368248101e-02
-1.186114681294461737e-01
-8.415322523422310574e-01
4.390146599717014153e-01
-4.387586007042848513e-02
-1.284210484448708445e-01
1.624718849117483266e-01
2.528996578142295171e-01
-1.424971713930199280e-01
1.937594703618741865e-02
2.600729157791829005e-01
-2.368749368297033975e-01
1.362407252072367347e-01
2.144559310435224797e-01
-3.127389161070894263e-01
4.992094676660607799e-02
-3.468936668878482843e-01
-3.877446875355378131e-01
-4.986250498936395381e-01
-4.542404854100213774e-01
4.744274173370179315e-01
4.913260990069407974e-01
-2.507825044618167132e-01
-1.793690128827127028e-01
3.385642780360417770e-01
4.136441946449340157e-02
-2.304226643955931131e-02
-3.378194485902512034e-01
-1.471093417107519619e-01
-3.302138910151534157e-01
1.911893128689278742e-01
9.242392119385950400e-02
-6.854435633371802616e-02
5.627364975553450499e-02
-8.682201802732955609e-02
1.081308031439907613e-01
-1.608494469636037594e-01
-2.862847864331098391e-01
1.594622449187033109e-01
8.775750823175684778e-02
-5.321613555609489010e-02
-1.427334289404387779e-01
2.035442553675483324e-01
-6.958812187012602957e-02
-1.382032218658051925e-01
3.386081058761064022e-01
-5.776881118897958522e-02
-3.038339671676670850e-02
-6.506886692500732372e-02
-2.226255299872698101e-01
5.214219400017905404e-02
6.965029312289344743e-02
-2.593515128664813929e-02
-7.765654533910515411e-02
4.052894331544454332e-01
-2.630376262989148062e-02
2.210522527238310553e-01
-2.239201230491218997e-01
-3.755014424668977613e-01
4.554826829635252872e-02
1.702106268264497180e-01
-2.024174970320591349e-03
3.113933569709570470e-02
-1.869766487068026950e-01
-1.817953607589517517e-02
-1.317736069313887315e-01
-8.371628775601269723e-03
-4.773473796602789587e-02
-3.835173284379078673e-02
2.223906518827041545e-01
-2.445888261808712993e-01
-7.396226844398373634e-02
9.505030826694355062e-02
-1.100094480233490546e-01
1.523233827414833264e-01
1.344679117052965944e-02
-1.296191723150177944e-01
5.306705261484856440e-03
9.495133812940903528e-02
-2.510430036905997309e-02
5.109413155223951897e-02
2.797406133417662533e-02
-1.985003287951064288e-01
1.101225681259268008e-01
-5.939842067606378173e-02
-3.808638582031287356e-05
1.524244698467276393e-01
9.586555108698546768e-02
-4.330486660896004647e-02
-8.918034304752492369e-02
2.470313052787935504e-02
2.638918884518659524e-02
9.818507237156248735e-02
2.819978017846965779e-01
9.845497000024461265e-03
-1.041549765099675229e-01
-1.570301355995962211e-02
2.757530094088269657e-01
-8.802247055065060000e-02
4.050186096139563041e-02
-4.875019767145788441e-02
1.545889590777799194e-02
-3.044547618487492002e-03
4.935173246684709802e-02
1.024164618756184808e-02
-8.523679702617825704e-02
-3.733482388208830827e-02
-1.720094852466241830e-02
-1.669614207303316000e-02
8.485766504983660585e-02
-8.076539611600097590e-02
-1.123448244552838204e-02
6.963662572675732854e-02
-1.107453868833885302e-02
-6.127774403466945685e-02
1.438350991529668832e-03
3.232301306894097559e-02
-5.385471727650259499e-02
-1.723039695716099828e-02
-4.789983792744412217e-02
5.493341752880964712e-03
3.475180294276225546e-02
4.491187173670652122e-02
3.497075606252963986e-02
1.589611992895556547e-01
-6.255514890374236359e-02
-3.106083336360510039e-02
8.564712862317347408e-02
7.725580950435251282e-02
-6.159239832006591087e-02
5.522160342669302224e-02
-2.618820155264223182e-02
-3.858455738356747489e-02
1.427745622304055217e-02
1.960092964083326450e-02
2.071161497943285745e-02
5.719919200334488973e-03
1.333223927887328131e-02
7.622760306480458325e-05
6.017216719756723897e-02
-2.368391997695606932e-02
-3.294068585634968294e-02
-2.158369136854099146e-02
4.916136232073764489e-04
5.702415020305268145e-02
-3.530194763141847325e-02
-2.285531713988531166e-02
3.667236798045037105e-02
-3.694239508235774849e-03
2.195985401891831224e-02
-9.655894046223245653e-03
1.310969819014218274e-02
6.944958566534875644e-03
-2.600490152166567981e-02
-2.511840295558487313e-02
-1.454310583167162108e-02
9.969612117921577976e-03
-1.198437030832355532e-02
4.389318763686311797e-03
5.702263339811608489e-03
3.273502951447682108e-03
1.105968159835768461e-02
-4.083899989383521500e-03
3.076901438282764190e-02
-1.619910755123488144e-02
-1.718878948210544877e-03
-2.106694204717496355e-02
-3.643040644184303289e-03
-1.160386692263948305e-02
-1.421891393071916809e-06
2.020867006622850681e-03
-8.116040066077800930e-03
1.325256701457888653e-03
4.252048024433463524e-04
-2.945523960418583442e-03
-9.209056743610943840e-03
1.130574680259144316e-02
1.911711109668123854e-02
-9.486698877960719756e-03
1.032859917797424032e-02
6.868065838469661344e-03
9.418128381261325899e-03
-7.885527763374255983e-03
1.681140985084539352e-03
-3.717372051564638014e-03
4.929989531656620017e-02
3.259984288031159139e-02
