-5.633252586462032506e-16
3.778822105474598930e-02
2.951397979606271496e-02
3.107658812208817251e-03
-2.271154427071572605e-03
-9.387531197869462742e-04
4.742519561371617322e-03
3.083888777788909574e-03
6.973123725266043745e-03
-2.564759438767598865e-03
6.392357916126723515e-03
4.036152986817555070e-03
-3.027551514842702612e-03
1.577971095279535624e-03
2.025929579938095799e-04
-4.227626765940259955e-03
1.971408256965104591e-03
-3.206253045022717596e-04
-3.525196005243589497e-04
-6.637073820282122019e-03
-3.222766042235759875e-04
-1.542931465417349615e-03
6.772391288552879291e-04
-5.480908862823589099e-03
3.584020081437835469e-03
-2.995643754617114654e-04
-1.280252386708554020e-03
8.140953622264758202e-03
-1.185046273984750832e-03
2.514473884831665979e-03
-3.163173938113598548e-03
-5.160300199578501772e-03
-1.906418428422428177e-03
-8.774868411514102212e-03
-1.643413980652052089e-02
-1.271122778769348234e-03
8.398965654842620657e-03
-1.162543063474819754e-02
1.349986360894836999e-02
-4.299261957934869850e-03
2.282784239138981042e-02
-1.271076192947925496e-02
9.234027930769571129e-04
1.377087786492537519e-02
2.902157023421649863e-03
-2.215637417283129827e-03
-2.567895295555913324e-02
-8.659008379899342392e-04
5.203969239524422127e-03
-9.321537265586494168e-04
7.932108266195350699e-03
-1.181434938011102082e-02
2.360696053352254534e-02
-7.440094726101137944e-03
-6.362821272217704383e-03
-1.138824242343565787e-02
3.320765852813970312e-03
1.903959574941285759e-02
1.329051311042687413e-03
1.105091512855499447e-02
6.270657159958954729e-02
-7.087652063176869827e-03
-2.724552781719874039e-03
3.219128037849453006e-02
3.683683442873397773e-02
1.251976228104957969e-02
2.282555035564756349e-03
2.840078563828705993e-02
1.697415042672522929e-03
-2.157602880689091923e-02
-1.182433680979220591e-03
1.962959623920674038e-03
1.163615867974544110e-02
-2.704681318938960757e-02
3.701329476826493818e-03
1.962842159038976145e-02
1.587185397090820974e-02
-3.401212360995383571e-02
-1.141976279868372156e-02
1.945702611431066043e-02
-3.793376534959160516e-03
-4.416315056516286093e-03
-5.031147912313110176e-02
2.333562996930235722e-02
1.406855511023657676e-03
9.460847256765568536e-03
7.300940445009264368e-03
-2.405566491794786793e-02
1.777159456404833748e-02
4.977740054249919083e-02
4.716943292155383050e-02
2.054729986702090103e-02
-4.563564422236373458e-02
1.641226734414672275e-02
4.797371890915012177e-02
6.086453337002654257e-02
5.039308345359593683e-02
-7.630091798536230499e-03
-1.919229789903010783e-02
-1.617054570544799660e-02
1.981466867127632328e-02
4.092894813198352105e-02
1.344193097582375290e-02
-2.432052660940525052e-02
9.675165578800630148e-03
-3.313602647380128191e-02
-2.374691815075263140e-02
1.789976260312295744e-02
-2.648758159542765125e-02
2.762078742508536702e-02
-1.519145482121904769e-02
2.329054286667122872e-02
-1.302229211051349894e-02
3.076101708358268752e-02
2.666239907552676869e-02
-2.492124148950580764e-02
-4.919965518059246645e-02
-6.081397144339298344e-02
2.371619651537842932e-02
-1.772967889655325049e-02
-1.131491699122514835e-02
6.938605138464317952e-04
-3.707042174631917930e-02
-5.188718369906263755e-02
-5.410540120685756321e-02
-4.031928553926271766e-03
-1.104175376507292186e-04
9.556786173414981433e-03
-5.609039814247129829e-02
-3.856119170928645062e-02
1.401111432030020289e-03
4.256424784860290272e-02
8.757403169655077202e-02
8.002191804631214600e-02
-6.220809110007151366e-02
2.261358793526679900e-03
3.782353796621792941e-02
1.652096188691590381e-03
-8.086201237805956676e-02
-4.189124998860179611e-02
1.477757832881087911e-02
1.605815598725493162e-02
9.261855127110266150e-02
-6.097691387464936746e-02
-3.863207880580713655e-02
-3.033739233144284314e-02
-4.167267368850878506e-02
-3.943528253656040927e-02
2.673925384736291697e-02
-1.637158101967418899e-02
-4.068049565362738540e-02
-6.960740058282610665e-02
1.851511067853207210e-02
3.971665278244206065e-02
-1.373083190298442745e-02
3.989076985667375230e-02
4.840731777132162295e-02
7.186028949398817062e-03
-6.743690937592446144e-02
-1.074732502477748763e-01
-8.185933453775655344e-02
-2.642759402213514658e-02
-2.242737506863000038e-02
2.364427082763794624e-02
2.642809967770896884e-02
-6.889704195119611407e-02
1.686692817918784837e-01
-4.836775431275217724e-02
2.257097586692240199e-02
-1.671912416464349793e-01
-1.185232124687865818e-01
-1.255451616687669192e-01
-1.243649516066145516e-02
-1.460933011318975572e-01
-3.646076129713389513e-02
8.596655431179699505e-03
-3.368046655423778679e-02
9.474250547292847879e-02
-1.034825144952554732e-01
-3.786096553274123644e-02
1.056767810758901111e-01
-3.173248331544335776e-02
-2.165702746108719764e-03
6.010768336004722323e-02
8.666632526934077430e-02
-1.530962290902212475e-01
-5.038083101879672204e-02
-4.065603798249353695e-02
-7.909429338603794768e-02
2.291341688474123409e-02
8.501397961779498524e-02
9.510738145167051127e-02
-5.780616395784409639e-02
8.605450439562077614e-02
9.398797159617490460e-02
3.384180173740563430e-02
-9.410430604730432580e-02
2.337364734737821734e-02
-6.426780547994744019e-02
1.620246846629040394e-01
1.873719967435889464e-02
-1.247228875498140460e-01
-5.660613482609693631e-03
-9.243308662695676192e-02
1.729126234033295795e-01
-2.124371890322256790e-02
5.206591643290610361e-02
8.140054143738130465e-02
-2.117970199111984808e-02
-3.604139436936366903e-02
-4.815656798117149556e-02
8.886331056673441031e-02
1.204632184177038406e-01
8.051514123958758429e-02
5.157491404396889051e-02
-1.200728530014857735e-02
4.198776363800299505e-02
-1.047815987576281166e-01
4.629915915733550519e-02
2.117999265146428278e-01
1.287360679028862372e-02
5.993343354127313172e-02
3.163203300279233687e-01
5.497306828576335562e-03
1.902374969288658513e-01
2.279852305925391676e-01
-5.910369982972623476e-02
-1.733144971947855884e-01
1.661439035660258398e-02
-1.880976177819485839e-01
3.477198724429274995e-02
3.795688050194823832e-02
-3.476563637824022640e-02
-2.313327526669378131e-01
1.989981496404812089e-01
3.931318530011802537e-01
-1.233507920880733306e-02
-1.146315894701303295e-01
8.644373554751669242e-02
3.892742084131460556e-02
-2.912826364061186710e-02
7.188717200089368708e-02
-1.647570695938014584e-01
5.625738173293558936e-02
1.723891282881999665e-01
-1.435033494517947428e-01
-5.962350627269328435e-02
-8.908346194915936489e-02
1.176704840529882445e-01
1.628422111727792776e-01
-1.152581308804174476e-01
-1.093532399738120914e-02
1.697682352625213371e-03
-1.246795223716477552e-01
4.576937079088712335e-02
-1.053519541321992492e-01
-2.401882920404058500e-02
1.512776252088484374e-01
-1.977152815270675768e-01
8.832216788621516119e-04
-5.033627892493519780e-03
-9.332120640401316350e-03
-3.619566283793763245e-02
6.413506883671268866e-02
-2.043993401678633470e-01
-4.632980925671056210e-02
-1.378373914324253491e-01
-8.737582735549666302e-02
1.415414025265982201e-01
-1.849567387768841775e-01
-1.917582918170811571e-02
8.335993925898564638e-02
2.146793625517742776e-01
1.075439587007256531e-01
-2.984840742981930140e-01
-2.196593401621741160e-01
-2.802556839744169137e-01
-3.883577790787994810e-01
-1.022779797467096713e-01
8.328516920908858590e-02
-1.745767817091974372e-01
-5.106623599024848192e-02
1.390596077667426433e-01
-1.346533598689333977e-01
8.794730610705010776e-02
1.793672921818132981e-01
-2.079704152644799506e-02
-2.911191874324730103e-02
2.277922438747525258e-01
1.015880104281914054e-01
-1.156226192123045379e-02
8.298602833184191840e-02
-1.998798197155139400e-01
-1.265757738168835633e-01
9.776629914797307919e-02
-1.084822303945347510e-01
-1.666474879556583411e-01
9.086674827473376070e-02
9.473890979214671937e-02
-2.295064704209227036e-01
-1.038348644356478084e-01
1.580176121462164573e-01
3.598400885061840970e-01
1.801508104194738114e-01
-4.746657176963828273e-02
1.321448671309160827e-01
1.759654733891601874e-01
-1.359132265361706060e-01
1.999818605242157932e-01
1.661753556408478993e-01
4.960968095405281220e-02
-2.242015510592847150e-01
1.549288171404109883e-02
3.831240613950878671e-01
8.857784264875906421e-02
2.484354913763891226e-01
5.477399555759763228e-01
3.224874019197594421e-01
3.458289682177974611e-01
-8.851099294547591645e-02
1.208040904725574821e-01
-3.030699275200208001e-02
3.784849492559722722e-02
3.190412731259124612e-01
-1.763431159205333665e-01
-2.696182071639677616e-02
-7.482531171574856310e-02
8.209910613831773729e-02
-2.121386475048810671e-01
-7.394365218751321189e-02
-4.207524828709034437e-01
-2.450406053231986570e-01
-5.377840707787313879e-02
5.235646853154976021e-01
-2.986446648004203921e-03
3.149420457482839802e-02
4.723746677309270670e-01
-2.459100292436556257e-01
8.204569465138297768e-02
-1.485386454262933309e-01
-2.929511346171764438e-02
5.176183443748359064e-02
1.577322208408426518e-01
6.486011254435776197e-01
8.417736503476013210e-01
4.788775885704596447e-01
-1.675487714233587500e-01
-2.220759517668589866e-02
1.438664513311754545e-01
7.427758001925471865e-02
-3.820990898564904925e-01
-4.350231527952372335e-01
-3.935114298892430917e-01
-8.043088728229012829e-02
-2.379507865524826682e-01
-1.545422605400535443e-01
-1.680199025870460217e-01
-1.513827203159084644e-01
-2.370979838697163944e-01
-1.683457664719162916e-01
-6.227222051047431178e-02
5.717900332759132120e-02
-1.199192730011845315e-01
1.352988661003880905e-02
-8.768431464807399656e-02
-3.718739904444960942e-01
-2.979451424670353510e-01
-6.748698596374613778e-02
-9.979782898495939691e-02
4.057880561861306606e-02
-8.140263692177959753e-02
-1.710874590565875097e-01
-4.690096184523590700e-02
-6.735592623309660798e-02
7.764724481665784273e-02
-1.086723895398687550e-01
9.474832535762405666e-03
-1.221445445132817720e-01
-1.520130777401375033e-01
-2.079291412451646226e-01
-6.394736698885435111e-02
1.538256532189714032e-01
-9.540341747810483775e-02
-1.173726960688033366e-01
-1.960235517886259882e-01
-1.370774703501336789e-01
-3.370445734691699391e-01
-2.073332989975282814e-01
-3.812284075097014530e-03
-1.513304502536315932e-01
-8.492027161987700246e-02
-2.100429472103352568e-01
-3.071618613292720901e-01
-1.007045132099534529e-01
-1.333818550876468834e-01
-1.355839550996936760e-01
1.191040201208069804e-01
1.426808042695138501e-01
-7.222889006824137481e-02
8.447929592757001324e-03
-1.498188730732132046e-01
1.788394268012356153e-02
3.761832136525303238e-02
-2.759775640047924528e-01
-1.550436732459075373e-01
-3.490973606860947043e-01
-1.658641733490450465e-01
-8.169176740271058557e-02
1.435414239962154170e-01
-1.142094503064625677e-01
9.844361943754426081e-02
-7.278559318726375571e-02
-2.151596427759633057e-01
8.647921911157387120e-02
-2.543689002482761863e-01
1.905625471495178691e-01
9.602854510122343923e-02
4.236807880310845820e-02
1.524153660821438716e-01
3.265760657583345605e-02
-6.339483140739310407e-02
-9.886381111481080952e-03
-3.062141099106829162e-02
1.256888951275284168e-02
-3.484870184120905656e-01
1.694711906927823600e-02
1.147863439992245355e-01
-1.495907255245554346e-01
-1.141520024987602994e-01
-8.237655268835133993e-02
-4.744413795091084740e-02
-2.121450948008657689e-01
1.040942762384191450e-01
-3.674755809232845005e-02
-2.382724005477694085e-01
2.113291419055964362e-02
-4.928124285823284184e-02
2.255721373003560098e-02
-1.239117418529898929e-01
1.417730668456139986e-01
4.065881101381135093e-02
-1.283624626064008289e-01
-2.558885056592113960e-02
-9.848336579233023247e-02
-4.956616478114353463e-02
8.241781384226186391e-02
9.786715386473006373e-02
1.520653377881327206e-02
-1.520328654229679000e-01
3.099433132240254213e-02
2.063173301441306451e-01
-1.285942995068632862e-02
1.158365244696593493e-01
-2.228567028816240067e-02
2.762769901935229963e-02
9.988067308752238138e-02
-2.511123918961903970e-02
4.588722562151408696e-02
2.051265322052240603e-01
-2.596559832434025203e-02
-3.909961226294626779e-02
-1.181327616652481059e-02
2.324811587881638608e-01
1.679283206832887232e-01
7.819387179631007156e-02
-4.581953336623341422e-02
-3.953557258552268389e-02
6.487600700298286338e-02
1.196200081941279081e-01
-7.628571829496029466e-02
-1.673818101617165210e-02
-1.921790721188445031e-02
-8.704649131830603792e-02
-3.732493737135100104e-02
2.485277470208693829e-01
5.312278860555458976e-02
-6.267415482781119040e-02
-2.127263459212307972e-01
1.047326306838485543e-01
-1.130654390846579311e-03
-2.377806714057832949e-01
-1.141183571784559897e-01
-1.136248682765245710e-01
1.657604033937693302e-02
-9.934251710895908305e-02
-8.313085529275546226e-02
9.043491891758953516e-02
2.576656614984213986e-02
-3.565719816616715748e-02
-3.950898050091408015e-02
-9.243995004250560310e-02
8.426920524187786476e-02
1.319030488084109165e-01
-4.880875697778213479e-02
-1.361659932385598792e-01
-1.391397896797000877e-01
-2.193346881734584419e-01
-6.631236899305116561e-02
2.191514078198998350e-01
7.678874267417978849e-02
-1.205704453209018034e-01
1.135253350599076255e-01
1.587989552281816180e-02
-7.629570094346960207e-02
-1.693180038747631047e-03
2.653969280828244806e-02
5.112793748068952815e-02
3.215003550186612546e-01
-7.689794056556932544e-02
1.618620530329588081e-01
3.257850239401968023e-02
-4.372300405130349205e-02
-6.523378038724739758e-01
-4.372300405132023560e-02
3.257850239402144965e-02
1.618620530329270835e-01
-7.689794056557049118e-02
3.215003550186468217e-01
5.112793748069142247e-02
2.653969280827150196e-02
-1.693180038720566542e-03
-7.629570094347984388e-02
1.587989552285320669e-02
1.135253350599361583e-01
-1.205704453208793353e-01
7.678874267420443545e-02
2.191514078199230942e-01
-6.631236899302557497e-02
-2.193346881734543619e-01
-1.391397896796698619e-01
-1.361659932385418936e-01
-4.880875697777050520e-02
1.319030488084383390e-01
8.426920524189022987e-02
-9.243995004250046832e-02
-3.950898050091227603e-02
-3.565719816616030879e-02
2.576656614983895144e-02
9.043491891759282419e-02
-8.313085529275746066e-02
-9.934251710894705101e-02
1.657604033938148841e-02
-1.136248682765115814e-01
-1.141183571784506051e-01
-2.377806714057826010e-01
-1.130654390849764913e-03
1.047326306838585325e-01
-2.127263459212130614e-01
-6.267415482780108738e-02
5.312278860556272908e-02
2.485277470208700767e-01
-3.732493737134313233e-02
-8.704649131830237418e-02
-1.921790721188293069e-02
-1.673818101617348744e-02
-7.628571829495590928e-02
1.196200081941359988e-01
6.487600700298591649e-02
-3.953557258551522458e-02
-4.581953336623292156e-02
7.819387179630568618e-02
1.679283206832844211e-01
2.324811587881593089e-01
-1.181327616652289199e-02
-3.909961226294302039e-02
-2.596559832434118878e-02
2.051265322052138462e-01
4.588722562151715395e-02
-2.511123918962255772e-02
9.988067308752716922e-02
2.762769901935457212e-02
-2.228567028814876227e-02
1.158365244696617918e-01
-1.285942995067055478e-02
2.063173301441335872e-01
3.099433132241079941e-02
-1.520328654229674004e-01
1.520653377880736012e-02
9.786715386473050782e-02
8.241781384225826956e-02
-4.956616478114436730e-02
-9.848336579232447319e-02
-2.558885056591140780e-02
-1.283624626063976926e-01
4.065881101381852575e-02
1.417730668456182730e-01
-1.239117418529840364e-01
2.255721373004693914e-02
-4.928124285822538253e-02
2.113291419055991077e-02
-2.382724005477648566e-01
-3.674755809232290588e-02
1.040942762384246822e-01
-2.121450948008598569e-01
-4.744413795090660080e-02
-8.237655268834793987e-02
-1.141520024987555532e-01
-1.495907255245499390e-01
1.147863439992309886e-01
1.694711906928643777e-02
-3.484870184120895664e-01
1.256888951275541427e-02
-3.062141099106185926e-02
-9.886381111480760028e-03
-6.339483140739343714e-02
3.265760657583298421e-02
1.524153660821459533e-01
4.236807880310784064e-02
9.602854510122413312e-02
1.905625471495169532e-01
-2.543689002482767969e-01
8.647921911156938868e-02
-2.151596427759673302e-01
-7.278559318726222915e-02
9.844361943754267874e-02
-1.142094503064636085e-01
1.435414239962133909e-01
-8.169176740270926718e-02
-1.658641733490390235e-01
-3.490973606860975353e-01
-1.550436732459079814e-01
-2.759775640047926748e-01
3.761832136525200543e-02
1.788394268011855512e-02
-1.498188730732126217e-01
8.447929592748150765e-03
-7.222889006824671776e-02
1.426808042695069945e-01
1.191040201208014293e-01
-1.355839550996880416e-01
-1.333818550876524622e-01
-1.007045132099592261e-01
-3.071618613292811939e-01
-2.100429472103318151e-01
-8.492027161988278949e-02
-1.513304502536215179e-01
-3.812284075100669592e-03
-2.073332989975146534e-01
-3.370445734691698836e-01
-1.370774703501288772e-01
-1.960235517886247392e-01
-1.173726960688036419e-01
-9.540341747810264506e-02
1.538256532189663794e-01
-6.394736698884700976e-02
-2.079291412451685361e-01
-1.520130777401357269e-01
-1.221445445132862684e-01
9.474832535767240341e-03
-1.086723895398664930e-01
7.764724481666565592e-02
-6.735592623308964133e-02
-4.690096184522174472e-02
-1.710874590565764075e-01
-8.140263692176978594e-02
4.057880561861855473e-02
-9.979782898495621890e-02
-6.748698596374037850e-02
-2.979451424670311321e-01
-3.718739904444947619e-01
-8.768431464807432962e-02
1.352988661004284054e-02
-1.199192730011804792e-01
5.717900332760013360e-02
-6.227222051046969048e-02
-1.683457664719164304e-01
-2.370979838697307163e-01
-1.513827203159039403e-01
-1.680199025870342533e-01
-1.545422605400453842e-01
-2.379507865524788657e-01
-8.043088728228851847e-02
-3.935114298892437579e-01
-4.350231527952455601e-01
-3.820990898564887717e-01
7.427758001925657827e-02
1.438664513311750659e-01
-2.220759517668801503e-02
-1.675487714233544478e-01
4.788775885704604773e-01
8.417736503476037635e-01
6.486011254435839479e-01
1.577322208408491189e-01
5.176183443749154262e-02
-2.929511346172222752e-02
-1.485386454262936640e-01
8.204569465137775963e-02
-2.459100292436615098e-01
4.723746677309287878e-01
3.149420457482846047e-02
-2.986446648006600875e-03
5.235646853154845015e-01
-5.377840707787578944e-02
-2.450406053232057346e-01
-4.207524828709206521e-01
-7.394365218751515478e-02
-2.121386475048865905e-01
8.209910613832267778e-02
-7.482531171575051987e-02
-2.696182071639244282e-02
-1.763431159205320620e-01
3.190412731259268941e-01
3.784849492560073136e-02
-3.030699275199627216e-02
1.208040904725576625e-01
-8.851099294547508378e-02
3.458289682177937419e-01
3.224874019197421782e-01
5.477399555759747685e-01
2.484354913763909822e-01
8.857784264875837033e-02
3.831240613950891438e-01
1.549288171405275270e-02
-2.242015510592735017e-01
4.960968095406002865e-02
1.661753556408399057e-01
1.999818605242219549e-01
-1.359132265361631953e-01
1.759654733891696798e-01
1.321448671309179979e-01
-4.746657176963117036e-02
1.801508104194815552e-01
3.598400885061782684e-01
1.580176121462177341e-01
-1.038348644356387462e-01
-2.295064704209129336e-01
9.473890979214018293e-02
9.086674827474509886e-02
-1.666474879556588407e-01
-1.084822303945339739e-01
9.776629914797015097e-02
-1.265757738168874214e-01
-1.998798197155330914e-01
8.298602833184257066e-02
-1.156226192122542830e-02
1.015880104281949858e-01
2.277922438747417566e-01
-2.911191874325333093e-02
-2.079704152644438683e-02
1.793672921818105503e-01
8.794730610704241947e-02
-1.346533598689287903e-01
1.390596077667372310e-01
-5.106623599025281873e-02
-1.745767817092009067e-01
8.328516920907509669e-02
-1.022779797467188584e-01
-3.883577790787952067e-01
-2.802556839744287931e-01
-2.196593401621856345e-01
-2.984840742982020068e-01
1.075439587007175346e-01
2.146793625517669224e-01
8.335993925896514889e-02
-1.917582918173920542e-02
-1.849567387769197324e-01
1.415414025265762377e-01
-8.737582735550560031e-02
-1.378373914324604599e-01
-4.632980925672150474e-02
-2.043993401678959321e-01
6.413506883672419334e-02
-3.619566283798372058e-02
-9.332120640369374887e-03
-5.033627892487710191e-03
8.832216789114734866e-04
-1.977152815270601105e-01
1.512776252088734452e-01
-2.401882920404058500e-02
-1.053519541322173320e-01
4.576937079088141958e-02
-1.246795223716978679e-01
1.697682352620667962e-03
-1.093532399739832912e-02
-1.152581308804253579e-01
1.628422111727904353e-01
1.176704840530186924e-01
-8.908346194917705907e-02
-5.962350627266949088e-02
-1.435033494517651831e-01
1.723891282882373255e-01
5.625738173294006494e-02
-1.647570695937541629e-01
7.188717200091762627e-02
-2.912826364060039017e-02
3.892742084134252073e-02
8.644373554752977917e-02
-1.146315894701043919e-01
-1.233507920879468867e-02
3.931318530012241075e-01
1.989981496405130168e-01
-2.313327526669204659e-01
-3.476563637824236358e-02
3.795688050196108221e-02
3.477198724429320792e-02
-1.880976177819398132e-01
1.661439035662118022e-02
-1.733144971947784552e-01
-5.910369982971818564e-02
2.279852305925565148e-01
1.902374969288780915e-01
5.497306828586652830e-03
3.163203300279328611e-01
5.993343354127816242e-02
1.287360679030139995e-02
2.117999265146526811e-01
4.629915915733875953e-02
-1.047815987576383584e-01
4.198776363800999639e-02
-1.200728530014574108e-02
5.157491404397293588e-02
8.051514123958733449e-02
1.204632184177117649e-01
8.886331056673503481e-02
-4.815656798117384785e-02
-3.604139436936378699e-02
-2.117970199110685847e-02
8.140054143739519632e-02
5.206591643290177374e-02
-2.124371890322634612e-02
1.729126234033407372e-01
-9.243308662695534639e-02
-5.660613482628295938e-03
-1.247228875498173489e-01
1.873719967435608438e-02
1.620246846629050386e-01
-6.426780547993600490e-02
2.337364734738776872e-02
-9.410430604730553317e-02
3.384180173741754838e-02
9.398797159618005326e-02
8.605450439562638276e-02
-5.780616395783531869e-02
9.510738145166861002e-02
8.501397961779810775e-02
2.291341688473624849e-02
-7.909429338603736481e-02
-4.065603798248849238e-02
-5.038083101879015091e-02
-1.530962290902158074e-01
8.666632526934943404e-02
6.010768336004722323e-02
-2.165702746099009649e-03
-3.173248331543521844e-02
1.056767810758957732e-01
-3.786096553272890602e-02
-1.034825144952433579e-01
9.474250547292890900e-02
-3.368046655423553165e-02
8.596655431176550982e-03
-3.646076129712698399e-02
-1.460933011318951702e-01
-1.243649516066096250e-02
-1.255451616687762451e-01
-1.185232124687707611e-01
-1.671912416464340634e-01
2.257097586692639879e-02
-4.836775431275854714e-02
1.686692817918809539e-01
-6.889704195119542018e-02
2.642809967771269156e-02
2.364427082763386964e-02
-2.242737506861751037e-02
-2.642759402213764458e-02
-8.185933453776092494e-02
-1.074732502477769025e-01
-6.743690937591896584e-02
7.186028949394557448e-03
4.840731777132932512e-02
3.989076985667728420e-02
-1.373083190297754060e-02
3.971665278244201902e-02
1.851511067853853915e-02
-6.960740058282040288e-02
-4.068049565362878012e-02
-1.637158101966176491e-02
2.673925384736021774e-02
-3.943528253656020804e-02
-4.167267368851082510e-02
-3.033739233145096165e-02
-3.863207880580881576e-02
-6.097691387465402346e-02
9.261855127110832364e-02
1.605815598724679924e-02
1.477757832880833948e-02
-4.189124998860709742e-02
-8.086201237806436848e-02
1.652096188689965595e-03
3.782353796621235054e-02
2.261358793533582798e-03
-6.220809110009024173e-02
8.002191804633423944e-02
8.757403169654573438e-02
4.256424784861143756e-02
1.401111432021076488e-03
-3.856119170928707512e-02
-5.609039814246830763e-02
9.556786173415841856e-03
-1.104175376472633495e-04
-4.031928553947464015e-03
-5.410540120686874177e-02
-5.188718369905678807e-02
-3.707042174629734954e-02
6.938605138685791183e-04
-1.131491699122259137e-02
-1.772967889654478157e-02
2.371619651538751927e-02
-6.081397144337472027e-02
-4.919965518058270343e-02
-2.492124148950365659e-02
2.666239907554704067e-02
3.076101708359334913e-02
-1.302229211050221803e-02
2.329054286669287113e-02
-1.519145482122091079e-02
2.762078742509993870e-02
-2.648758159542038276e-02
1.789976260313604073e-02
-2.374691815074918624e-02
-3.313602647379574467e-02
9.675165578795968946e-03
-2.432052660938969005e-02
1.344193097582893105e-02
4.092894813197241188e-02
1.981466867127809617e-02
-1.617054570544091199e-02
-1.919229789902578143e-02
-7.630091798530455605e-03
5.039308345359489599e-02
6.086453337002555031e-02
4.797371890915487491e-02
1.641226734414371821e-02
-4.563564422236450480e-02
2.054729986704204731e-02
4.716943292156736134e-02
4.977740054252061119e-02
1.777159456406647575e-02
-2.405566491795362374e-02
7.300940445018134009e-03
9.460847256758901994e-03
1.406855511015037618e-03
2.333562996931312292e-02
-5.031147912312444043e-02
-4.416315056527828076e-03
-3.793376534959844431e-03
1.945702611431524356e-02
-1.141976279868156183e-02
-3.401212360998611545e-02
1.587185397089272212e-02
1.962842159037429465e-02
3.701329476826485144e-03
-2.704681318940635459e-02
1.163615867971768379e-02
1.962959623916796931e-03
-1.182433680949032716e-03
-2.157602880688674202e-02
1.697415042649071202e-03
2.840078563826831104e-02
2.282555035541425185e-03
1.251976228103871512e-02
3.683683442873479652e-02
3.219128037848159596e-02
-2.724552781713034024e-03
-7.087652063187638123e-03
6.270657159959830418e-02
1.105091512853197122e-02
1.329051311047074095e-03
1.903959574935192370e-02
3.320765852820610833e-03
-1.138824242343057687e-02
-6.362821272201191550e-03
-7.440094726099300872e-03
2.360696053351797954e-02
-1.181434938008387760e-02
7.932108266194542318e-03
-9.321537265572612044e-04
5.203969239547252823e-03
-8.659008380084762648e-04
-2.567895295557877378e-02
-2.215637417289076459e-03
2.902157023399035141e-03
1.377087786493260725e-02
9.234027930847679222e-04
-1.271076192949918172e-02
2.282784239140642907e-02
-4.299261957961894240e-03
1.349986360895832384e-02
-1.162543063472070218e-02
8.398965654836982805e-03
-1.271122778799863321e-03
-1.643413980653185558e-02
-8.774868411497896425e-03
-1.906418428414541474e-03
-5.160300199583183790e-03
-3.163173938119736000e-03
2.514473884827425881e-03
-1.185046274017833743e-03
8.140953622271136780e-03
-1.280252386731908385e-03
-2.995643754945276089e-04
3.584020081419220585e-03
-5.480908862799114753e-03
6.772391288994083439e-04
-1.542931465396241934e-03
-3.222766042898988028e-04
-6.637073820372504582e-03
-3.525196005179507186e-04
-3.206253045098583017e-04
1.971408256972427293e-03
-4.227626765916733635e-03
2.025929580386782026e-04
1.577971095338247774e-03
-3.027551514846526810e-03
4.036152986807753015e-03
6.392357916128448697e-03
-2.564759438772048431e-03
6.973123725291780102e-03
3.083888777757865830e-03
4.742519561351693155e-03
-9.387531197585178427e-04
-2.271154427083274616e-03
3.107658812283926007e-03
2.951397979614618639e-02
3.778822105481833421e-02
