1.016831140793730270e-01
3.536965540255021523e-02
4.276320928529742105e-02
2.930060647399201912e-03
1.281721868100049733e-03
-4.864610216372966534e-03
8.733411191771622839e-03
7.971778239290294721e-03
9.912479245007155271e-03
-9.977434391206685405e-03
1.493870825513088363e-02
1.115726795081073419e-02
-3.048091615777792640e-03
-3.496091974099613253e-03
-9.297337736153821197e-03
4.077145142034055425e-03
-2.969234399362807864e-03
1.887830121530154059e-03
-5.988713513094268137e-03
-6.536435004973029095e-03
2.316190243075944011e-03
-1.698723421836412228e-02
-4.763615875337023908e-03
-1.188775222144755617e-02
1.437366404629880634e-02
3.622091842009567131e-03
4.867866232665107873e-04
8.553250497646658346e-03
-9.869317352890760731e-04
2.968879308154370733e-03
-8.905528362140868737e-03
9.480646914351353871e-03
-9.761869317996385575e-03
-2.669273481271794424e-02
-3.820315964397358321e-02
4.102824596242449218e-03
2.636102902878789678e-02
-2.064828835456644640e-02
2.565055613261968404e-02
-6.275733872742605968e-04
3.482341624757445686e-02
-7.003845733146718544e-03
2.345280991426612616e-03
4.848308395632106027e-02
1.867058814720934379e-03
-2.024331256870492979e-02
-2.953320785850621633e-02
-1.987777512627442178e-02
4.275595501531359588e-02
-1.982363714737234162e-02
-2.133487792188493160e-02
-2.628555256041753552e-02
6.869237347667933591e-02
-2.182110218595578743e-02
1.580089450285093733e-02
-3.142590773826547945e-02
-2.687714547927155806e-03
4.430136969658038382e-02
-1.110628144987879651e-02
5.414259125362352876e-02
1.118167876122344584e-01
-6.431778710196889293e-02
-5.217732698396315705e-02
1.491157745054516592e-01
-1.138429323074729993e-03
5.436866298411363596e-02
1.205110508835072203e-02
9.449324119601376637e-02
-7.014153603174388962e-02
-3.742090729840752417e-02
-6.618264397637485530e-02
7.328307245695775407e-02
7.084108909176878299e-03
-7.164686086645688512e-02
-2.341509339216174546e-03
3.843101075534782751e-02
1.344737432726317294e-02
-4.430290162776095997e-02
6.050551867321685151e-02
1.915983566671086713e-02
-2.428568988349022462e-02
-8.462608367098667372e-03
-1.391688711837804071e-01
3.631108956819406597e-02
3.226272587855238960e-02
7.346199884448623152e-03
-1.740531451818916331e-02
-4.344815588303330145e-02
2.874183131439633776e-02
-5.761900140973041928e-02
2.301161416166452867e-01
-9.528668640011450641e-04
-1.132718026839798497e-01
4.777036396217904102e-02
2.251432692942098857e-01
5.938961298972256220e-02
7.320150070228614858e-02
-2.761857937090272941e-04
-2.698314732601625465e-02
-3.577881740527588672e-02
1.409261712295840629e-01
1.944739155956483057e-01
3.540045448003459327e-03
-1.079984785804183889e-01
7.367319482285730747e-02
-1.077752608578728122e-01
1.182340632071344766e-01
6.480063264588764582e-02
-1.797221148572508698e-01
1.189396910682147812e-01
2.214345258367345082e-02
-1.382755440555715198e-01
8.291394825584808004e-02
9.036894683522489480e-02
-1.517191620301059363e-01
1.343160861607929357e-01
-1.425776529486781907e-01
-1.607005302974795491e-01
1.828240878803979452e-01
6.628807791825841456e-03
-1.914971354423259386e-01
4.284303386062515706e-02
-7.104811986307021932e-02
-1.451478308918726645e-01
-2.464375866864065845e-01
2.593750069061140362e-02
3.210322456144054648e-02
1.176500270763384259e-01
-7.450663160563597565e-02
-3.212575704188049830e-01
-1.641918897230540964e-01
3.055624359760289455e-01
3.635603994969721642e-02
4.310308284883113128e-01
3.203943770865746998e-03
-6.062692787673926165e-02
2.275052350454909167e-02
7.763539647534323240e-02
-2.204063389420121144e-01
-1.770177316926467015e-01
-1.087795501794291964e-02
-6.181597526678883625e-02
4.310190810232938929e-01
-1.241448240025488370e-01
-7.962166171037587947e-02
1.131308878232445414e-01
-1.757553467994765750e-01
3.378453803276970646e-02
-5.034784040587136911e-02
1.542508348640947435e-01
-1.836278714414197877e-01
-1.403986380019011104e-01
6.598963427188808684e-02
-1.392080167450344685e-01
4.609600827913851173e-02
-1.129932858588173494e-01
2.744915189771326425e-01
2.195826755308978306e-01
-4.722392704496625737e-01
-3.001557144716160419e-01
-6.060368575188523899e-02
2.044552040765909018e-01
-1.053038391491755155e-01
4.745820816423492738e-01
-1.698402903049389678e-01
-1.526095243900496001e-01
3.470843403773158364e-01
1.161477891261383233e-01
-3.632314441323510890e-01
-7.161348857971410187e-01
-2.801877869530370324e-01
-2.135759413830941034e-01
-3.255474912410549759e-02
-4.311133985368170718e-01
1.945360547101317727e-01
1.119813652661545422e-01
-4.458762943100506027e-01
2.352121242697913783e-01
1.006185561416562679e-01
-2.111510980198810783e-01
2.382649001547063050e-01
2.505794412232226764e-01
-1.730037455653189171e-01
3.872214491513104040e-02
3.922716575609763168e-01
-8.243451685387934713e-01
6.089073175952569583e-02
-1.198469678106856562e-01
3.781015578238272612e-01
-4.721582391879805551e-01
-1.583055022826418690e-01
1.139186813206984339e-01
-2.404002605772874723e-01
4.610314634587718285e-01
3.261254747250413866e-01
-8.244386950313464801e-02
-2.905930476142666863e-01
-5.818828959848447724e-01
1.722444812725523189e-01
1.137903323889194462e-01
-3.199502378409257441e-01
8.082202950476657932e-02
-4.908802445754357757e-01
4.889735713244517390e-01
-2.563688328061500821e-01
-1.666402828392992697e-01
9.236568922873629184e-01
2.171937167794352197e-01
-3.203298886340077978e-03
-1.361560633631677120e-01
-4.063360008577461269e-01
-1.490034029938828997e-01
7.472241946709575755e-01
1.171063674165436497e-01
1.296771706717410322e-01
-5.217227887028774713e-01
-1.766542304541599273e-01
-3.123593397601742705e-01
-5.933335898402661290e-02
9.204544335371135366e-01
3.418670745917548603e-02
3.313706765082593542e-01
1.280846237917986796e+00
-3.794394561267730448e-01
4.687361066672639520e-01
6.963202388255559927e-02
1.835269532334297682e-01
-2.622161130376253757e-01
-2.842313522159687911e-01
-3.154872244915439272e-01
-9.873174410031382298e-03
-2.428806441862313148e-01
-2.654083340370886890e-01
-5.854916543213424251e-01
4.784118832211140537e-01
5.285969336459422907e-02
2.202459811195603412e-02
-2.235317617576050853e-01
7.595055687517935361e-01
3.632089828721656866e-01
-5.992126401316019146e-01
-2.352408244868223197e-03
-1.912586414488867681e-03
-4.069223586710975504e-01
3.496922317550256176e-01
-1.116226963197569089e-01
-5.576185420976884632e-01
-3.024885942970602093e-01
-2.958105297235767428e-01
2.289042569409349692e-01
-5.169480491213657158e-01
6.530419534271994508e-02
6.921922507495072152e-02
8.030403448771457064e-01
5.360510256298618020e-02
-4.213564024611385905e-01
9.445892744033940192e-02
5.395745850372363206e-01
-2.591126391308877785e-01
3.324148831176401697e-02
-6.646505545613885790e-02
3.186808925367072831e-01
-8.069766786451124663e-01
-3.604566616844542271e-01
-1.186089160994621694e-01
-8.530841355190601494e-01
-9.301275189751770367e-02
-1.456361347662384065e-01
-7.549995244149068641e-02
-3.364149198027750476e-01
2.781446754975983038e-02
4.509861538674285741e-01
4.993410674576723163e-01
6.554159192414581447e-01
-4.716784933424876258e-01
-5.848506266623606509e-01
-7.778250738990757363e-01
-7.346175056340402687e-01
-1.102736145509140842e-01
-2.768443944446199456e-01
2.070397745081303531e-01
1.190572065926373130e-01
-9.517938686817453697e-03
-1.741293095008880076e-01
-3.728530118712753971e-01
3.678476640526913144e-01
2.402435357447573194e-01
-5.287180098028838870e-02
9.792597869189784143e-01
-7.078347688993530396e-02
-2.196374573487816229e-01
-4.329163692050602003e-02
-5.851400680354921224e-01
-1.026920090475671010e+00
2.654256300265640522e-01
-7.845107729129825458e-01
8.138060338986009834e-02
4.394530040058169940e-01
3.427132151255702919e-01
-2.659515757580958040e-01
-3.172000394141442914e-02
7.220343264773969594e-01
1.037890966664023029e+00
3.669931237235241062e-01
-2.101559545833329434e-01
-1.948630357152976167e-01
5.485532507328273466e-01
-4.294209180067267567e-02
2.160247579958093911e-01
1.309990952855619450e-01
1.522026580899759896e-01
-4.386643637327001799e-01
-2.960088137164633704e-01
9.378878228063085576e-01
8.692041717639462650e-01
7.727078451221970345e-01
9.067026992528036677e-01
8.421101561661475943e-01
1.048695503996462941e-01
1.289292109839196843e-01
5.243979755029489764e-01
-2.945727189721143446e-01
-2.778224858102682493e-01
8.168037143892761254e-01
1.536851307103046238e-01
-2.441836575803148779e-01
-8.330013688692482487e-01
5.405020989324432756e-01
-2.325484887844234683e-01
-6.041038656451944711e-01
-4.744522084159560893e-01
-3.463007537797962998e-01
3.170048171958764760e-01
6.992066017064011429e-01
2.062109332971136799e-01
2.454133825028941562e-01
1.945717533867180826e+00
-4.077568479583956740e-01
-6.651809042440405273e-01
-2.759036672958579128e-01
7.567171320568932824e-02
-1.779429534185702488e-01
9.219953087254488810e-01
1.486786383014113699e+00
1.575593767679027035e+00
8.887924826657206401e-01
-6.587799314395869077e-01
6.612929410366073790e-02
-2.433587314523122103e-01
-3.963858447155953479e-01
-5.410478762480246395e-01
-6.793624972137614071e-01
-8.495075967755564283e-01
-1.064090096660593177e-01
-2.257028856836382769e-01
-3.086034146002377687e-01
-6.275136321797001315e-01
-6.966685947438879811e-01
-4.983458924489994057e-01
-6.742215979862840047e-01
-9.733173678986237198e-02
1.297190642184596621e-01
-5.133060412315915144e-01
-1.213872669378804892e-01
-5.124928573053409986e-01
-1.051016633962651214e+00
-8.228515109095319024e-01
-3.710891741196388205e-01
1.761591169870521112e-01
-3.271307230222437745e-01
-3.715700416852479870e-01
-9.216301107095148382e-03
9.099706805717155955e-02
-1.415634533331854572e-01
4.998243013464833545e-02
4.650362346595052765e-01
-2.240549672772809142e-01
4.100323315637326438e-01
-6.719872695829041120e-01
-5.309699234179612315e-01
1.390517334370726388e-01
1.913826704620502916e-01
-3.043602404988381971e-01
1.121000004458026084e-01
3.048828852293413716e-01
-3.567308689207402406e-01
4.385927347473968507e-01
-5.937592953597566892e-01
-5.368437574998732864e-02
-7.499257808999836294e-01
3.556289787824586379e-01
-5.533925485786489462e-02
-4.059701966165567555e-01
9.403487437843754959e-02
-3.655644038374601668e-02
-3.079816931822036419e-01
4.947573545119936522e-01
-1.779026818966684687e-01
-1.826806678943901641e-01
3.562484865677389423e-01
-2.298672717419591172e-01
-6.074545478247902475e-01
4.665715093447330153e-01
-2.282639483005496905e-01
-3.335006692723611055e-01
-6.043792794365728804e-01
-1.416708701741816179e-01
-2.412865535946744355e-01
1.637983959346249740e-01
-1.900025937287175004e-01
-2.516429116850181502e-02
-3.291645558567345975e-01
-6.871235319242914308e-01
2.328260476897722753e-01
-1.586903937073093074e-01
3.893402539304125498e-01
-6.209536864177838539e-02
-3.049964433622301963e-01
3.767385156482313535e-01
4.384813314048656430e-02
-1.554405921193731110e-01
-4.288832023873957039e-02
-7.786551828500436478e-01
-4.355143332209152063e-01
-3.618452537978968375e-01
3.682441712389971089e-01
-2.914186419594171906e-01
-1.812119422921118772e-01
-4.829554828689970325e-01
1.552044592908846318e-02
4.158207233693735905e-01
-6.035250434067829239e-01
-7.454504371956900688e-02
3.572512694971125002e-01
-6.095981637693024396e-02
-5.102004458293259992e-01
-2.853291106602212635e-01
-3.949156351446432289e-01
8.221089010623196247e-02
4.125909355691287916e-01
2.600021775343317465e-01
1.788610615764261724e-01
-4.439460115343661362e-01
-1.299543716987761610e-01
4.502697083174226345e-01
2.964007362578302551e-01
9.109178642793346048e-02
-3.707953260055064093e-01
-1.810272313045509784e-01
3.604975175935435927e-01
6.138009199975597019e-01
-6.865808173909663248e-01
1.496164619030040666e-01
-2.812530769950803977e-01
2.888125417624748392e-02
-2.376648950625856183e-01
-2.384003640676431723e-01
1.679628511390335588e-01
7.145872536850170764e-01
1.288569536006081151e-01
-4.926562189769915223e-01
1.670643078252976310e-01
-1.815744395957668567e-01
2.447498340518849957e-01
4.788737484641715225e-01
-2.292520135235114331e-01
2.108437747841993837e-01
8.022732354302162250e-01
2.225657643135793562e-01
1.596924896961990081e-01
-4.782782037381563822e-01
-2.669745397626757666e-01
-6.090890937352662071e-01
-1.790131008120977585e-01
7.476449666133648808e-01
1.738807214991349714e-01
4.339327137790508493e-01
-7.839610026011296640e-01
-1.836859241672575138e-01
3.508247158539995469e-01
-2.957128707204221829e-01
2.132346106834282773e-01
-3.851759021900165170e-01
6.844736350287419224e-01
1.784555594662861899e-01
-3.205279106592406890e-01
-8.017386549242604132e-02
1.445268811682953736e-01
3.524398648433491599e-01
3.173864592944378171e-01
-9.708271180350187823e-02
-3.982167977476334664e-01
-2.512725122529753663e-01
-1.955044783481312276e-01
-2.342135512182967616e-01
-5.664058088357190601e-02
-6.783794884979313933e-01
-3.494788446304323282e-01
6.038965254638694047e-01
1.129132410462193176e-01
-8.968689116295378017e-02
3.969527000299126751e-01
5.564406158673445429e-02
3.663624320677192903e-01
2.437688868613398230e-01
3.630551193195056259e-01
1.008712795505062876e-01
2.343826489958979464e-01
4.116466052381041740e-02
2.922235238974970062e-01
-6.595757832953349359e-03
-5.918057934810138504e-02
-1.241179445373574941e+00
-5.918057934814926341e-02
-6.595757833007417220e-03
2.922235238973469040e-01
4.116466052405995391e-02
2.343826489958020509e-01
1.008712795507313020e-01
3.630551193194785364e-01
2.437688868615159599e-01
3.663624320676001078e-01
5.564406158701475785e-02
3.969527000301518171e-01
-8.968689116289443874e-02
1.129132410463079689e-01
6.038965254638976043e-01
-3.494788446301609897e-01
-6.783794884977368822e-01
-5.664058088350484854e-02
-2.342135512182365042e-01
-1.955044783480574533e-01
-2.512725122529018140e-01
-3.982167977475040699e-01
-9.708271180348894414e-02
3.173864592944631302e-01
3.524398648432786052e-01
1.445268811683472765e-01
-8.017386549236740767e-02
-3.205279106592294758e-01
1.784555594663402855e-01
6.844736350288116444e-01
-3.851759021900089119e-01
2.132346106834560884e-01
-2.957128707203913742e-01
3.508247158540115374e-01
-1.836859241672689491e-01
-7.839610026010491728e-01
4.339327137791137989e-01
1.738807214991502370e-01
7.476449666133931915e-01
-1.790131008120969813e-01
-6.090890937351912671e-01
-2.669745397626082095e-01
-4.782782037381380635e-01
1.596924896962312879e-01
2.225657643135517949e-01
8.022732354302857249e-01
2.108437747842142329e-01
-2.292520135235065482e-01
4.788737484641362729e-01
2.447498340517945681e-01
-1.815744395957599733e-01
1.670643078253166158e-01
-4.926562189769174704e-01
1.288569536005890748e-01
7.145872536850038648e-01
1.679628511391549617e-01
-2.384003640676317648e-01
-2.376648950625308565e-01
2.888125417624951702e-02
-2.812530769949988518e-01
1.496164619029647369e-01
-6.865808173909309087e-01
6.138009199975313912e-01
3.604975175935897780e-01
-1.810272313045455106e-01
-3.707953260055068534e-01
9.109178642794034386e-02
2.964007362578200966e-01
4.502697083173992088e-01
-1.299543716987192066e-01
-4.439460115342809265e-01
1.788610615764145984e-01
2.600021775343420161e-01
4.125909355691366187e-01
8.221089010629936689e-02
-3.949156351445728408e-01
-2.853291106601810734e-01
-5.102004458293443179e-01
-6.095981637688024923e-02
3.572512694972055924e-01
-7.454504371954116804e-02
-6.035250434067703784e-01
4.158207233693610450e-01
1.552044592911680509e-02
-4.829554828689885393e-01
-1.812119422920938638e-01
-2.914186419593504662e-01
3.682441712390254196e-01
-3.618452537979105488e-01
-4.355143332208813445e-01
-7.786551828500337669e-01
-4.288832023874156879e-02
-1.554405921193268147e-01
4.384813314051990568e-02
3.767385156482636055e-01
-3.049964433622499582e-01
-6.209536864178343690e-02
3.893402539304204879e-01
-1.586903937072877968e-01
2.328260476898011966e-01
-6.871235319242643413e-01
-3.291645558567495300e-01
-2.516429116847916647e-02
-1.900025937286638766e-01
1.637983959346696328e-01
-2.412865535946733808e-01
-1.416708701741462573e-01
-6.043792794365394627e-01
-3.335006692723540556e-01
-2.282639483005647618e-01
4.665715093447748152e-01
-6.074545478247872499e-01
-2.298672717419780742e-01
3.562484865677247314e-01
-1.826806678943750373e-01
-1.779026818967668899e-01
4.947573545119873240e-01
-3.079816931822313419e-01
-3.655644038379610161e-02
9.403487437843657815e-02
-4.059701966166215370e-01
-5.533925485784055298e-02
3.556289787824015725e-01
-7.499257808998966990e-01
-5.368437575006922147e-02
-5.937592953597093937e-01
4.385927347473991267e-01
-3.567308689206890593e-01
3.048828852293468117e-01
1.121000004458297256e-01
-3.043602404988632881e-01
1.913826704620707753e-01
1.390517334370741098e-01
-5.309699234180149663e-01
-6.719872695828258413e-01
4.100323315636921206e-01
-2.240549672772723655e-01
4.650362346594493768e-01
4.998243013466603657e-02
-1.415634533331388001e-01
9.099706805718460467e-02
-9.216301107074595378e-03
-3.715700416852182331e-01
-3.271307230221730533e-01
1.761591169870802276e-01
-3.710891741196245541e-01
-8.228515109094778346e-01
-1.051016633962643665e+00
-5.124928573053422198e-01
-1.213872669378595059e-01
-5.133060412316534649e-01
1.297190642185313270e-01
-9.733173678985800048e-02
-6.742215979863042108e-01
-4.983458924490280495e-01
-6.966685947439046345e-01
-6.275136321797282202e-01
-3.086034146002283318e-01
-2.257028856836300890e-01
-1.064090096660727514e-01
-8.495075967755750801e-01
-6.793624972138044837e-01
-5.410478762480684933e-01
-3.963858447155541032e-01
-2.433587314522957512e-01
6.612929410366454042e-02
-6.587799314396306505e-01
8.887924826657384036e-01
1.575593767679007939e+00
1.486786383014132129e+00
9.219953087254264545e-01
-1.779429534184937267e-01
7.567171320565987958e-02
-2.759036672958641301e-01
-6.651809042440597342e-01
-4.077568479583967842e-01
1.945717533867145077e+00
2.454133825028495808e-01
2.062109332971688858e-01
6.992066017064364480e-01
3.170048171958287919e-01
-3.463007537798488689e-01
-4.744522084159293329e-01
-6.041038656451700462e-01
-2.325484887845096771e-01
5.405020989325669545e-01
-8.330013688692821106e-01
-2.441836575802624199e-01
1.536851307102427289e-01
8.168037143893064345e-01
-2.778224858102922856e-01
-2.945727189720702688e-01
5.243979755029553047e-01
1.289292109838573175e-01
1.048695503996679712e-01
8.421101561661017421e-01
9.067026992527706941e-01
7.727078451222616495e-01
8.692041717639265030e-01
9.378878228063494138e-01
-2.960088137164032518e-01
-4.386643637327299339e-01
1.522026580900486814e-01
1.309990952855578095e-01
2.160247579957983721e-01
-4.294209180068143950e-02
5.485532507327851581e-01
-1.948630357152496273e-01
-2.101559545832916709e-01
3.669931237235588561e-01
1.037890966664029246e+00
7.220343264773999570e-01
-3.172000394137138024e-02
-2.659515757581302764e-01
3.427132151255373183e-01
4.394530040058505227e-01
8.138060338982375241e-02
-7.845107729129190410e-01
2.654256300265794288e-01
-1.026920090475697211e+00
-5.851400680355245409e-01
-4.329163692054153328e-02
-2.196374573487650805e-01
-7.078347688990263564e-02
9.792597869189333393e-01
-5.287180098029324593e-02
2.402435357447292863e-01
3.678476640526863739e-01
-3.728530118712780062e-01
-1.741293095009041891e-01
-9.517938686822255412e-03
1.190572065925399603e-01
2.070397745081729302e-01
-2.768443944446673521e-01
-1.102736145510359311e-01
-7.346175056340653597e-01
-7.778250738991816515e-01
-5.848506266624072802e-01
-4.716784933424742476e-01
6.554159192414260593e-01
4.993410674576087560e-01
4.509861538671885439e-01
2.781446754969227331e-02
-3.364149198028608678e-01
-7.549995244155432994e-02
-1.456361347663199246e-01
-9.301275189757959860e-02
-8.530841355189956454e-01
-1.186089160996760261e-01
-3.604566616842991289e-01
-8.069766786452136076e-01
3.186808925369409851e-01
-6.646505545641674673e-02
3.324148831184647879e-02
-2.591126391308229415e-01
5.395745850372390962e-01
9.445892744033940192e-02
-4.213564024611974324e-01
5.360510256302070814e-02
8.030403448769120045e-01
6.921922507496428012e-02
6.530419534292672412e-02
-5.169480491216469353e-01
2.289042569408157313e-01
-2.958105297232858089e-01
-3.024885942975049091e-01
-5.576185420974925089e-01
-1.116226963195651456e-01
3.496922317551600656e-01
-4.069223586710495333e-01
-1.912586414400958834e-03
-2.352408244713680152e-03
-5.992126401314634698e-01
3.632089828722661062e-01
7.595055687518501575e-01
-2.235317617574856808e-01
2.202459811197168826e-02
5.285969336462348345e-02
4.784118832212372330e-01
-5.854916543212157487e-01
-2.654083340370800292e-01
-2.428806441862110532e-01
-9.873174409986834599e-03
-3.154872244913973223e-01
-2.842313522159012340e-01
-2.622161130376373106e-01
1.835269532334323495e-01
6.963202388256191366e-02
4.687361066672527943e-01
-3.794394561268148447e-01
1.280846237918022101e+00
3.313706765083026529e-01
3.418670745930160737e-02
9.204544335370636876e-01
-5.933335898405167619e-02
-3.123593397601960864e-01
-1.766542304541572350e-01
-5.217227887028917932e-01
1.296771706717258221e-01
1.171063674165311874e-01
7.472241946709796689e-01
-1.490034029938955562e-01
-4.063360008577238669e-01
-1.361560633631670458e-01
-3.203298886306771287e-03
2.171937167794029122e-01
9.236568922873522602e-01
-1.666402828393399593e-01
-2.563688328060726995e-01
4.889735713244288684e-01
-4.908802445754672505e-01
8.082202950487801796e-02
-3.199502378408721204e-01
1.137903323889735141e-01
1.722444812726217633e-01
-5.818828959848232341e-01
-2.905930476142479790e-01
-8.244386950313420392e-02
3.261254747250464936e-01
4.610314634587901472e-01
-2.404002605772740386e-01
1.139186813207104798e-01
-1.583055022826009850e-01
-4.721582391881238294e-01
3.781015578238065000e-01
-1.198469678105763547e-01
6.089073175964887508e-02
-8.243451685388316630e-01
3.922716575610403211e-01
3.872214491511899448e-02
-1.730037455652503608e-01
2.505794412232925095e-01
2.382649001547373357e-01
-2.111510980198492704e-01
1.006185561416976793e-01
2.352121242698168579e-01
-4.458762943100440523e-01
1.119813652661632020e-01
1.945360547101265825e-01
-4.311133985367809895e-01
-3.255474912404415777e-02
-2.135759413830539688e-01
-2.801877869529070253e-01
-7.161348857971698845e-01
-3.632314441324406840e-01
1.161477891261324391e-01
3.470843403772223557e-01
-1.526095243900515985e-01
-1.698402903049716084e-01
4.745820816423459432e-01
-1.053038391491301073e-01
2.044552040766015599e-01
-6.060368575186281248e-02
-3.001557144715956138e-01
-4.722392704496696791e-01
2.195826755308730727e-01
2.744915189770267272e-01
-1.129932858588573175e-01
4.609600827906096265e-02
-1.392080167450948647e-01
6.598963427197224174e-02
-1.403986380019706104e-01
-1.836278714415174873e-01
1.542508348641361549e-01
-5.034784040587936271e-02
3.378453803282754908e-02
-1.757553467995232044e-01
1.131308878231931381e-01
-7.962166171045370611e-02
-1.241448240025804228e-01
4.310190810233572867e-01
-6.181597526692139688e-02
-1.087795501794081021e-02
-1.770177316926712097e-01
-2.204063389420484187e-01
7.763539647541672917e-02
2.275052350456163719e-02
-6.062692787671161709e-02
3.203943770922479395e-03
4.310308284884036834e-01
3.635603994965919128e-02
3.055624359760525932e-01
-1.641918897231281482e-01
-3.212575704187594638e-01
-7.450663160559573006e-02
1.176500270763218836e-01
3.210322456127490121e-02
2.593750069050992924e-02
-2.464375866863945941e-01
-1.451478308917895088e-01
-7.104811986292816628e-02
4.284303386054011398e-02
-1.914971354422654315e-01
6.628807791978275077e-03
1.828240878805345027e-01
-1.607005302974364724e-01
-1.425776529484897859e-01
1.343160861608966306e-01
-1.517191620299653820e-01
9.036894683542162632e-02
8.291394825592135476e-02
-1.382755440555674120e-01
2.214345258364991409e-02
1.189396910682740671e-01
-1.797221148573721061e-01
6.480063264605706586e-02
1.182340632071839925e-01
-1.077752608577129401e-01
7.367319482288570143e-02
-1.079984785804015690e-01
3.540045447923523270e-03
1.944739155956738408e-01
1.409261712295603042e-01
-3.577881740524979648e-02
-2.698314732595874510e-02
-2.761857935055234137e-04
7.320150070228492734e-02
5.938961298972500469e-02
2.251432692942716418e-01
4.777036396212364089e-02
-1.132718026840526804e-01
-9.528668640915727295e-04
2.301161416166841445e-01
-5.761900140985209973e-02
2.874183131433394323e-02
-4.344815588291028874e-02
-1.740531451824522957e-02
7.346199884613380249e-03
3.226272587842382578e-02
3.631108956819817379e-02
-1.391688711840219916e-01
-8.462608367217683281e-03
-2.428568988372648008e-02
1.915983566668288951e-02
6.050551867320930199e-02
-4.430290162778582896e-02
1.344737432708287272e-02
3.843101075500232611e-02
-2.341509339316538707e-03
-7.164686086650262631e-02
7.084108909130026888e-03
7.328307245698084671e-02
-6.618264397619455508e-02
-3.742090729819125272e-02
-7.014153603174055895e-02
9.449324119572377612e-02
1.205110508831386262e-02
5.436866298427278643e-02
-1.138429323080170086e-03
1.491157745053246497e-01
-5.217732698386434720e-02
-6.431778710248670095e-02
1.118167876121987092e-01
5.414259125366882586e-02
-1.110628144966230302e-02
4.430136969617315401e-02
-2.687714547946029597e-03
-3.142590773843068064e-02
1.580089450305521837e-02
-2.182110218529498269e-02
6.869237347687828787e-02
-2.628555256046638533e-02
-2.133487792203458966e-02
-1.982363714739188154e-02
4.275595501529672049e-02
-1.987777512618738029e-02
-2.953320785853730257e-02
-2.024331256886924280e-02
1.867058814605471184e-03
4.848308395661948822e-02
2.345280991308484886e-03
-7.003845732999280926e-03
3.482341624745721731e-02
-6.275733872902478083e-04
2.565055613252198441e-02
-2.064828835424803444e-02
2.636102902860670838e-02
4.102824596563969806e-03
-3.820315964407816622e-02
-2.669273481303591211e-02
-9.761869318152704977e-03
9.480646913992529790e-03
-8.905528362551429211e-03
2.968879308360872216e-03
-9.869317352881878946e-04
8.553250497933539975e-03
4.867866229156803115e-04
3.622091842066410550e-03
1.437366404614692783e-02
-1.188775222146931654e-02
-4.763615875243765174e-03
-1.698723421819892110e-02
2.316190243043969588e-03
-6.536435005077834148e-03
-5.988713514067711685e-03
1.887830120864020245e-03
-2.969234399469833363e-03
4.077145142327154304e-03
-9.297337736299482458e-03
-3.496091973168802269e-03
-3.048091615237780161e-03
1.115726795010374417e-02
1.493870825472232156e-02
-9.977434389604411535e-03
9.912479245784311388e-03
7.971778239522109288e-03
8.733411192592299699e-03
-4.864610215737030785e-03
1.281721867389506997e-03
2.930060649079635482e-03
4.276320928643428942e-02
3.536965540210856851e-02
