-1.853812934145795287e-15
4.635682248323665794e-02
3.474962306505380988e-02
1.654311705902160833e-03
-7.522251194006486855e-04
2.272970242345037726e-03
7.637690766081292083e-03
-1.193337642681978859e-04
5.095488793956684699e-03
-8.954666916820973321e-03
1.144614937122660422e-02
4.631416399949752315e-03
-2.386406500156989597e-05
-9.530781771159624110e-04
1.045563638186592769e-03
-3.625590954801117226e-03
3.553219608229555519e-03
-6.252055447187356008e-04
3.749537158557692852e-03
-1.363506991171010638e-02
-3.174410638324538965e-03
-1.277832103993646823e-03
1.306668898341733880e-03
-2.732978631172530530e-04
8.995839038969946026e-04
-1.459538294625585238e-03
1.438738292305594179e-04
1.006059555764395388e-02
-1.407041415710291645e-04
5.417442517686167115e-03
-5.134200414691368272e-03
-6.462873991102489196e-03
-3.745171774384415796e-03
-1.166004127197866475e-02
-1.559891521016418779e-02
-7.150640274743623459e-03
1.247281749003946970e-02
-1.002853303535993813e-02
1.851095747573901565e-02
-7.792979567867759118e-03
2.944546663150567761e-02
-1.218582120734248465e-02
1.734409354970620513e-03
1.201399119198561655e-02
3.392225792365042084e-03
-3.096893675671650442e-03
-3.061660483778490607e-02
-7.380129368544499635e-03
1.013910275941931269e-02
2.044699960072227964e-03
-2.695278429783230009e-03
-1.260865952845113998e-02
3.282837881571738087e-02
-1.409805847657003529e-02
-5.118922961566858831e-03
-1.006470208607249811e-02
4.704845180527156626e-03
2.305340377276931738e-02
5.435674722183942570e-03
1.292612440099507459e-02
7.612710583004668463e-02
-1.466776608834255251e-02
-7.887706197620055273e-03
2.961729794876921326e-02
4.137043200644940216e-02
1.893054434621988663e-02
5.780331256612921548e-03
1.814568484187690720e-02
-3.892573805624692691e-03
-2.042203063531992935e-02
7.111823802457800485e-03
8.606066710621976951e-03
6.627540135243855518e-03
-4.108702531142722353e-02
8.649294922647340553e-03
8.170722471882050850e-03
1.150119253997823089e-02
-3.222195831484648415e-02
-2.322313324742862270e-02
2.390386920282339123e-02
4.793493227141739678e-03
8.044637610519184134e-03
-5.871419745182834826e-02
2.307761013071596423e-02
3.620241027686262308e-03
4.538648218565923334e-03
1.564248559326654811e-02
-3.550881524995275901e-02
1.195956798617112821e-02
6.014339646311682441e-02
5.124151199912941462e-02
1.605547534280698380e-02
-5.740707353143421204e-02
1.609592184910139945e-02
6.238711768107293304e-02
7.455047715215638859e-02
5.938815008642143317e-02
-1.017144324956158891e-02
-2.148903126281012654e-02
-2.094416977482660772e-02
2.730685337387193934e-02
6.569043187860303112e-02
2.227432163420029268e-02
-3.844285093355234717e-02
9.916738772392769130e-03
-3.454956400090192919e-02
-3.006052672052945268e-02
1.375940473660454064e-02
-3.871166923667206106e-02
4.645969570607733773e-02
-1.215617984337141223e-02
1.817034344494113801e-02
-2.241503450720757490e-02
3.663441734854118448e-02
2.081010718009003099e-02
-4.011391507628781633e-02
-5.154223179929109944e-02
-9.178185436655950102e-02
4.689779616102726645e-02
-4.703390100795918488e-02
-6.624460879431102144e-03
-4.003126433651953836e-03
-3.003149796595840429e-02
-5.188749940339899835e-02
-7.499384972147694894e-02
-1.590110237590966697e-03
-5.292791570549727938e-03
5.221629920061470788e-03
-7.956328906816492741e-02
-3.799102145104698430e-02
-5.140352961124344117e-03
3.460680436610728133e-02
1.310683656470589820e-01
9.940880334858423484e-02
-1.073212769462237037e-01
-2.769974835852673234e-02
3.909506472614213829e-02
1.143875897775438466e-02
-1.038106807143124588e-01
-5.598170527140507169e-02
2.327550908921498241e-02
-1.669311070210149689e-03
9.518780496951337322e-02
-4.715964014918454933e-02
-6.991676956161145540e-02
-4.391295840551164703e-02
-2.780020400165371386e-02
-4.956358292532439536e-02
5.114961321548328055e-02
-3.723833997118332351e-02
-4.966574077007980537e-02
-7.077184350554001357e-02
1.469318279250856306e-02
5.969635961253188378e-02
-3.141455995785041866e-02
6.753253162664950293e-02
7.922660768499897865e-02
2.991942941332106920e-02
-7.286671333682934182e-02
-1.529434214030156447e-01
-1.276945827318480275e-01
-3.709004357817219377e-02
-5.381929236406326339e-02
4.144173607180814956e-02
5.411839836013947191e-02
-1.064453557528734079e-01
1.912951591951276564e-01
-5.714563317631556061e-02
4.981253555461694071e-02
-2.319038263170141445e-01
-1.727774822086216300e-01
-1.007031014382940015e-01
1.279427322792325156e-02
-2.501937748279841056e-01
-6.349735274725534784e-02
1.186926399439045161e-02
-6.163898582541389726e-02
7.432782447438400497e-02
-1.139467907428122068e-01
-6.442583057657733092e-02
1.649259043063487917e-01
-1.193805839785199753e-02
1.131536711060690016e-02
7.026012735310808999e-02
1.636840579046342781e-01
-2.290882310050660342e-01
-1.074666138030247187e-01
-5.605473306411450085e-02
-1.056644898211409195e-01
5.839929284516890556e-02
1.306460833799338861e-01
1.304876967073582417e-01
-1.246103440434824794e-01
1.695071478217578531e-01
1.236067315973317371e-01
7.334244483360094491e-02
-1.761900763224259758e-01
3.609780480898657634e-02
-5.423077224989258233e-02
2.104110264445729350e-01
-3.036087204384239208e-02
-1.686373647820501864e-01
2.890958843410144224e-02
-1.864526299213674077e-01
2.478095757799946841e-01
-4.536075496322802131e-02
7.418813460517088842e-02
5.455297675959770720e-02
7.512586663632947470e-02
-3.414287105574660697e-02
-1.040244096300726034e-01
9.475559523564533460e-02
2.183999861052213498e-01
1.177072579103872890e-01
1.028871326226458716e-01
9.252109161517601058e-03
8.867705963640311329e-02
-1.619025054645335526e-01
-4.576322411583262986e-03
2.950965770540792121e-01
-3.324099714701009983e-02
1.971648587743556891e-01
4.041148438995668113e-01
-9.825157920208105189e-02
2.455407178386698752e-01
3.515827245800624001e-01
-7.086900161237209839e-02
-2.781369932211484319e-01
6.940425811390305011e-02
-2.778120960984116206e-01
5.950171877917355412e-02
8.714215456134058457e-02
-5.624441686591173661e-02
-3.576591030890753919e-01
2.723050117171441631e-01
6.021160386927260078e-01
-6.162024980163464255e-02
-1.874411308626932338e-01
1.569025838829632702e-01
6.844530948440419316e-02
-1.825776248165796728e-02
1.164545160591287654e-01
-2.311834486459408700e-01
5.951852965014091390e-02
2.404641615580520031e-01
-2.132113082630457124e-01
-1.227594308575461896e-01
-1.900160871081819913e-01
2.500519278668852929e-01
2.011571070799144378e-01
-1.630498268916864280e-01
-1.007280022035589653e-02
5.266645232146375394e-02
-1.007349871381972434e-01
6.880418843271739193e-02
-6.286060093484896472e-02
4.132192996957911868e-03
2.482000880771931817e-01
-3.051682420229246406e-01
1.103450618559543434e-02
2.699903260509075101e-02
-4.242069885094669479e-02
-3.779587326852103246e-02
1.248281999524554625e-01
-2.996127077938305905e-01
-1.117002140163779328e-01
-1.796189829714503750e-01
-1.371294298927134836e-01
1.559368645710818291e-01
-2.475525452949673411e-01
-5.575804090509227373e-02
1.355357176442161526e-01
3.210354987966298479e-01
2.277453341146519761e-01
-4.461717104943365153e-01
-3.344796312205507438e-01
-4.333437686681000378e-01
-5.944966794606477700e-01
-9.675460293850746130e-02
1.093882798630108483e-01
-2.146813814671689469e-01
-5.862044948731130745e-02
2.783747184913733519e-01
-2.123337150924565486e-01
1.450347514115282732e-01
2.695058984039456207e-01
-5.483083068243585489e-02
-7.445920077638314150e-02
3.077396115391707876e-01
1.074855630923495786e-01
-9.686197893570472339e-02
9.302847810589488786e-02
-2.718861924938726360e-01
-2.131850920468932875e-01
1.920924877018591603e-01
-1.606167952852008418e-01
-2.452445922221656305e-01
8.919849546682519226e-02
1.242782643345420046e-01
-3.556535517926531220e-01
-1.804710336831204243e-01
1.801276985010219767e-01
5.056964747794906456e-01
2.622897057222139949e-01
-4.476869594942663177e-02
2.124806303377498040e-01
2.640757967388056016e-01
-1.786419259430829243e-01
2.437155364199943830e-01
9.923312272656564792e-02
4.864310290607915671e-02
-4.623568924817843540e-01
2.831877330713448299e-02
7.045985975973964033e-01
1.215488998995580966e-01
4.019892463570049479e-01
6.755204117263936547e-01
4.517284537896001373e-01
4.244876343009673647e-01
-1.455391559620868303e-01
2.522444801287946348e-01
-4.849672651838277809e-02
7.985609937591735263e-02
3.878532826935809363e-01
-2.648466553906652088e-01
-8.291787644973090676e-02
-2.208728863727948133e-01
1.846983725239498553e-01
-2.629261213034396749e-01
-9.574451777714852729e-02
-5.981422766581275807e-01
-4.234709305555574010e-01
-1.396949460615465495e-02
8.732260489227149369e-01
-3.578217096782207451e-02
2.586015402046564285e-02
7.219357383937128336e-01
-4.971188505173864125e-01
1.998340229604298746e-01
-1.658811283026801475e-01
-2.153718384677098807e-02
-4.930175742507290210e-02
1.953873007071573464e-01
9.497874839594392382e-01
1.153642417255772656e+00
7.109966516394549130e-01
-2.291158074862694460e-01
-1.451562790053196883e-01
1.690861332840713493e-01
2.163624222817772391e-01
-6.049674578685124704e-01
-7.138839402981972393e-01
-6.702088237700579709e-01
-1.371767087844310770e-02
-3.993402768084015064e-01
-1.118643343748536856e-01
-2.110114602881757728e-01
-2.309714125749142977e-01
-3.429408057892087691e-01
-2.364826220992357342e-01
-1.011346296428874275e-01
-3.807503944163485865e-02
-1.912985434367315551e-01
1.123423308340140703e-01
-8.315857811298932312e-02
-5.576510121108361195e-01
-4.214187183716440743e-01
-2.095836886570773550e-01
-7.906144815109815427e-02
1.287117765273750880e-01
-1.231261241838477599e-01
-1.485126025530252858e-01
-7.195667093539172277e-02
4.068876623877256196e-03
2.035991236236960322e-01
-8.485250430029868396e-02
1.770268638177439208e-02
-1.006373116550272617e-01
-2.985765189108893769e-01
-3.672950989169615488e-01
-1.161660156868280641e-02
3.362784337379422506e-01
-8.117388056236508886e-02
-1.391232760082451725e-01
-2.710386175748707438e-01
-2.485611414617678316e-01
-5.089486714384594546e-01
-4.422459616632452017e-01
4.972578896670303700e-02
-3.399535311467293819e-01
-1.585157186688364583e-01
-3.230956215495292549e-01
-5.133403998254398859e-01
-9.285141917157369376e-03
-1.827357711630474557e-01
-2.291982471480682459e-01
1.351127496509304526e-01
3.305104894302461349e-01
-1.703603282494036142e-01
9.377665908727562255e-03
-1.678443584165247027e-01
1.157150776371893147e-01
5.764948630166919635e-02
-4.751575674574583519e-01
-2.553126678495205026e-01
-5.478954639004713911e-01
-1.132960552853219394e-01
-7.343995739966738268e-02
3.377885305011417705e-01
-1.520855244679577833e-01
1.810415995755771945e-01
-9.237286524968685297e-02
-3.973974930294077446e-01
2.903904375926486536e-01
-4.813581642988308262e-01
2.539738288823905621e-01
1.559748096469233403e-01
2.105559899595148277e-02
1.503485573372915496e-01
1.432608384967988813e-01
-5.517163068838292633e-02
-8.357146224126082990e-02
2.686651646779620803e-02
7.217054176419455958e-02
-4.736970881186503002e-01
7.800082740618659305e-02
1.868589368181395038e-01
-3.462961842399390200e-01
-2.621073067008817259e-01
-8.231865789412838585e-02
7.976627756255365298e-02
-3.439767678965263697e-01
3.208241335471569422e-01
-1.149595360558629542e-01
-4.468331387492896489e-01
4.816365085782626371e-02
-6.616413378719400440e-02
1.651465225683245441e-01
-2.417768141180554053e-01
3.119422661442075584e-01
7.938896927344181453e-02
-1.983985899809870557e-01
-5.138128632900208770e-02
-2.449590068805194976e-01
-6.587912429604433906e-02
1.743628179418909019e-01
1.801400594188015125e-01
7.463173512508804175e-02
-4.051924213179571854e-01
4.808919448028169119e-02
3.661750644772059915e-01
-1.170481096458259596e-01
3.440349635046050514e-01
-1.725162796681072377e-02
1.784595691797710368e-02
1.900126253603197091e-01
-3.362700141449265906e-02
9.329955998685220131e-02
5.099792885757004068e-01
-9.706025277687460595e-02
-5.364013737676458921e-02
-1.672681169503809073e-01
3.451096529920755773e-01
2.161144759905528345e-01
7.225058313855145520e-02
-1.405203422174252370e-01
-1.006883227965125749e-01
8.060017605441953392e-02
2.275382161450911211e-01
-1.285859342149795470e-01
1.532276610348907303e-02
-4.599684208488559467e-02
-7.561611759327437066e-02
-4.608073379956391380e-02
4.521799496876665048e-01
7.193824610112770773e-03
-1.077449919982726018e-01
-3.980089390273792160e-01
2.612594119808702153e-01
-1.443047302461153945e-02
-4.080225330023682928e-01
-2.111087656556263070e-01
-2.470039979903713989e-01
-2.273135765496263686e-02
-1.008425436140550219e-01
3.979003738391162504e-02
1.459175044092483609e-01
1.050913897161844940e-01
-8.705922023980546334e-03
-1.117183611122574485e-02
-3.374454342119933559e-01
1.843644191649369268e-01
2.554881750402079321e-01
-1.271121690358244585e-03
-1.064257380227021238e-01
-1.900430654612964565e-01
-3.595545445385817107e-01
-6.978162062728428261e-02
3.675563704534282605e-01
5.122879678200380205e-02
-9.751685604541374119e-02
2.572773270458186268e-01
-1.298983766608290402e-01
-3.376719642084006212e-01
-4.002756749012685578e-02
8.904420106460761430e-02
1.081418240213660731e-01
6.394391163621222507e-01
-2.444893792285595668e-01
2.967512608776505245e-01
6.315670603697810803e-02
-1.859767692326637356e-02
-1.266100353579111770e+00
-1.859767692331187536e-02
6.315670603697656760e-02
2.967512608775850214e-01
-2.444893792285555423e-01
6.394391163621374607e-01
1.081418240213740806e-01
8.904420106460045337e-02
-4.002756749005376147e-02
-3.376719642084387019e-01
-1.298983766607569867e-01
2.572773270458778017e-01
-9.751685604536566854e-02
5.122879678205270043e-02
3.675563704534693388e-01
-6.978162062723408665e-02
-3.595545445385738281e-01
-1.900430654612288439e-01
-1.064257380226646260e-01
-1.271121690330026055e-03
2.554881750402547280e-01
1.843644191649550512e-01
-3.374454342119804218e-01
-1.117183611121301025e-02
-8.705922023957058178e-03
1.050913897161864924e-01
1.459175044092632656e-01
3.979003738390862049e-02
-1.008425436140316239e-01
-2.273135765494953622e-02
-2.470039979903519145e-01
-2.111087656556150383e-01
-4.080225330023699581e-01
-1.443047302462187494e-02
2.612594119808867021e-01
-3.980089390273574002e-01
-1.077449919982467752e-01
7.193824610124792407e-03
4.521799496876806046e-01
-4.608073379954422816e-02
-7.561611759327140081e-02
-4.599684208488833553e-02
1.532276610349157277e-02
-1.285859342149703877e-01
2.275382161451018070e-01
8.060017605442848510e-02
-1.006883227965016531e-01
-1.405203422174199079e-01
7.225058313854176850e-02
2.161144759905446189e-01
3.451096529920757994e-01
-1.672681169503778820e-01
-5.364013737676806559e-02
-9.706025277687760355e-02
5.099792885756704308e-01
9.329955998685621199e-02
-3.362700141450348373e-02
1.900126253603153237e-01
1.784595691798302602e-02
-1.725162796679373736e-02
3.440349635046072163e-01
-1.170481096457899883e-01
3.661750644772045482e-01
4.808919448029377181e-02
-4.051924213179595169e-01
7.463173512507664809e-02
1.801400594187973214e-01
1.743628179418772739e-01
-6.587912429603859366e-02
-2.449590068805020671e-01
-5.138128632897830117e-02
-1.983985899809778963e-01
7.938896927346111854e-02
3.119422661442087241e-01
-2.417768141180350050e-01
1.651465225683377835e-01
-6.616413378718076499e-02
4.816365085783193972e-02
-4.468331387492746609e-01
-1.149595360558474805e-01
3.208241335471591071e-01
-3.439767678965230391e-01
7.976627756255756652e-02
-8.231865789412044776e-02
-2.621073067008663493e-01
-3.462961842399276402e-01
1.868589368181453048e-01
7.800082740621044897e-02
-4.736970881186428062e-01
7.217054176420378830e-02
2.686651646780591207e-02
-8.357146224125787393e-02
-5.517163068838065731e-02
1.432608384967984927e-01
1.503485573372981554e-01
2.105559899595180542e-02
1.559748096469298351e-01
2.539738288823887302e-01
-4.813581642988224440e-01
2.903904375926449899e-01
-3.973974930294185137e-01
-9.237286524968831014e-02
1.810415995755732810e-01
-1.520855244679550633e-01
3.377885305011335548e-01
-7.343995739966788228e-02
-1.132960552853111147e-01
-5.478954639004660621e-01
-2.553126678495458157e-01
-4.751575674574560204e-01
5.764948630166378402e-02
1.157150776371809742e-01
-1.678443584165309199e-01
9.377665908705231160e-03
-1.703603282494130788e-01
3.305104894302212659e-01
1.351127496509219872e-01
-2.291982471480654149e-01
-1.827357711630653303e-01
-9.285141917161321076e-03
-5.133403998254698619e-01
-3.230956215495264239e-01
-1.585157186688579967e-01
-3.399535311467146159e-01
4.972578896669422460e-02
-4.422459616632137269e-01
-5.089486714384527932e-01
-2.485611414617633075e-01
-2.710386175748726867e-01
-1.391232760082395103e-01
-8.117388056235393112e-02
3.362784337379233213e-01
-1.161660156868244038e-02
-3.672950989169759817e-01
-2.985765189108932627e-01
-1.006373116550249580e-01
1.770268638178522369e-02
-8.485250430028587476e-02
2.035991236237178204e-01
4.068876623895141195e-03
-7.195667093536405046e-02
-1.485126025530128513e-01
-1.231261241838272763e-01
1.287117765273871062e-01
-7.906144815108404056e-02
-2.095836886570563440e-01
-4.214187183716351925e-01
-5.576510121108315676e-01
-8.315857811298402180e-02
1.123423308340172899e-01
-1.912985434367227289e-01
-3.807503944163073001e-02
-1.011346296428842217e-01
-2.364826220992365668e-01
-3.429408057892329720e-01
-2.309714125749109948e-01
-2.110114602881586754e-01
-1.118643343748398772e-01
-3.993402768084060028e-01
-1.371767087842955084e-02
-6.702088237700575268e-01
-7.138839402982116722e-01
-6.049674578685152460e-01
2.163624222817779885e-01
1.690861332840734588e-01
-1.451562790053246566e-01
-2.291158074862507665e-01
7.109966516394615743e-01
1.153642417255778874e+00
9.497874839594444563e-01
1.953873007071624812e-01
-4.930175742505655406e-02
-2.153718384677414874e-02
-1.658811283026740135e-01
1.998340229604212981e-01
-4.971188505173899097e-01
7.219357383937169415e-01
2.586015402046388384e-02
-3.578217096782834034e-02
8.732260489227088307e-01
-1.396949460615777745e-02
-4.234709305555631742e-01
-5.981422766581573347e-01
-9.574451777715792256e-02
-2.629261213034503331e-01
1.846983725239498275e-01
-2.208728863728048886e-01
-8.291787644972518911e-02
-2.648466553906488885e-01
3.878532826935966460e-01
7.985609937592227925e-02
-4.849672651837595716e-02
2.522444801287889171e-01
-1.455391559620871356e-01
4.244876343009635344e-01
4.517284537895678853e-01
6.755204117264029806e-01
4.019892463569844088e-01
1.215488998995520181e-01
7.045985975974180526e-01
2.831877330715925831e-02
-4.623568924817472725e-01
4.864310290610099341e-02
9.923312272654565003e-02
2.437155364199984076e-01
-1.786419259430638840e-01
2.640757967388241978e-01
2.124806303377560213e-01
-4.476869594941798591e-02
2.622897057222278172e-01
5.056964747794779891e-01
1.801276985010363818e-01
-1.804710336831063244e-01
-3.556535517926402989e-01
1.242782643345259480e-01
8.919849546684191499e-02
-2.452445922221631880e-01
-1.606167952851955127e-01
1.920924877018540533e-01
-2.131850920469075539e-01
-2.718861924939067753e-01
9.302847810589515154e-02
-9.686197893569792328e-02
1.074855630923574890e-01
3.077396115391453635e-01
-7.445920077640634516e-02
-5.483083068242991520e-02
2.695058984039528371e-01
1.450347514115219727e-01
-2.123337150924539674e-01
2.783747184913711870e-01
-5.862044948733823729e-02
-2.146813814671789944e-01
1.093882798629807890e-01
-9.675460293853303806e-02
-5.944966794606486582e-01
-4.333437686681327894e-01
-3.344796312205929878e-01
-4.461717104943477841e-01
2.277453341146465915e-01
3.210354987966038132e-01
1.355357176441729372e-01
-5.575804090515833894e-02
-2.475525452950126659e-01
1.559368645710375312e-01
-1.371294298927443756e-01
-1.796189829715420794e-01
-1.117002140164132656e-01
-2.996127077939218508e-01
1.248281999524385871e-01
-3.779587326858763890e-02
-4.242069885089347347e-02
2.699903260512664591e-02
1.103450618572023555e-02
-3.051682420229362980e-01
2.482000880772535500e-01
4.132192996957911868e-03
-6.286060093490221379e-02
6.880418843271556006e-02
-1.007349871382882817e-01
5.266645232143420119e-02
-1.007280022038772524e-02
-1.630498268916950599e-01
2.011571070799539618e-01
2.500519278669832146e-01
-1.900160871082171854e-01
-1.227594308574661425e-01
-2.132113082629849277e-01
2.404641615581339653e-01
5.951852965016424246e-02
-2.311834486458680393e-01
1.164545160591886896e-01
-1.825776248161950846e-02
6.844530948445448626e-02
1.569025838829967989e-01
-1.874411308626430239e-01
-6.162024980160098891e-02
6.021160386928112729e-01
2.723050117171852968e-01
-3.576591030890323708e-01
-5.624441686592011880e-02
8.714215456138010851e-02
5.950171877917505292e-02
-2.778120960983894716e-01
6.940425811393304001e-02
-2.781369932211294471e-01
-7.086900161236023288e-02
3.515827245800819401e-01
2.455407178386874723e-01
-9.825157920205523920e-02
4.041148438995798009e-01
1.971648587743705661e-01
-3.324099714697429514e-02
2.950965770540899813e-01
-4.576322411583070432e-03
-1.619025054645460704e-01
8.867705963640948319e-02
9.252109161520912645e-03
1.028871326226509231e-01
1.177072579103798644e-01
2.183999861052468017e-01
9.475559523564684727e-02
-1.040244096300740467e-01
-3.414287105574504572e-02
7.512586663634918116e-02
5.455297675962498399e-02
7.418813460515839842e-02
-4.536075496322966583e-02
2.478095757800185539e-01
-1.864526299213550009e-01
2.890958843406422202e-02
-1.686373647820496036e-01
-3.036087204385066671e-02
2.104110264445639422e-01
-5.423077224987784412e-02
3.609780480899831695e-02
-1.761900763224281408e-01
7.334244483362971356e-02
1.236067315973367053e-01
1.695071478217874406e-01
-1.246103440434721266e-01
1.304876967073533012e-01
1.306460833799448218e-01
5.839929284517312441e-02
-1.056644898211357153e-01
-5.605473306410681256e-02
-1.074666138030086204e-01
-2.290882310050462722e-01
1.636840579046612010e-01
7.026012735310356583e-02
1.131536711062617988e-02
-1.193805839784371423e-02
1.649259043063671937e-01
-6.442583057655131007e-02
-1.139467907427968718e-01
7.432782447439606477e-02
-6.163898582540451587e-02
1.186926399438971956e-02
-6.349735274723683487e-02
-2.501937748279683960e-01
1.279427322792809144e-02
-1.007031014383029527e-01
-1.727774822085893502e-01
-2.319038263170105085e-01
4.981253555462483024e-02
-5.714563317632151418e-02
1.912951591951381480e-01
-1.064453557528646371e-01
5.411839836014102623e-02
4.144173607180329927e-02
-5.381929236405068318e-02
-3.709004357817467096e-02
-1.276945827318572702e-01
-1.529434214030247763e-01
-7.286671333681425666e-02
2.991942941330720529e-02
7.922660768501439688e-02
6.753253162665562304e-02
-3.141455995784360467e-02
5.969635961252823392e-02
1.469318279251576043e-02
-7.077184350553314407e-02
-4.966574077008956839e-02
-3.723833997116916122e-02
5.114961321547453060e-02
-4.956358292531371640e-02
-2.780020400165472000e-02
-4.391295840552680851e-02
-6.991676956161661793e-02
-4.715964014919694219e-02
9.518780496951796677e-02
-1.669311070231828528e-03
2.327550908920836270e-02
-5.598170527141261427e-02
-1.038106807143334975e-01
1.143875897774299794e-02
3.909506472612254285e-02
-2.769974835852096959e-02
-1.073212769462574961e-01
9.940880334860950629e-02
1.310683656470474356e-01
3.460680436613042255e-02
-5.140352961153236803e-03
-3.799102145104193279e-02
-7.956328906816290125e-02
5.221629920058873907e-03
-5.292791570546325278e-03
-1.590110237624913934e-03
-7.499384972150582862e-02
-5.188749940339953959e-02
-3.003149796591342985e-02
-4.003126433612184433e-03
-6.624460879414526861e-03
-4.703390100794296869e-02
4.689779616105188564e-02
-9.178185436654069662e-02
-5.154223179926300386e-02
-4.011391507628058600e-02
2.081010718013009617e-02
3.663441734856641430e-02
-2.241503450718556126e-02
1.817034344498391976e-02
-1.215617984336265188e-02
4.645969570610117977e-02
-3.871166923666320703e-02
1.375940473664170535e-02
-3.006052672053232885e-02
-3.454956400087880186e-02
9.916738772392096057e-03
-3.844285093351158117e-02
2.227432163422637598e-02
6.569043187859335831e-02
2.730685337388488038e-02
-2.094416977481438139e-02
-2.148903126280186579e-02
-1.017144324954620538e-02
5.938815008642687326e-02
7.455047715214989379e-02
6.238711768109630323e-02
1.609592184909499832e-02
-5.740707353143683495e-02
1.605547534284681652e-02
5.124151199914551980e-02
6.014339646316142762e-02
1.195956798621554754e-02
-3.550881524995683214e-02
1.564248559328332983e-02
4.538648218539964932e-03
3.620241027660682509e-03
2.307761013074180120e-02
-5.871419745181473415e-02
8.044637610505507574e-03
4.793493227145337494e-03
2.390386920283349426e-02
-2.322313324742423385e-02
-3.222195831491973805e-02
1.150119253995246157e-02
8.170722471853021987e-03
8.649294922645220721e-03
-4.108702531145927428e-02
6.627540135195586837e-03
8.606066710595652522e-03
7.111823802498911697e-03
-2.042203063530852181e-02
-3.892573805661596765e-03
1.814568484187204303e-02
5.780331256566405805e-03
1.893054434620870460e-02
4.137043200645272589e-02
2.961729794875258073e-02
-7.887706197587411247e-03
-1.466776608835493843e-02
7.612710583005555254e-02
1.292612440096490255e-02
5.435674722206962350e-03
2.305340377263637858e-02
4.704845180557372039e-03
-1.006470208605832889e-02
-5.118922961529016706e-03
-1.409805847656389957e-02
3.282837881573181377e-02
-1.260865952839252888e-02
-2.695278429774406771e-03
2.044699960088966310e-03
1.013910275946582409e-02
-7.380129368572662003e-03
-3.061660483781354636e-02
-3.096893675679191719e-03
3.392225792322987182e-03
1.201399119200260816e-02
1.734409355000460359e-03
-1.218582120735992556e-02
2.944546663154128455e-02
-7.792979567891557789e-03
1.851095747577036210e-02
-1.002853303529775350e-02
1.247281749003948705e-02
-7.150640274801159033e-03
-1.559891521020939122e-02
-1.166004127194326077e-02
-3.745171774367070730e-03
-6.462873991105375776e-03
-5.134200414709525623e-03
5.417442517657272694e-03
-1.407041416310345506e-04
1.006059555767521707e-02
1.438738291670052754e-04
-1.459538294655993640e-03
8.995839038660125497e-04
-2.732978630372400169e-04
1.306668898436557334e-03
-1.277832103916549424e-03
-3.174410638417859715e-03
-1.363506991187336641e-02
3.749537158538925746e-03
-6.252055447104382015e-04
3.553219608239575281e-03
-3.625590954733998172e-03
1.045563638276762611e-03
-9.530781770077632626e-04
-2.386406499564212901e-05
4.631416399941514980e-03
1.144614937127540026e-02
-8.954666916802260859e-03
5.095488794041817988e-03
-1.193337642807475803e-04
7.637690766000642187e-03
2.272970242369712433e-03
-7.522251194124821017e-04
1.654311706059688686e-03
3.474962306528516648e-02
4.635682248335278727e-02
