9.501704505695547642e-02
4.364578973868576267e-02
4.635364458053355813e-02
-3.433683579847148035e-03
-6.243644440489195917e-03
-5.001469975648455829e-03
1.277861101302818145e-02
1.229269099993714198e-02
2.620475347596070564e-03
-6.211337174536989830e-03
1.195572371008369467e-02
1.382603016129210771e-02
-1.114366588672188740e-02
-3.826470286861755055e-03
-8.441563549940217515e-03
9.353201195760871278e-03
1.921127272282413534e-03
2.203692523132729994e-03
-9.880705250223579747e-03
-5.231327324915751448e-03
1.948031895770415550e-03
-1.756871435393508180e-02
-1.048763942721206086e-02
3.312985972020029632e-03
1.115003714582983932e-02
2.606563058850154893e-03
-3.989771574626620187e-03
1.982150147461875581e-02
-6.708877925935621822e-03
1.673642091022831124e-03
-1.426733282503266781e-02
-2.130496678983835948e-02
-1.930256615359420003e-02
2.469722601638682166e-03
-2.953185551731657768e-02
-5.154135168088561092e-03
2.136267068567171412e-02
-2.942534355068352619e-02
3.360275544210708509e-02
-9.745703014343133977e-03
2.569272701265637102e-02
-4.136969517032022987e-03
7.403209328442190984e-03
4.098204509766868731e-02
-3.106411161700030343e-02
1.630392686669633606e-02
-4.529924119843435626e-02
-1.447721900283672342e-02
5.276946279689746777e-02
-1.954857456529069185e-02
3.824324316107546862e-03
1.028626153526567694e-03
1.161749882185151433e-02
-1.147914395500395854e-02
-2.208706071869848825e-02
1.088605590488301092e-02
-1.854591086475457229e-02
6.959819531836600182e-02
-1.326438773501458293e-02
1.890080511135235064e-02
2.207979217994261445e-01
-3.817394737612131439e-02
-9.334104902251239011e-02
1.761290884162398651e-01
8.866874247206377180e-03
6.376330449818382040e-02
-3.097861307452482935e-02
4.571320328595280397e-02
-5.015115681084213184e-02
-1.232527446972371890e-02
-6.760515922746747342e-02
5.624279010849751043e-02
2.004066081847418607e-02
-1.430889897299453539e-01
3.985108976666907471e-02
-6.749426875455608391e-03
7.136907726906061011e-02
-7.979925378782429246e-02
2.005413557912757300e-02
1.516563308399140886e-02
-9.488166202604255556e-03
-3.812992844723240432e-02
-8.063281237152768177e-02
4.274338704666912764e-02
-1.078719424736299393e-01
1.364985479606310812e-03
4.557350550161174546e-02
-2.467325740577475113e-02
4.102884963216469477e-02
6.393273547330280415e-02
1.130789671686374953e-01
5.292001247827143179e-02
-1.466690029623036740e-01
5.332220420337203948e-02
1.286616990596592958e-01
9.552109687449075737e-02
1.222967263447035241e-01
-2.259853810098834404e-02
-7.722719635526043014e-02
3.531282369564120796e-03
4.905232001557457283e-02
3.877416354580151547e-02
1.240593594946710065e-01
-9.365587571389191041e-03
2.316921452447322574e-02
-6.180132317867967351e-02
-9.329924544455944768e-02
5.267125752337394051e-02
-6.937451623385018640e-02
8.753392624293243607e-02
9.262735527236836894e-03
-4.145862782145146030e-02
5.328956344454195693e-02
-5.036198075682105091e-03
4.311631474673276870e-02
6.078369425430503459e-03
-1.934774455400836146e-01
-1.247949584834781023e-01
1.913564967523667670e-01
-6.743263495081353032e-02
6.684803075300076169e-02
2.688557623959888371e-02
5.371400780050972212e-02
-1.201104376720735084e-01
-1.906663137163763788e-01
1.302844655993766754e-01
-1.520433630769602029e-02
8.646021716956550640e-02
-9.183498136662091027e-02
-2.305759640900718888e-01
-9.565884355258290339e-02
1.459906734521370930e-01
5.566379484853020004e-02
1.613900352450252929e-01
-7.865439364510137463e-03
-2.153642938786275718e-01
-1.210837649916467196e-02
1.140407536982831899e-01
-2.841774882203179087e-01
5.948189236498534899e-02
-1.109309136728218320e-03
1.700018374106968544e-01
1.134955973975852739e-01
-1.044086392159610660e-01
-1.306207224278189694e-01
3.026969915825773461e-01
-1.398602435383363707e-01
4.423900997936521667e-02
2.133767291159818780e-02
4.300841548140373061e-02
-3.356503750485350657e-01
2.204698776139546110e-02
4.848843470947367118e-02
-4.554277181931241925e-02
-1.142983378167622410e-01
7.269862057208889561e-02
3.192638140318011797e-02
7.532646750686843029e-02
-1.155350228628172354e-01
-2.269170217251976762e-01
-1.481428950696954405e-01
1.064320884777252979e-01
-2.166494241837201573e-01
4.577782901873823640e-01
-6.273857465047701087e-02
-2.441971769354832345e-01
2.298568537047220584e-01
5.266575084042114663e-02
-1.604884845276217942e-01
-5.833782080873417542e-01
-1.046822506246098405e-01
-2.032204586479983976e-01
8.696608196548813452e-02
-5.776520027747102937e-01
2.812337694927720677e-01
1.254854884029666107e-01
3.081865685268320859e-02
1.055892198411538946e-01
1.214513435847565936e-01
-5.226178093197167973e-01
4.213468920733413892e-02
2.238211256964305895e-01
-3.002121674389157113e-01
-3.445762514136767041e-01
4.291916786066195533e-01
-6.887106821511007615e-01
1.929403169951389874e-03
1.070088681417316750e-01
9.999186148562219656e-02
-3.244997598186719623e-01
-3.115642842751687597e-02
1.694412227596092391e-01
3.133248953969628436e-01
1.676563463157258044e-02
4.332732110219478794e-01
-4.877820054888825502e-02
-9.502656479437916748e-02
-3.049874722083289469e-01
2.509686058833728861e-01
5.552198328361684920e-01
-1.322991735856594575e-01
-1.475232199052954329e-01
-1.211662246047057745e-01
2.033235778032023156e-01
-5.390551787873885115e-01
-1.882409868208129999e-01
7.755113169182790145e-01
-2.703081428732665437e-01
-1.545926335146582120e-01
-5.030281904063784726e-01
8.494334918381407640e-02
3.965702870289663368e-02
4.495622918536351653e-01
3.424813613125510803e-01
2.395233105321630529e-01
-3.865179941353883430e-01
-5.761495700371367656e-02
9.354648231569322181e-02
-2.040648437444604058e-01
4.032087888094668116e-01
-7.034969093311041477e-02
8.714356398960504402e-01
6.606595371897988622e-01
-2.257201867325871192e-01
3.874476575365899400e-01
1.783290797352338752e-01
3.487479511530364173e-01
-4.866894903843347470e-02
-4.101998492703023969e-01
-5.772270371349711438e-01
-1.694254782357600131e-01
1.203558082982029431e-01
-5.189027234129873767e-01
-3.497238322575921265e-01
4.789231688032867806e-01
6.096304397692704491e-01
-7.225408952401263241e-02
4.002620834070955147e-02
1.273517893405313461e-01
1.689654569517633487e-01
-3.588429834922304273e-01
-1.095711703177540269e-01
-9.578856819195225025e-02
-3.326094352503916052e-01
2.672781540741628881e-01
7.201773775012579315e-02
-1.777888796976236363e-01
6.662439441133063966e-02
-1.448101006861753637e-01
-5.257431053714334279e-02
-6.511459225172289145e-01
-1.893695328963544422e-01
-3.064352778727390536e-01
2.661658483383640417e-01
-7.458296389874777277e-02
9.064689378315754498e-02
3.677247871260795331e-01
3.306669146716033347e-02
-7.590028045773392629e-01
-3.785698375719714903e-02
5.695653760022833384e-02
2.209647380980575906e-02
-1.530249403833303622e-02
3.831584068465505588e-01
-7.756791293500464590e-02
-8.627151765267613293e-01
-5.376210602162581065e-01
-2.774094822579140085e-01
2.045625874084365803e-01
-4.598756204561986194e-01
-8.470770372245533739e-03
8.520802734006207579e-01
1.571909246434753660e-01
-4.117931083238286771e-02
-6.834325315677408641e-01
-2.762359451059125948e-01
-1.369001671694458411e+00
-5.166962894488396074e-01
4.034904826233147723e-01
-7.888134679250849435e-02
-3.680269314614805221e-01
1.509451945863105882e-01
-1.307651993989074057e-01
2.214550740044498034e-01
1.093026831016468692e-01
1.674923035264179183e-01
1.316255504825422085e-01
-3.342636511270266619e-01
1.190063206465625578e+00
-5.145925283191925548e-01
-4.903787147779695155e-02
-8.361553187964548828e-02
-2.732550314916098455e-01
-2.686972009366400127e-01
3.465479638437070076e-01
-6.926203300146104302e-01
3.421196421045353264e-01
-5.082880292864094124e-02
-2.609722800836421219e-02
-1.771890383668925373e-01
-3.690942801675951568e-01
8.220956282078246691e-01
6.720315348327503546e-01
6.652766499652362775e-01
2.841258895517444899e-02
-2.080494498137039350e-01
8.681955475225360264e-01
-1.919906523570777956e-01
1.707851088783599036e-01
-2.332920501747040298e-01
1.300799137720346776e-01
-3.546011151536864192e-01
3.048203450212237653e-02
9.021642319452534142e-01
9.159039356222167250e-01
1.048190648515257006e+00
7.275958502465189603e-01
6.959671149383437339e-01
2.235995720721763447e-01
4.401009532263953083e-01
-8.722195903395443817e-02
-7.507025214726659179e-02
2.917031276583077481e-01
4.224848009558219153e-01
-6.690193902602273868e-01
-4.024956172646432934e-02
-8.192619831767691818e-02
2.747522323018780077e-01
-1.483703375117431389e-01
-4.030924662692022542e-01
-1.696620132774401490e+00
-5.571340205967372228e-01
2.365367641558752398e-01
8.623782555923837911e-01
4.067812604139348642e-01
-2.049827603748489990e-02
1.346591552901070132e+00
1.237771502136789104e-01
-7.796816521027025160e-02
9.270309739069933219e-02
2.141154010303796262e-01
1.361613904128185504e-01
-3.314753638329371310e-01
1.914172002795747840e+00
2.004344347828108219e+00
8.693767722959738764e-01
-1.842065607604026767e-01
-5.582037227398524148e-01
6.389873597903262814e-01
-6.648658019893683990e-01
-9.347215106002817464e-01
-6.827085862022258533e-01
-1.068057302309494139e+00
-3.567685196533159075e-01
-3.168295926591182532e-01
-2.628752549831632757e-01
-2.688653863443020153e-01
2.980966226641264538e-01
-7.878053929368059594e-01
-4.682884703269665216e-01
-9.062594438314745815e-02
2.223248120035219155e-01
-1.121340170513053514e-01
-2.763816944839320167e-01
-3.237127020716575321e-01
-5.741154918070090485e-01
-8.561249824345225079e-01
-4.707221234223083473e-01
-2.910088689378028115e-01
-4.549734177030971827e-01
-9.573587794035853804e-01
-4.238856383234878011e-01
2.419791190323687113e-01
-3.060902244094361180e-01
-4.665329726870074967e-01
4.013031532907223586e-01
2.478338475534115071e-01
5.312182004121390006e-04
-4.599538340169596062e-01
-5.958741957550908186e-01
1.083180128920947061e+00
-3.732562686336144964e-01
-1.498780655539691253e-01
6.929001812509714142e-01
-4.725215649312841104e-01
-3.335112216661562101e-01
-4.999228302762103171e-01
6.928322036299942865e-02
4.210609744592307135e-02
-2.229729735741559360e-01
-2.829602906033084619e-01
-6.235916911204832935e-01
-1.289421902593931302e-01
-2.227302488553069976e-02
-7.377794456557080771e-01
-5.457316971253461241e-02
1.455734452289887959e-01
-2.503828081844822750e-01
2.323264834630617628e-02
6.299296324796724855e-01
3.595975910032862544e-01
-3.521892911362712320e-01
-6.710241168212590646e-01
-4.102122718798679735e-01
7.875700149220232760e-02
-4.018328114693310305e-01
-2.503387050096733124e-01
-7.534261722789808990e-01
1.547535517243741332e-01
6.811139378898452001e-01
-5.241506612651102293e-01
-1.122494344849742504e-01
6.030914929010379542e-04
3.850779660453282349e-01
-3.615425539313135705e-01
2.040586511103626571e-02
-5.052952126841496749e-01
-2.892911534803367379e-01
1.728333733404989470e-01
7.963273871420019356e-02
3.046082737955968511e-01
-7.679240885383752102e-02
-7.616730234259434518e-01
-8.341917636619781973e-02
-1.208259388922748936e-02
2.764843391297144848e-01
-2.553337523175745472e-01
-8.887072902339768210e-02
-6.530709533170772074e-01
6.445178872024394379e-02
2.317437316380213108e-01
-3.665577025630305519e-01
-1.059184152605273932e-01
-2.797518174185488760e-01
-3.081511034510465707e-01
-3.137463455886100872e-01
-1.095285773083021080e-01
-1.560972431060571319e-01
9.128622491247169457e-02
-2.394516142766186795e-01
1.343151097279128570e-01
2.687478872292108911e-01
-2.325639924060959318e-01
-2.379910246319081046e-01
3.202199848450280051e-01
3.960514245867519101e-02
-1.228088535217429153e-02
4.774368504244073108e-01
4.074837281278576029e-01
6.298099261861894727e-03
6.849197075872737184e-01
-2.520948567379434624e-01
2.718358743488821089e-02
7.050298850952044054e-03
-1.219867980265832708e-01
2.126276433059710869e-01
-1.112611314216535863e-01
5.459364772263141513e-02
4.494640304339097003e-01
6.478263753350762544e-01
-1.812971167644425174e-01
2.850596615732270411e-01
2.642488767807001371e-01
-1.976544234681718026e-01
2.311620781154569704e-01
1.283806297770806737e-01
5.940194938545013612e-03
2.964572856812733859e-01
6.482273896361842036e-01
-3.731990738284546305e-01
-2.102975465238354491e-01
-2.750572270594721092e-01
-2.193156805920366270e-01
-3.466676996524262200e-01
-2.326553534851367663e-02
-1.036544444575479007e-01
3.367479258695839084e-01
-1.507643413230894958e-01
3.719220190960120243e-01
-1.264575488611716925e-01
-1.253553653405301560e-01
-1.518697283462952519e-01
-3.613051989591997137e-01
-1.806335627179617709e-01
-3.677093887071952172e-01
-3.464692748086890539e-01
6.820405709929966420e-02
5.039922353072529004e-01
1.868062241151798031e-01
6.450085124361459865e-01
3.797516625369268262e-01
-3.230574911124213244e-01
-4.204265401835944327e-01
-1.223125867157292268e-01
-6.835777814230588056e-01
3.166905958482628125e-01
-6.263455801787777277e-01
2.029339826283763637e-01
2.379836540187518779e-01
-3.717532877229812183e-01
5.316155121830759001e-01
6.989429066109026367e-01
1.934643307469177675e-01
1.694334085022579373e-01
7.298480408394721897e-01
-9.892555071878079975e-02
4.427321464484845204e-01
4.111515435595337609e-01
6.282733883922735074e-02
-9.482269397285010559e-02
-8.727556215062955147e-02
-5.191467812108233604e-01
-1.557743357808322848e+00
-5.191467812108850888e-01
-8.727556215069552648e-02
-9.482269397279194378e-02
6.282733883934848995e-02
4.111515435595280987e-01
4.427321464482031343e-01
-9.892555071891846741e-02
7.298480408396071928e-01
1.694334085020353375e-01
1.934643307471270446e-01
6.989429066110611766e-01
5.316155121830991037e-01
-3.717532877230756427e-01
2.379836540187674487e-01
2.029339826285202764e-01
-6.263455801787523036e-01
3.166905958483066663e-01
-6.835777814230001859e-01
-1.223125867156495961e-01
-4.204265401834789695e-01
-3.230574911123106352e-01
3.797516625368926313e-01
6.450085124361902844e-01
1.868062241151469405e-01
5.039922353072266992e-01
6.820405709930399407e-02
-3.464692748086151131e-01
-3.677093887071674061e-01
-1.806335627179767866e-01
-3.613051989592678814e-01
-1.518697283462701886e-01
-1.253553653404453627e-01
-1.264575488611152931e-01
3.719220190960581540e-01
-1.507643413230276286e-01
3.367479258696678968e-01
-1.036544444574782203e-01
-2.326553534847707050e-02
-3.466676996523960774e-01
-2.193156805920352670e-01
-2.750572270594558444e-01
-2.102975465238747788e-01
-3.731990738284449716e-01
6.482273896361469001e-01
2.964572856813170731e-01
5.940194938530382086e-03
1.283806297770916094e-01
2.311620781154510307e-01
-1.976544234682532375e-01
2.642488767807177896e-01
2.850596615732693406e-01
-1.812971167644286397e-01
6.478263753350196330e-01
4.494640304338506920e-01
5.459364772270126204e-02
-1.112611314216689490e-01
2.126276433059521853e-01
-1.219867980265287727e-01
7.050298851050878189e-03
2.718358743485705872e-02
-2.520948567379109329e-01
6.849197075872814899e-01
6.298099261922635202e-03
4.074837281278612111e-01
4.774368504243672318e-01
-1.228088535219582118e-02
3.960514245869993510e-02
3.202199848450988373e-01
-2.379910246318669986e-01
-2.325639924061141117e-01
2.687478872292298759e-01
1.343151097279365047e-01
-2.394516142766454636e-01
9.128622491252190441e-02
-1.560972431060483057e-01
-1.095285773082877168e-01
-3.137463455886098651e-01
-3.081511034510240887e-01
-2.797518174184557838e-01
-1.059184152605224805e-01
-3.665577025630300523e-01
2.317437316380396295e-01
6.445178872025091044e-02
-6.530709533170870884e-01
-8.887072902339170077e-02
-2.553337523175679413e-01
2.764843391297872599e-01
-1.208259388924183032e-02
-8.341917636617830756e-02
-7.616730234259199150e-01
-7.679240885380327064e-02
3.046082737955801978e-01
7.963273871416116922e-02
1.728333733404936456e-01
-2.892911534803446205e-01
-5.052952126841533387e-01
2.040586511103661960e-02
-3.615425539313054104e-01
3.850779660453487740e-01
6.030914928952020191e-04
-1.122494344849619130e-01
-5.241506612651447572e-01
6.811139378898557473e-01
1.547535517243988079e-01
-7.534261722789812321e-01
-2.503387050096123612e-01
-4.018328114693048847e-01
7.875700149215336676e-02
-4.102122718798775769e-01
-6.710241168212589535e-01
-3.521892911362914935e-01
3.595975910032819800e-01
6.299296324796136437e-01
2.323264834627545780e-02
-2.503828081844952091e-01
1.455734452289755843e-01
-5.457316971255794791e-02
-7.377794456557513758e-01
-2.227302488552915932e-02
-1.289421902594636848e-01
-6.235916911205250379e-01
-2.829602906033156229e-01
-2.229729735741870777e-01
4.210609744582179126e-02
6.928322036300647857e-02
-4.999228302762097620e-01
-3.335112216660980899e-01
-4.725215649312890509e-01
6.929001812509315572e-01
-1.498780655539807272e-01
-3.732562686336172164e-01
1.083180128921066299e+00
-5.958741957551176860e-01
-4.599538340169476158e-01
5.312182003920288935e-04
2.478338475534203611e-01
4.013031532906956578e-01
-4.665329726869358318e-01
-3.060902244094042546e-01
2.419791190323770935e-01
-4.238856383235343750e-01
-9.573587794035509635e-01
-4.549734177030841931e-01
-2.910088689378507176e-01
-4.707221234223291084e-01
-8.561249824344795423e-01
-5.741154918069782953e-01
-3.237127020715978576e-01
-2.763816944839254663e-01
-1.121340170513106943e-01
2.223248120035702102e-01
-9.062594438311405431e-02
-4.682884703270120963e-01
-7.878053929368065145e-01
2.980966226641229566e-01
-2.688653863443266623e-01
-2.628752549831488983e-01
-3.168295926591453426e-01
-3.567685196533302849e-01
-1.068057302309489476e+00
-6.827085862022510554e-01
-9.347215106002709772e-01
-6.648658019893456395e-01
6.389873597904016655e-01
-5.582037227398464196e-01
-1.842065607603707578e-01
8.693767722960257238e-01
2.004344347828055373e+00
1.914172002795708094e+00
-3.314753638329031582e-01
1.361613904128352592e-01
2.141154010303233934e-01
9.270309739064200305e-02
-7.796816521030465463e-02
1.237771502136772034e-01
1.346591552901092115e+00
-2.049827603746699756e-02
4.067812604139529609e-01
8.623782555923246163e-01
2.365367641559328049e-01
-5.571340205967723058e-01
-1.696620132774488088e+00
-4.030924662691822702e-01
-1.483703375118321233e-01
2.747522323019425672e-01
-8.192619831763879590e-02
-4.024956172645555857e-02
-6.690193902602961096e-01
4.224848009558447859e-01
2.917031276583176291e-01
-7.507025214720729200e-02
-8.722195903396107175e-02
4.401009532263940871e-01
2.235995720722410984e-01
6.959671149383683808e-01
7.275958502466431943e-01
1.048190648515262335e+00
9.159039356221370110e-01
9.021642319452078951e-01
3.048203450216140434e-02
-3.546011151536779815e-01
1.300799137720772269e-01
-2.332920501746396647e-01
1.707851088783276516e-01
-1.919906523571469070e-01
8.681955475225464625e-01
-2.080494498137536175e-01
2.841258895513268379e-02
6.652766499652364995e-01
6.720315348327551286e-01
8.220956282078637489e-01
-3.690942801675634044e-01
-1.771890383669299240e-01
-2.609722800841773882e-02
-5.082880292863176802e-02
3.421196421045709646e-01
-6.926203300145958863e-01
3.465479638436959053e-01
-2.686972009367423753e-01
-2.732550314915909717e-01
-8.361553187969941736e-02
-4.903787147777739774e-02
-5.145925283192139821e-01
1.190063206465558299e+00
-3.342636511270013489e-01
1.316255504826796818e-01
1.674923035264372639e-01
1.093026831016481737e-01
2.214550740043653709e-01
-1.307651993989066008e-01
1.509451945862716749e-01
-3.680269314614962317e-01
-7.888134679258718140e-02
4.034904826233267627e-01
-5.166962894488982272e-01
-1.369001671694570099e+00
-2.762359451060180660e-01
-6.834325315677656221e-01
-4.117931083239771695e-02
1.571909246434488316e-01
8.520802734004153667e-01
-8.470770372268175349e-03
-4.598756204561135763e-01
2.045625874084804618e-01
-2.774094822580803754e-01
-5.376210602164160912e-01
-8.627151765266320993e-01
-7.756791293521871078e-02
3.831584068464634063e-01
-1.530249403827103373e-02
2.209647380983036438e-02
5.695653760017242717e-02
-3.785698375721407993e-02
-7.590028045774157572e-01
3.306669146712800517e-02
3.677247871260795331e-01
9.064689378315630985e-02
-7.458296389875006260e-02
2.661658483382687290e-01
-3.064352778725166204e-01
-1.893695328961901014e-01
-6.511459225173010790e-01
-5.257431053692374762e-02
-1.448101006859131568e-01
6.662439441105769133e-02
-1.777888796974239904e-01
7.201773775036431069e-02
2.672781540741731576e-01
-3.326094352503559670e-01
-9.578856819168922454e-02
-1.095711703175294011e-01
-3.588429834921948447e-01
1.689654569518640459e-01
1.273517893406557744e-01
4.002620834090073187e-02
-7.225408952392708972e-02
6.096304397692809962e-01
4.789231688033797618e-01
-3.497238322574430791e-01
-5.189027234130112465e-01
1.203558082982025823e-01
-1.694254782357680345e-01
-5.772270371348194873e-01
-4.101998492702811361e-01
-4.866894903839566466e-02
3.487479511530321430e-01
1.783290797353580259e-01
3.874476575366434528e-01
-2.257201867325356326e-01
6.606595371897824309e-01
8.714356398960564354e-01
-7.034969093300397214e-02
4.032087888095231554e-01
-2.040648437444870789e-01
9.354648231566861649e-02
-5.761495700374379136e-02
-3.865179941354327520e-01
2.395233105321226408e-01
3.424813613126053702e-01
4.495622918535200907e-01
3.965702870287723947e-02
8.494334918386105271e-02
-5.030281904063368392e-01
-1.545926335146054209e-01
-2.703081428732861946e-01
7.755113169183687205e-01
-1.882409868208353154e-01
-5.390551787873708589e-01
2.033235778031675101e-01
-1.211662246047746222e-01
-1.475232199051857984e-01
-1.322991735856240136e-01
5.552198328361431789e-01
2.509686058834523781e-01
-3.049874722082266398e-01
-9.502656479448011451e-02
-4.877820054882197470e-02
4.332732110219594257e-01
1.676563463158955991e-02
3.133248953970039219e-01
1.694412227596521214e-01
-3.115642842745657004e-02
-3.244997598187315813e-01
9.999186148558895926e-02
1.070088681417650789e-01
1.929403169937923650e-03
-6.887106821510844412e-01
4.291916786066308220e-01
-3.445762514137271082e-01
-3.002121674388787409e-01
2.238211256964940943e-01
4.213468920740321561e-02
-5.226178093196655050e-01
1.214513435848142558e-01
1.055892198412315131e-01
3.081865685267957261e-02
1.254854884028748507e-01
2.812337694927159459e-01
-5.776520027746504526e-01
8.696608196559210691e-02
-2.032204586480723107e-01
-1.046822506245611156e-01
-5.833782080873721743e-01
-1.604884845275532934e-01
5.266575084037654342e-02
2.298568537047847860e-01
-2.441971769354285005e-01
-6.273857465046489557e-02
4.577782901873476140e-01
-2.166494241837207679e-01
1.064320884776887022e-01
-1.481428950697133984e-01
-2.269170217251824662e-01
-1.155350228628004156e-01
7.532646750693594573e-02
3.192638140317920203e-02
7.269862057198311911e-02
-1.142983378167204411e-01
-4.554277181927711415e-02
4.848843470950782442e-02
2.204698776141788760e-02
-3.356503750485840265e-01
4.300841548133301634e-02
2.133767291157360330e-02
4.423900997937334906e-02
-1.398602435383314579e-01
3.026969915825992175e-01
-1.306207224277649848e-01
-1.044086392161507199e-01
1.134955973975645543e-01
1.700018374106788965e-01
-1.109309136764234649e-03
5.948189236504614757e-02
-2.841774882203963459e-01
1.140407536983531755e-01
-1.210837649915355585e-02
-2.153642938787187211e-01
-7.865439364514394474e-03
1.613900352450348408e-01
5.566379484855490944e-02
1.459906734521207450e-01
-9.565884355253598259e-02
-2.305759640899429919e-01
-9.183498136663220679e-02
8.646021716961715953e-02
-1.520433630778576795e-02
1.302844655993748990e-01
-1.906663137163860933e-01
-1.201104376720205369e-01
5.371400780070009762e-02
2.688557623960306439e-02
6.684803075287110152e-02
-6.743263495083753889e-02
1.913564967526103500e-01
-1.247949584833366876e-01
-1.934774455401309379e-01
6.078369425461717206e-03
4.311631474680127640e-02
-5.036198075485769088e-03
5.328956344452435989e-02
-4.145862782137655494e-02
9.262735527212727707e-03
8.753392624301516156e-02
-6.937451623381349353e-02
5.267125752339622824e-02
-9.329924544480001913e-02
-6.180132317855609875e-02
2.316921452449104829e-02
-9.365587571431917280e-03
1.240593594947443368e-01
3.877416354575230484e-02
4.905232001537744579e-02
3.531282369533379761e-03
-7.722719635527991455e-02
-2.259853810094523269e-02
1.222967263447180819e-01
9.552109687445552166e-02
1.286616990597656551e-01
5.332220420350884671e-02
-1.466690029622750857e-01
5.292001247817174070e-02
1.130789671685963893e-01
6.393273547317995797e-02
4.102884963206435143e-02
-2.467325740570590689e-02
4.557350550177464987e-02
1.364985479653735984e-03
-1.078719424737753091e-01
4.274338704641827968e-02
-8.063281237171739113e-02
-3.812992844722565278e-02
-9.488166202531391966e-03
1.516563308378082731e-02
2.005413557897067420e-02
-7.979925378795736657e-02
7.136907726870758695e-02
-6.749426875450928107e-03
3.985108976649988366e-02
-1.430889897298162627e-01
2.004066081826781989e-02
5.624279010901169634e-02
-6.760515922728449478e-02
-1.232527446959972087e-02
-5.015115681104264506e-02
4.571320328578633990e-02
-3.097861307482580734e-02
6.376330449816525192e-02
8.866874247203709175e-03
1.761290884161259840e-01
-9.334104902250511815e-02
-3.817394737605214056e-02
2.207979217993616960e-01
1.890080511153067327e-02
-1.326438773487084721e-02
6.959819531838454254e-02
-1.854591086441016376e-02
1.088605590458951652e-02
-2.208706071863153486e-02
-1.147914395493011136e-02
1.161749882176678350e-02
1.028626153339713689e-03
3.824324315836624688e-03
-1.954857456534188354e-02
5.276946279693155162e-02
-1.447721900267450422e-02
-4.529924119809917299e-02
1.630392686676922567e-02
-3.106411161744140198e-02
4.098204509748488295e-02
7.403209328431555394e-03
-4.136969516899696546e-03
2.569272701281777663e-02
-9.745703014692413610e-03
3.360275544226357103e-02
-2.942534355019236353e-02
2.136267068567971814e-02
-5.154135167898936734e-03
-2.953185551726214206e-02
2.469722602184245761e-03
-1.930256615358976607e-02
-2.130496678999157026e-02
-1.426733282420208568e-02
1.673642090618050748e-03
-6.708877926054734875e-03
1.982150147466450740e-02
-3.989771574352367345e-03
2.606563059314240260e-03
1.115003714546259489e-02
3.312985972001135024e-03
-1.048763942742615002e-02
-1.756871435397504289e-02
1.948031895456227638e-03
-5.231327325168885767e-03
-9.880705250312404528e-03
2.203692523101243028e-03
1.921127271609181231e-03
9.353201196531803208e-03
-8.441563549686184609e-03
-3.826470286073069965e-03
-1.114366588686753826e-02
1.382603016098214385e-02
1.195572371011922527e-02
-6.211337175778668465e-03
2.620475348285272732e-03
1.229269100068320665e-02
1.277861101228387405e-02
-5.001469975469068942e-03
-6.243644440727240744e-03
-3.433683579657085660e-03
4.635364458073917837e-02
4.364578973969469866e-02
